{"learner":{"attributes":{"scikit_learn":"{\"_estimator_type\": \"classifier\"}"},"feature_names":[],"feature_types":[],"gradient_booster":{"model":{"gbtree_model_param":{"num_parallel_tree":"1","num_trees":"500"},"iteration_indptr":[0,5,10,15,20,25,30,35,40,45,50,55,60,65,70,75,80,85,90,95,100,105,110,115,120,125,130,135,140,145,150,155,160,165,170,175,180,185,190,195,200,205,210,215,220,225,230,235,240,245,250,255,260,265,270,275,280,285,290,295,300,305,310,315,320,325,330,335,340,345,350,355,360,365,370,375,380,385,390,395,400,405,410,415,420,425,430,435,440,445,450,455,460,465,470,475,480,485,490,495,500],"tree_info":[0,1,2,3,4,0,1,2,3,4,0,1,2,3,4,0,1,2,3,4,0,1,2,3,4,0,1,2,3,4,0,1,2,3,4,0,1,2,3,4,0,1,2,3,4,0,1,2,3,4,0,1,2,3,4,0,1,2,3,4,0,1,2,3,4,0,1,2,3,4,0,1,2,3,4,0,1,2,3,4,0,1,2,3,4,0,1,2,3,4,0,1,2,3,4,0,1,2,3,4,0,1,2,3,4,0,1,2,3,4,0,1,2,3,4,0,1,2,3,4,0,1,2,3,4,0,1,2,3,4,0,1,2,3,4,0,1,2,3,4,0,1,2,3,4,0,1,2,3,4,0,1,2,3,4,0,1,2,3,4,0,1,2,3,4,0,1,2,3,4,0,1,2,3,4,0,1,2,3,4,0,1,2,3,4,0,1,2,3,4,0,1,2,3,4,0,1,2,3,4,0,1,2,3,4,0,1,2,3,4,0,1,2,3,4,0,1,2,3,4,0,1,2,3,4,0,1,2,3,4,0,1,2,3,4,0,1,2,3,4,0,1,2,3,4,0,1,2,3,4,0,1,2,3,4,0,1,2,3,4,0,1,2,3,4,0,1,2,3,4,0,1,2,3,4,0,1,2,3,4,0,1,2,3,4,0,1,2,3,4,0,1,2,3,4,0,1,2,3,4,0,1,2,3,4,0,1,2,3,4,0,1,2,3,4,0,1,2,3,4,0,1,2,3,4,0,1,2,3,4,0,1,2,3,4,0,1,2,3,4,0,1,2,3,4,0,1,2,3,4,0,1,2,3,4,0,1,2,3,4,0,1,2,3,4,0,1,2,3,4,0,1,2,3,4,0,1,2,3,4,0,1,2,3,4,0,1,2,3,4,0,1,2,3,4,0,1,2,3,4,0,1,2,3,4,0,1,2,3,4,0,1,2,3,4,0,1,2,3,4,0,1,2,3,4,0,1,2,3,4,0,1,2,3,4,0,1,2,3,4,0,1,2,3,4,0,1,2,3,4,0,1,2,3,4,0,1,2,3,4,0,1,2,3,4,0,1,2,3,4,0,1,2,3,4,0,1,2,3,4,0,1,2,3,4,0,1,2,3,4,0,1,2,3,4,0,1,2,3,4],"trees":[{"base_weights":[-6.1436373E-1,-1.87353E-1,4.4720498E-1],"categories":[],"categories_nodes":[],"categories_segments":[],"categories_sizes":[],"default_left":[0,0,0],"id":0,"left_children":[1,-1,-1],"loss_changes":[2.8290955E1,0E0,0E0],"parents":[2147483647,0,0],"right_children":[2,-1,-1],"split_conditions":[2.5090556E0,-1.87353E-1,4.4720498E-1],"split_indices":[0,0,0],"split_type":[0,0,0],"sum_hessian":[1.2800001E3,1.27456E3,5.4400005E0],"tree_param":{"num_deleted":"0","num_feature":"1","num_nodes":"3","size_leaf_vector":"1"}},{"base_weights":[-2.2638562E-1,-6.1906123E-1,2.4068732E0,-1.8733118E-1,1.5517241E-1,7.4534154E-1,2.7950311E-2],"categories":[],"categories_nodes":[],"categories_segments":[],"categories_sizes":[],"default_left":[0,0,0,0,0,0,0],"id":1,"left_children":[1,3,5,-1,-1,-1,-1],"loss_changes":[1.3260652E3,7.1376953E0,2.9651245E1,0E0,0E0,0E0,0E0],"parents":[2147483647,0,0,1,1,2,2],"right_children":[2,4,6,-1,-1,-1,-1],"split_conditions":[1.1655093E0,1.1500862E0,2.5090556E0,-1.8733118E-1,1.5517241E-1,7.4534154E-1,2.7950311E-2],"split_indices":[0,0,0,0,0,0,0],"split_type":[0,0,0,0,0,0,0],"sum_hessian":[1.2800001E3,1.11456E3,1.6544002E2,1.1097601E3,4.8E0,1.6000002E2,5.4400005E0],"tree_param":{"num_deleted":"0","num_feature":"1","num_nodes":"7","size_leaf_vector":"1"}},{"base_weights":[8.1654954E-1,-1.871401E-1,1.8015767E0,2.475653E0,-1.8637346E-1,3.1034482E-1,2.4856117E0,7.4872E-1,3.1034482E-1],"categories":[],"categories_nodes":[],"categories_segments":[],"categories_sizes":[],"default_left":[0,0,0,0,0,0,0,0,0],"id":2,"left_children":[1,-1,3,5,-1,-1,7,-1,-1],"loss_changes":[1.8185859E3,0E0,1.2443779E3,5.97583E0,0E0,0E0,6.095459E0,0E0,0E0],"parents":[2147483647,0,0,2,2,3,3,6,6],"right_children":[2,-1,4,6,-1,-1,8,-1,-1],"split_conditions":[-2.3170705E-1,-1.871401E-1,1.1655093E0,-2.2458334E-1,-1.8637346E-1,3.1034482E-1,1.1500862E0,7.4872E-1,3.1034482E-1],"split_indices":[0,0,0,0,0,0,0,0,0],"split_type":[0,0,0,0,0,0,0,0,0],"sum_hessian":[1.2800001E3,5.2000006E2,7.6000006E2,5.9456006E2,1.6544002E2,4.8E0,5.897601E2,5.8496E2,4.8E0],"tree_param":{"num_deleted":"0","num_feature":"1","num_nodes":"9","size_leaf_vector":"1"}},{"base_weights":[4.7462916E-1,2.0671785E0,-6.162943E-1,-1.8486212E-1,2.485585E0,1.5517241E-1,-1.8725204E-1,4.3137255E-1,7.483176E-1],"categories":[],"categories_nodes":[],"categories_segments":[],"categories_sizes":[],"default_left":[0,0,0,0,0,0,0,0,0],"id":3,"left_children":[1,3,5,-1,7,-1,-1,-1,-1],"loss_changes":[2.2268186E3,5.864824E2,7.119568E0,0E0,5.739746E-1,0E0,0E0,0E0,0E0],"parents":[2147483647,0,0,1,1,2,2,4,4],"right_children":[2,4,6,-1,8,-1,-1,-1,-1],"split_conditions":[-2.3170705E-1,-1.6204855E0,-2.2458334E-1,-1.8486212E-1,-1.5902617E0,1.5517241E-1,-1.8725204E-1,4.3137255E-1,7.483176E-1],"split_indices":[0,0,0,0,0,0,0,0,0],"split_type":[0,0,0,0,0,0,0,0,0],"sum_hessian":[1.2800001E3,5.2000006E2,7.6000006E2,7.008E1,4.4992004E2,4.8E0,7.552001E2,5.1200004E0,4.4480002E2],"tree_param":{"num_deleted":"0","num_feature":"1","num_nodes":"9","size_leaf_vector":"1"}},{"base_weights":[-4.5042932E-1,7.394485E-1,-6.2118053E-1,3.9215684E-2,-1.8734449E-1],"categories":[],"categories_nodes":[],"categories_segments":[],"categories_sizes":[],"default_left":[0,0,0,0,0],"id":4,"left_children":[1,-1,3,-1,-1],"loss_changes":[6.3919226E2,0E0,3.0872192E0,0E0,0E0],"parents":[2147483647,0,0,2,2],"right_children":[2,-1,4,-1,-1],"split_conditions":[-1.6204855E0,7.394485E-1,-1.5902617E0,3.9215684E-2,-1.8734449E-1],"split_indices":[0,0,0,0,0],"split_type":[0,0,0,0,0],"sum_hessian":[1.2800001E3,7.008E1,1.20992E3,5.1200004E0,1.2048E3],"tree_param":{"num_deleted":"0","num_feature":"1","num_nodes":"5","size_leaf_vector":"1"}},{"base_weights":[-5.780828E-1,-1.7689818E-1,2.8263193E-1],"categories":[],"categories_nodes":[],"categories_segments":[],"categories_sizes":[],"default_left":[0,0,0],"id":5,"left_children":[1,-1,-1],"loss_changes":[1.8856598E1,0E0,0E0],"parents":[2147483647,0,0],"right_children":[2,-1,-1],"split_conditions":[2.5090556E0,-1.7689818E-1,2.8263193E-1],"split_indices":[0,0,0],"split_type":[0,0,0],"sum_hessian":[1.0388068E3,1.0315625E3,7.244307E0],"tree_param":{"num_deleted":"0","num_feature":"1","num_nodes":"3","size_leaf_vector":"1"}},{"base_weights":[-1.9272341E-1,-1.7686221E-1,1.2383697E0,1.2639452E0,2.584984E-2,1.184638E-1,3.8454074E-1],"categories":[],"categories_nodes":[],"categories_segments":[],"categories_sizes":[],"default_left":[0,0,0,0,0,0,0],"id":6,"left_children":[1,-1,3,5,-1,-1,-1],"loss_changes":[6.522929E2,0E0,7.240448E0,3.2791443E0,0E0,0E0,0E0],"parents":[2147483647,0,0,2,2,3,3],"right_children":[2,-1,4,6,-1,-1,-1],"split_conditions":[1.1500862E0,-1.7686221E-1,2.5090556E0,1.1655093E0,2.584984E-2,1.184638E-1,3.8454074E-1],"split_indices":[0,0,0,0,0,0,0],"split_type":[0,0,0,0,0,0,0],"sum_hessian":[1.1463552E3,8.9795575E2,2.4839944E2,2.429106E2,5.488859E0,5.356101E0,2.3755449E2],"tree_param":{"num_deleted":"0","num_feature":"1","num_nodes":"7","size_leaf_vector":"1"}},{"base_weights":[5.555639E-1,-1.7665555E-1,1.0301316E0,1.2767754E0,-1.7586106E-1,2.1294977E-1,1.2798069E0,3.8486388E-1,2.1295358E-1],"categories":[],"categories_nodes":[],"categories_segments":[],"categories_sizes":[],"default_left":[0,0,0,0,0,0,0,0,0],"id":7,"left_children":[1,-1,3,5,-1,-1,7,-1,-1],"loss_changes":[7.8117395E2,0E0,4.059087E2,6.0754395E-1,0E0,0E0,6.237793E-1,0E0,0E0],"parents":[2147483647,0,0,2,2,3,3,6,6],"right_children":[2,-1,4,6,-1,-1,8,-1,-1],"split_conditions":[-2.3170705E-1,-1.7665555E-1,1.1655093E0,-2.2458334E-1,-1.7586106E-1,2.1294977E-1,1.1500862E0,3.8486388E-1,2.1295358E-1],"split_indices":[0,0,0,0,0,0,0,0,0],"split_type":[0,0,0,0,0,0,0,0,0],"sum_hessian":[1.436237E3,4.209292E2,1.0153079E3,8.810714E2,1.342365E2,5.9368367E0,8.751346E2,8.691978E2,5.9367876E0],"tree_param":{"num_deleted":"0","num_feature":"1","num_nodes":"9","size_leaf_vector":"1"}},{"base_weights":[3.4588796E-1,1.1287677E0,-1.7678346E-1,-1.7414965E-1,1.2739931E0,3.8413343E-1,1.1846074E-1],"categories":[],"categories_nodes":[],"categories_segments":[],"categories_sizes":[],"default_left":[0,0,0,0,0,0,0],"id":8,"left_children":[1,3,-1,-1,5,-1,-1],"loss_changes":[9.8330743E2,1.8217487E2,0E0,0E0,3.3171387E0,0E0,0E0],"parents":[2147483647,0,0,1,1,4,4],"right_children":[2,4,-1,-1,6,-1,-1],"split_conditions":[-2.2458334E-1,-1.6204855E0,-1.7678346E-1,-1.7414965E-1,-2.3170705E-1,3.8413343E-1,1.1846074E-1],"split_indices":[0,0,0,0,0,0,0],"split_type":[0,0,0,0,0,0,0],"sum_hessian":[1.3411826E3,7.299194E2,6.112633E2,5.69253E1,6.729941E2,6.6763794E2,5.3561497E0],"tree_param":{"num_deleted":"0","num_feature":"1","num_nodes":"7","size_leaf_vector":"1"}},{"base_weights":[-4.059414E-1,3.8395724E-1,-5.857512E-1,3.4535825E-2,-1.7688523E-1],"categories":[],"categories_nodes":[],"categories_segments":[],"categories_sizes":[],"default_left":[0,0,0,0,0],"id":9,"left_children":[1,-1,3,-1,-1],"loss_changes":[3.2968225E2,0E0,2.7267761E0,0E0,0E0],"parents":[2147483647,0,0,2,2],"right_children":[2,-1,4,-1,-1],"split_conditions":[-1.6204855E0,3.8395724E-1,-1.5902617E0,3.4535825E-2,-1.7688523E-1],"split_indices":[0,0,0,0,0],"split_type":[0,0,0,0,0],"sum_hessian":[1.0841453E3,1.03901665E2,9.802435E2,5.2198834E0,9.750237E2],"tree_param":{"num_deleted":"0","num_feature":"1","num_nodes":"5","size_leaf_vector":"1"}},{"base_weights":[-5.5349696E-1,-1.699246E-1,2.0462999E-1],"categories":[],"categories_nodes":[],"categories_segments":[],"categories_sizes":[],"default_left":[0,0,0],"id":10,"left_children":[1,-1,-1],"loss_changes":[1.3793793E1,0E0,0E0],"parents":[2147483647,0,0],"right_children":[2,-1,-1],"split_conditions":[2.5090556E0,-1.699246E-1,2.0462999E-1],"split_indices":[0,0,0],"split_type":[0,0,0],"sum_hessian":[8.389656E2,8.308208E2,8.1447735E0],"tree_param":{"num_deleted":"0","num_feature":"1","num_nodes":"3","size_leaf_vector":"1"}},{"base_weights":[-1.734E-1,-1.6988018E-1,9.149875E-1,9.3240833E-1,2.5918864E-2,9.435585E-2,2.8360406E-1],"categories":[],"categories_nodes":[],"categories_segments":[],"categories_sizes":[],"default_left":[0,0,0,0,0,0,0],"id":11,"left_children":[1,-1,3,5,-1,-1,-1],"loss_changes":[4.215177E2,0E0,3.694397E0,1.7495117E0,0E0,0E0,0E0],"parents":[2147483647,0,0,2,2,3,3],"right_children":[2,-1,4,6,-1,-1,-1],"split_conditions":[1.1500862E0,-1.6988018E-1,2.5090556E0,1.1655093E0,2.5918864E-2,9.435585E-2,2.8360406E-1],"split_indices":[0,0,0,0,0,0,0],"split_type":[0,0,0,0,0,0,0],"sum_hessian":[9.835829E2,7.2306366E2,2.6051926E2,2.55032E2,5.4872475E0,5.74988E0,2.4928212E2],"tree_param":{"num_deleted":"0","num_feature":"1","num_nodes":"7","size_leaf_vector":"1"}},{"base_weights":[4.4970477E-1,-1.6963065E-1,7.831526E-1,9.413166E-1,-1.6870946E-1,1.5775864E-1,9.4375163E-1,2.838666E-1,1.577639E-1],"categories":[],"categories_nodes":[],"categories_segments":[],"categories_sizes":[],"default_left":[0,0,0,0,0,0,0,0,0],"id":12,"left_children":[1,-1,3,5,-1,-1,7,-1,-1],"loss_changes":[4.6515466E2,0E0,2.2054315E2,4.3988037E-1,0E0,0E0,4.508667E-1,0E0,0E0],"parents":[2147483647,0,0,2,2,3,3,6,6],"right_children":[2,-1,4,6,-1,-1,8,-1,-1],"split_conditions":[-2.3170705E-1,-1.6963065E-1,1.1655093E0,-2.2458334E-1,-1.6870946E-1,1.5775864E-1,1.1500862E0,2.838666E-1,1.577639E-1],"split_indices":[0,0,0,0,0,0,0,0,0],"split_type":[0,0,0,0,0,0,0,0,0],"sum_hessian":[1.3718713E3,3.3903275E2,1.0328386E3,9.2446875E2,1.08369865E2,6.6510096E0,9.1781775E2,9.111668E2,6.6509433E0],"tree_param":{"num_deleted":"0","num_feature":"1","num_nodes":"9","size_leaf_vector":"1"}},{"base_weights":[2.880131E-1,8.468994E-1,-1.6979255E-1,-1.6667788E-1,9.3886244E-1,9.435306E-1,9.435125E-2,1.8210667E-1,2.839285E-1],"categories":[],"categories_nodes":[],"categories_segments":[],"categories_sizes":[],"default_left":[0,0,0,0,0,0,0,0,0],"id":13,"left_children":[1,3,-1,-1,5,7,-1,-1,-1],"loss_changes":[5.950835E2,9.769464E1,0E0,0E0,1.7650757E0,1.0974121E-1,0E0,0E0,0E0],"parents":[2147483647,0,0,1,1,4,4,5,5],"right_children":[2,4,-1,-1,6,8,-1,-1,-1],"split_conditions":[-2.2458334E-1,-1.6204855E0,-1.6979255E-1,-1.6667788E-1,-2.3170705E-1,-1.5902617E0,9.435125E-2,1.8210667E-1,2.839285E-1],"split_indices":[0,0,0,0,0,0,0,0,0],"split_type":[0,0,0,0,0,0,0,0,0],"sum_hessian":[1.2448121E3,7.5241077E2,4.9240137E2,4.599024E1,7.0642053E2,7.006706E2,5.7499566E0,7.7791696E0,6.928914E2],"tree_param":{"num_deleted":"0","num_feature":"1","num_nodes":"9","size_leaf_vector":"1"}},{"base_weights":[-3.780873E-1,2.8314397E-1,-5.6170315E-1,4.0516295E-2,-1.699161E-1],"categories":[],"categories_nodes":[],"categories_segments":[],"categories_sizes":[],"default_left":[0,0,0,0,0],"id":14,"left_children":[1,-1,3,-1,-1],"loss_changes":[2.1915533E2,0E0,2.6595001E0,0E0,0E0],"parents":[2147483647,0,0,2,2],"right_children":[2,-1,4,-1,-1],"split_conditions":[-1.6204855E0,2.8314397E-1,-1.5902617E0,4.0516295E-2,-1.699161E-1],"split_indices":[0,0,0,0,0],"split_type":[0,0,0,0,0],"sum_hessian":[8.9972314E2,1.09227135E2,7.9049603E2,5.0925455E0,7.854035E2],"tree_param":{"num_deleted":"0","num_feature":"1","num_nodes":"5","size_leaf_vector":"1"}},{"base_weights":[-5.347627E-1,-1.6475332E-1,1.5736201E-1],"categories":[],"categories_nodes":[],"categories_segments":[],"categories_sizes":[],"default_left":[0,0,0],"id":15,"left_children":[1,-1,-1],"loss_changes":[1.048204E1,0E0,0E0],"parents":[2147483647,0,0],"right_children":[2,-1,-1],"split_conditions":[2.5090556E0,-1.6475332E-1,1.5736201E-1],"split_indices":[0,0,0],"split_type":[0,0,0],"sum_hessian":[6.665866E2,6.5811255E2,8.474064E0],"tree_param":{"num_deleted":"0","num_feature":"1","num_nodes":"3","size_leaf_vector":"1"}},{"base_weights":[-1.6019851E-1,-1.6469993E-1,7.5506896E-1,7.6991135E-1,2.7119784E-2,7.7438496E-2,2.3462741E-1],"categories":[],"categories_nodes":[],"categories_segments":[],"categories_sizes":[],"default_left":[0,0,0,0,0,0,0],"id":16,"left_children":[1,-1,3,5,-1,-1,-1],"loss_changes":[2.9095825E2,0E0,2.3359985E0,1.2841034E0,0E0,0E0,0E0],"parents":[2147483647,0,0,2,2,3,3],"right_children":[2,-1,4,6,-1,-1,-1],"split_conditions":[1.1500862E0,-1.6469993E-1,2.5090556E0,1.1655093E0,2.7119784E-2,7.7438496E-2,2.3462741E-1],"split_indices":[0,0,0,0,0,0,0],"split_type":[0,0,0,0,0,0,0],"sum_hessian":[8.154618E2,5.72617E2,2.4284477E2,2.373855E2,5.459273E0,6.0341415E0,2.3135136E2],"tree_param":{"num_deleted":"0","num_feature":"1","num_nodes":"7","size_leaf_vector":"1"}},{"base_weights":[3.9010435E-1,-1.6439174E-1,6.5703154E-1,7.779207E-1,-1.632613E-1,1.2170198E-1,7.805349E-1,2.3495781E-1,1.2170815E-1],"categories":[],"categories_nodes":[],"categories_segments":[],"categories_sizes":[],"default_left":[0,0,0,0,0,0,0,0,0],"id":17,"left_children":[1,-1,3,5,-1,-1,7,-1,-1],"loss_changes":[3.0448038E2,0E0,1.377923E2,5.201416E-1,0E0,0E0,5.317993E-1,0E0,0E0],"parents":[2147483647,0,0,2,2,3,3,6,6],"right_children":[2,-1,4,6,-1,-1,8,-1,-1],"split_conditions":[-2.3170705E-1,-1.6439174E-1,1.1655093E0,-2.2458334E-1,-1.632613E-1,1.2170198E-1,1.1500862E0,2.3495781E-1,1.2170815E-1],"split_indices":[0,0,0,0,0,0,0,0,0],"split_type":[0,0,0,0,0,0,0,0,0],"sum_hessian":[1.2135468E3,2.6858633E2,9.4496045E2,8.588777E2,8.608276E1,7.0788016E0,8.517989E2,8.4472015E2,7.0787354E0],"tree_param":{"num_deleted":"0","num_feature":"1","num_nodes":"9","size_leaf_vector":"1"}},{"base_weights":[2.5398806E-1,7.058833E-1,-1.6459186E-1,-1.6078322E-1,7.7573615E-1,7.8013414E-1,7.7432856E-2,1.4146876E-1,2.3497017E-1],"categories":[],"categories_nodes":[],"categories_segments":[],"categories_sizes":[],"default_left":[0,0,0,0,0,0,0,0,0],"id":18,"left_children":[1,3,-1,-1,5,7,-1,-1,-1],"loss_changes":[3.9363922E2,6.0626434E1,0E0,0E0,1.2955627E0,2.538147E-1,0E0,0E0,0E0],"parents":[2147483647,0,0,1,1,4,4,5,5],"right_children":[2,4,-1,-1,6,8,-1,-1,-1],"split_conditions":[-2.2458334E-1,-1.6204855E0,-1.6459186E-1,-1.6078322E-1,-2.3170705E-1,-1.5902617E0,7.7432856E-2,1.4146876E-1,2.3497017E-1],"split_indices":[0,0,0,0,0,0,0,0,0],"split_type":[0,0,0,0,0,0,0,0,0],"sum_hessian":[1.083224E3,6.931099E2,3.901141E2,3.6555862E1,6.56554E2,6.505198E2,6.034237E0,7.992761E0,6.4252704E2],"tree_param":{"num_deleted":"0","num_feature":"1","num_nodes":"9","size_leaf_vector":"1"}},{"base_weights":[-3.5814047E-1,7.5038815E-1,-1.6474235E-1,2.340572E-1,3.87798E-2],"categories":[],"categories_nodes":[],"categories_segments":[],"categories_sizes":[],"default_left":[0,0,0,0,0],"id":19,"left_children":[1,3,-1,-1,-1],"loss_changes":[1.5494E2,1.8926201E0,0E0,0E0,0E0],"parents":[2147483647,0,0,1,1],"right_children":[2,4,-1,-1,-1],"split_conditions":[-1.5902617E0,-1.6204855E0,-1.6474235E-1,2.340572E-1,3.87798E-2],"split_indices":[0,0,0,0,0],"split_type":[0,0,0,0,0],"sum_hessian":[7.2883575E2,1.06691505E2,6.221442E2,1.0156228E2,5.129231E0],"tree_param":{"num_deleted":"0","num_feature":"1","num_nodes":"5","size_leaf_vector":"1"}},{"base_weights":[-5.2003956E-1,-1.6086906E-1,1.2468118E-1],"categories":[],"categories_nodes":[],"categories_segments":[],"categories_sizes":[],"default_left":[0,0,0],"id":20,"left_children":[1,-1,-1],"loss_changes":[8.147873E0,0E0,0E0],"parents":[2147483647,0,0],"right_children":[2,-1,-1],"split_conditions":[2.5090556E0,-1.6086906E-1,1.2468118E-1],"split_indices":[0,0,0],"split_type":[0,0,0],"sum_hessian":[5.221494E2,5.136873E2,8.46211E0],"tree_param":{"num_deleted":"0","num_feature":"1","num_nodes":"3","size_leaf_vector":"1"}},{"base_weights":[-1.5060091E-1,-1.6080455E-1,6.6066366E-1,6.749725E-1,2.8667144E-2,6.495984E-2,2.0643601E-1],"categories":[],"categories_nodes":[],"categories_segments":[],"categories_sizes":[],"default_left":[0,0,0,0,0,0,0],"id":21,"left_children":[1,-1,3,5,-1,-1,-1],"loss_changes":[2.066421E2,0E0,1.6573029E0,1.1017456E0,0E0,0E0,0E0],"parents":[2147483647,0,0,2,2,3,3],"right_children":[2,-1,4,6,-1,-1,-1],"split_conditions":[1.1500862E0,-1.6080455E-1,2.5090556E0,1.1655093E0,2.8667144E-2,6.495984E-2,2.0643601E-1],"split_indices":[0,0,0,0,0,0,0],"split_type":[0,0,0,0,0,0,0],"sum_hessian":[6.587565E2,4.4682083E2,2.1193562E2,2.065122E2,5.423414E0,6.244444E0,2.0026776E2],"tree_param":{"num_deleted":"0","num_feature":"1","num_nodes":"7","size_leaf_vector":"1"}},{"base_weights":[3.5261616E-1,-1.6041487E-1,5.819842E-1,6.8318796E-1,-1.589877E-1,9.6109755E-2,6.86349E-1,2.0687191E-1,9.6116886E-2],"categories":[],"categories_nodes":[],"categories_segments":[],"categories_sizes":[],"default_left":[0,0,0,0,0,0,0,0,0],"id":22,"left_children":[1,-1,3,5,-1,-1,7,-1,-1],"loss_changes":[2.0854521E2,0E0,9.190332E1,6.357727E-1,0E0,0E0,6.506653E-1,0E0,0E0],"parents":[2147483647,0,0,2,2,3,3,6,6],"right_children":[2,-1,4,6,-1,-1,8,-1,-1],"split_conditions":[-2.3170705E-1,-1.6041487E-1,1.1655093E0,-2.2458334E-1,-1.589877E-1,9.6109755E-2,1.1500862E0,2.0687191E-1,9.6116886E-2],"split_indices":[0,0,0,0,0,0,0,0,0],"split_type":[0,0,0,0,0,0,0,0,0],"sum_hessian":[1.0221338E3,2.0967079E2,8.12463E2,7.4503876E2,6.742427E1,7.3189983E0,7.377197E2,7.304008E2,7.3189425E0],"tree_param":{"num_deleted":"0","num_feature":"1","num_nodes":"9","size_leaf_vector":"1"}},{"base_weights":[2.3194638E-1,6.2274355E-1,-1.6066608E-1,-1.5591139E-1,6.809886E-1,6.8574196E-1,6.495327E-2,1.1246491E-1,2.06852E-1],"categories":[],"categories_nodes":[],"categories_segments":[],"categories_sizes":[],"default_left":[0,0,0,0,0,0,0,0,0],"id":23,"left_children":[1,3,-1,-1,5,7,-1,-1,-1],"loss_changes":[2.715097E2,4.0248154E1,0E0,0E0,1.1119385E0,4.0231323E-1,0E0,0E0,0E0],"parents":[2147483647,0,0,1,1,4,4,5,5],"right_children":[2,4,-1,-1,6,8,-1,-1,-1],"split_conditions":[-2.2458334E-1,-1.6204855E0,-1.6066608E-1,-1.5591139E-1,-2.3170705E-1,-1.5902617E0,6.495327E-2,1.1246491E-1,2.06852E-1],"split_indices":[0,0,0,0,0,0,0,0,0],"split_type":[0,0,0,0,0,0,0,0,0],"sum_hessian":[9.0311096E2,5.985359E2,3.045751E2,2.865034E1,5.6988556E2,5.63641E2,6.244554E0,7.9479027E0,5.556931E2],"tree_param":{"num_deleted":"0","num_feature":"1","num_nodes":"9","size_leaf_vector":"1"}},{"base_weights":[-3.4328562E-1,6.56379E-1,-1.6085483E-1,2.0568801E-1,3.7790567E-2],"categories":[],"categories_nodes":[],"categories_segments":[],"categories_sizes":[],"default_left":[0,0,0,0,0],"id":24,"left_children":[1,3,-1,-1,-1],"loss_changes":[1.1216939E2,1.3756561E0,0E0,0E0,0E0],"parents":[2147483647,0,0,1,1],"right_children":[2,4,-1,-1,-1],"split_conditions":[-1.5902617E0,-1.6204855E0,-1.6085483E-1,2.0568801E-1,3.7790567E-2],"split_indices":[0,0,0,0,0],"split_type":[0,0,0,0,0],"sum_hessian":[5.7886835E2,9.324346E1,4.8562488E2,8.809322E1,5.1502366E0],"tree_param":{"num_deleted":"0","num_feature":"1","num_nodes":"5","size_leaf_vector":"1"}},{"base_weights":[-5.0808465E-1,-1.5793505E-1,1.0019495E-1],"categories":[],"categories_nodes":[],"categories_segments":[],"categories_sizes":[],"default_left":[0,0,0],"id":25,"left_children":[1,-1,-1],"loss_changes":[6.4474945E0,0E0,0E0],"parents":[2147483647,0,0],"right_children":[2,-1,-1],"split_conditions":[2.5090556E0,-1.5793505E-1,1.0019495E-1],"split_indices":[0,0,0],"split_type":[0,0,0],"sum_hessian":[4.0453934E2,3.9627145E2,8.267864E0],"tree_param":{"num_deleted":"0","num_feature":"1","num_nodes":"3","size_leaf_vector":"1"}},{"base_weights":[-1.4323491E-1,-1.5785626E-1,5.9863245E-1,6.135768E-1,3.00273E-2,5.535504E-2,1.8868421E-1],"categories":[],"categories_nodes":[],"categories_segments":[],"categories_sizes":[],"default_left":[0,0,0,0,0,0,0],"id":26,"left_children":[1,-1,3,5,-1,-1,-1],"loss_changes":[1.4893828E2,0E0,1.2690239E0,1.0260544E0,0E0,0E0,0E0],"parents":[2147483647,0,0,2,2,3,3],"right_children":[2,-1,4,6,-1,-1,-1],"split_conditions":[1.1500862E0,-1.5785626E-1,2.5090556E0,1.1655093E0,3.00273E-2,5.535504E-2,1.8868421E-1],"split_indices":[0,0,0,0,0,0,0],"split_type":[0,0,0,0,0,0,0],"sum_hessian":[5.221372E2,3.445638E2,1.775734E2,1.7218132E2,5.392068E0,6.4045978E0,1.6577673E2],"tree_param":{"num_deleted":"0","num_feature":"1","num_nodes":"7","size_leaf_vector":"1"}},{"base_weights":[3.2735956E-1,-1.5735604E-1,5.332231E-1,6.227009E-1,-1.5552497E-1,7.698752E-2,6.267305E-1,1.8925764E-1,7.69958E-2],"categories":[],"categories_nodes":[],"categories_segments":[],"categories_sizes":[],"default_left":[0,0,0,0,0,0,0,0,0],"id":27,"left_children":[1,-1,3,5,-1,-1,7,-1,-1],"loss_changes":[1.4649393E2,0E0,6.35542E1,7.5335693E-1,0E0,0E0,7.735443E-1,0E0,0E0],"parents":[2147483647,0,0,2,2,3,3,6,6],"right_children":[2,-1,4,6,-1,-1,8,-1,-1],"split_conditions":[-2.3170705E-1,-1.5735604E-1,1.1655093E0,-2.2458334E-1,-1.5552497E-1,7.698752E-2,1.1500862E0,1.8925764E-1,7.69958E-2],"split_indices":[0,0,0,0,0,0,0,0,0],"split_type":[0,0,0,0,0,0,0,0,0],"sum_hessian":[8.327425E2,1.6177147E2,6.70971E2,6.1873444E2,5.2236576E1,7.4408364E0,6.112936E2,6.038528E2,7.4407964E0],"tree_param":{"num_deleted":"0","num_feature":"1","num_nodes":"9","size_leaf_vector":"1"}},{"base_weights":[2.167764E-1,5.6896573E-1,-1.5767497E-1,-1.5166475E-1,6.2031126E-1,6.2587804E-1,5.534752E-2,9.0362325E-2,1.8921046E-1],"categories":[],"categories_nodes":[],"categories_segments":[],"categories_sizes":[],"default_left":[0,0,0,0,0,0,0,0,0],"id":28,"left_children":[1,3,-1,-1,5,7,-1,-1,-1],"loss_changes":[1.916623E2,2.772821E1,0E0,0E0,1.0361633E0,5.433655E-1,0E0,0E0,0E0],"parents":[2147483647,0,0,1,1,4,4,5,5],"right_children":[2,4,-1,-1,6,8,-1,-1,-1],"split_conditions":[-2.2458334E-1,-1.6204855E0,-1.5767497E-1,-1.5166475E-1,-2.3170705E-1,-1.5902617E0,5.534752E-2,9.0362325E-2,1.8921046E-1],"split_indices":[0,0,0,0,0,0,0,0,0],"split_type":[0,0,0,0,0,0,0,0,0],"sum_hessian":[7.309274E2,4.9589777E2,2.3502965E2,2.2212284E1,4.736855E2,4.6728076E2,6.404722E0,7.7692657E0,4.595115E2],"tree_param":{"num_deleted":"0","num_feature":"1","num_nodes":"9","size_leaf_vector":"1"}},{"base_weights":[-3.318397E-1,5.944692E-1,-1.5791634E-1,1.8770392E-1,3.6963053E-2],"categories":[],"categories_nodes":[],"categories_segments":[],"categories_sizes":[],"default_left":[0,0,0,0,0],"id":29,"left_children":[1,3,-1,-1,-1],"loss_changes":[8.2109024E1,1.088562E0,0E0,0E0,0E0],"parents":[2147483647,0,0,1,1],"right_children":[2,4,-1,-1,-1],"split_conditions":[-1.5902617E0,-1.6204855E0,-1.5791634E-1,1.8770392E-1,3.6963053E-2],"split_indices":[0,0,0,0,0],"split_type":[0,0,0,0,0],"sum_hessian":[4.5288913E2,7.825155E1,3.746376E2,7.308368E1,5.1678667E0],"tree_param":{"num_deleted":"0","num_feature":"1","num_nodes":"5","size_leaf_vector":"1"}},{"base_weights":[-4.9791855E-1,-1.5569949E-1,8.0944374E-2],"categories":[],"categories_nodes":[],"categories_segments":[],"categories_sizes":[],"default_left":[0,0,0],"id":30,"left_children":[1,-1,-1],"loss_changes":[5.1885376E0,0E0,0E0],"parents":[2147483647,0,0],"right_children":[2,-1,-1],"split_conditions":[2.5090556E0,-1.5569949E-1,8.0944374E-2],"split_indices":[0,0,0],"split_type":[0,0,0],"sum_hessian":[3.1095145E2,3.029571E2,7.9943357E0],"tree_param":{"num_deleted":"0","num_feature":"1","num_nodes":"3","size_leaf_vector":"1"}},{"base_weights":[-1.3721739E-1,-1.55602E-1,5.5413514E-1,5.706356E-1,3.0886108E-2,4.7686275E-2,1.7684802E-1],"categories":[],"categories_nodes":[],"categories_segments":[],"categories_sizes":[],"default_left":[0,0,0,0,0,0,0],"id":31,"left_children":[1,-1,3,5,-1,-1,-1],"loss_changes":[1.08239655E2,0E0,1.0284195E0,9.9830246E-1,0E0,0E0,0E0],"parents":[2147483647,0,0,2,2,3,3],"right_children":[2,-1,4,6,-1,-1,-1],"split_conditions":[1.1500862E0,-1.55602E-1,2.5090556E0,1.1655093E0,3.0886108E-2,4.7686275E-2,1.7684802E-1],"split_indices":[0,0,0,0,0,0,0],"split_type":[0,0,0,0,0,0,0],"sum_hessian":[4.0834335E2,2.6331064E2,1.450327E2,1.3966034E2,5.37236E0,6.5301905E0,1.3313014E2],"tree_param":{"num_deleted":"0","num_feature":"1","num_nodes":"7","size_leaf_vector":"1"}},{"base_weights":[3.09364E-1,-1.5495345E-1,4.993865E-1,5.813105E-1,-1.5258464E-1,6.223457E-2,5.865733E-1,1.775994E-1,6.2244218E-2],"categories":[],"categories_nodes":[],"categories_segments":[],"categories_sizes":[],"default_left":[0,0,0,0,0,0,0,0,0],"id":32,"left_children":[1,-1,3,5,-1,-1,7,-1,-1],"loss_changes":[1.04473854E2,0E0,4.4918823E1,8.6250305E-1,0E0,0E0,8.904724E-1,0E0,0E0],"parents":[2147483647,0,0,2,2,3,3,6,6],"right_children":[2,-1,4,6,-1,-1,8,-1,-1],"split_conditions":[-2.3170705E-1,-1.5495345E-1,1.1655093E0,-2.2458334E-1,-1.5258464E-1,6.223457E-2,1.1500862E0,1.775994E-1,6.2244218E-2],"split_indices":[0,0,0,0,0,0,0,0,0],"split_type":[0,0,0,0,0,0,0,0,0],"sum_hessian":[6.630709E2,1.23705246E2,5.3936566E2,4.9921585E2,4.0149796E1,7.4908876E0,4.9172498E2,4.842341E2,7.490869E0],"tree_param":{"num_deleted":"0","num_feature":"1","num_nodes":"9","size_leaf_vector":"1"}},{"base_weights":[2.0577043E-1,5.316754E-1,-1.5536195E-1,-1.4771473E-1,5.7857406E-1,5.854197E-1,4.767764E-2,7.28643E-2,1.7752421E-1],"categories":[],"categories_nodes":[],"categories_segments":[],"categories_sizes":[],"default_left":[0,0,0,0,0,0,0,0,0],"id":33,"left_children":[1,3,-1,-1,5,7,-1,-1,-1],"loss_changes":[1.3717462E2,1.9530334E1,0E0,0E0,1.0090332E0,6.7362976E-1,0E0,0E0,0E0],"parents":[2147483647,0,0,1,1,4,4,5,5],"right_children":[2,4,-1,-1,6,8,-1,-1,-1],"split_conditions":[-2.2458334E-1,-1.6204855E0,-1.5536195E-1,-1.4771473E-1,-2.3170705E-1,-1.5902617E0,4.767764E-2,7.28643E-2,1.7752421E-1],"split_indices":[0,0,0,0,0,0,0,0,0],"split_type":[0,0,0,0,0,0,0,0,0],"sum_hessian":[5.794776E2,3.997216E2,1.7975601E2,1.7088392E1,3.8263318E2,3.7610287E2,6.53033E0,7.5359387E0,3.6856693E2],"tree_param":{"num_deleted":"0","num_feature":"1","num_nodes":"9","size_leaf_vector":"1"}},{"base_weights":[-3.226209E-1,5.4994226E-1,-1.5567458E-1,1.7556974E-1,3.596319E-2],"categories":[],"categories_nodes":[],"categories_segments":[],"categories_sizes":[],"default_left":[0,0,0,0,0],"id":34,"left_children":[1,3,-1,-1,-1],"loss_changes":[6.0483727E1,9.1682816E-1,0E0,0E0,0E0],"parents":[2147483647,0,0,1,1],"right_children":[2,4,-1,-1,-1],"split_conditions":[-1.5902617E0,-1.6204855E0,-1.5567458E-1,1.7556974E-1,3.596319E-2],"split_indices":[0,0,0,0,0],"split_type":[0,0,0,0,0],"sum_hessian":[3.5046326E2,6.403127E1,2.8643198E2,5.884203E1,5.1892395E0],"tree_param":{"num_deleted":"0","num_feature":"1","num_nodes":"5","size_leaf_vector":"1"}},{"base_weights":[-4.887231E-1,-1.5396848E-1,6.541501E-2],"categories":[],"categories_nodes":[],"categories_segments":[],"categories_sizes":[],"default_left":[0,0,0],"id":35,"left_children":[1,-1,-1],"loss_changes":[4.2474747E0,0E0,0E0],"parents":[2147483647,0,0],"right_children":[2,-1,-1],"split_conditions":[2.5090556E0,-1.5396848E-1,6.541501E-2],"split_indices":[0,0,0],"split_type":[0,0,0],"sum_hessian":[2.3777966E2,2.3007632E2,7.7033367E0],"tree_param":{"num_deleted":"0","num_feature":"1","num_nodes":"3","size_leaf_vector":"1"}},{"base_weights":[-1.3192692E-1,-1.5384638E-1,5.192909E-1,4.1374274E-2,5.4082173E-1,1.6861223E-1,3.110468E-2],"categories":[],"categories_nodes":[],"categories_segments":[],"categories_sizes":[],"default_left":[0,0,0,0,0,0,0],"id":36,"left_children":[1,-1,3,-1,5,-1,-1],"loss_changes":[7.9033195E1,0E0,8.9177895E-1,0E0,9.7184753E-1,0E0,0E0],"parents":[2147483647,0,0,2,2,4,4],"right_children":[2,-1,4,-1,6,-1,-1],"split_conditions":[1.1500862E0,-1.5384638E-1,1.1655093E0,4.1374274E-2,2.5090556E0,1.6861223E-1,3.110468E-2],"split_indices":[0,0,0,0,0,0,0],"split_type":[0,0,0,0,0,0,0],"sum_hessian":[3.165506E2,1.9986374E2,1.1668686E2,6.631321E0,1.1005554E2,1.0468818E2,5.367356E0],"tree_param":{"num_deleted":"0","num_feature":"1","num_nodes":"7","size_leaf_vector":"1"}},{"base_weights":[2.9578996E-1,-1.5299998E-1,4.744066E-1,5.511552E-1,-1.4992668E-1,5.0625253E-2,5.5810046E-1,1.6959548E-1,5.063652E-2],"categories":[],"categories_nodes":[],"categories_segments":[],"categories_sizes":[],"default_left":[0,0,0,0,0,0,0,0,0],"id":37,"left_children":[1,-1,3,5,-1,-1,7,-1,-1],"loss_changes":[7.519797E1,0E0,3.2186356E1,9.5786285E-1,0E0,0E0,9.9658966E-1,0E0,0E0],"parents":[2147483647,0,0,2,2,3,3,6,6],"right_children":[2,-1,4,6,-1,-1,8,-1,-1],"split_conditions":[-2.3170705E-1,-1.5299998E-1,1.1655093E0,-2.2458334E-1,-1.4992668E-1,5.0625253E-2,1.1500862E0,1.6959548E-1,5.063652E-2],"split_indices":[0,0,0,0,0,0,0,0,0],"split_type":[0,0,0,0,0,0,0,0,0],"sum_hessian":[5.197902E2,9.397723E1,4.2581296E2,3.9511813E2,3.0694843E1,7.499424E0,3.876187E2,3.8011926E2,7.4994297E0],"tree_param":{"num_deleted":"0","num_feature":"1","num_nodes":"9","size_leaf_vector":"1"}},{"base_weights":[1.9731887E-1,5.040571E-1,-1.5352692E-1,-1.437785E-1,5.479013E-1,5.56572E-1,4.136432E-2,5.8740906E-2,1.6948797E-1],"categories":[],"categories_nodes":[],"categories_segments":[],"categories_sizes":[],"default_left":[0,0,0,0,0,0,0,0,0],"id":38,"left_children":[1,3,-1,-1,5,7,-1,-1,-1],"loss_changes":[9.899938E1,1.3946625E1,0E0,0E0,1.0051575E0,7.902069E-1,0E0,0E0,0E0],"parents":[2147483647,0,0,1,1,4,4,5,5],"right_children":[2,4,-1,-1,6,8,-1,-1,-1],"split_conditions":[-2.2458334E-1,-1.6204855E0,-1.5352692E-1,-1.437785E-1,-2.3170705E-1,-1.5902617E0,4.136432E-2,5.8740906E-2,1.6948797E-1],"split_indices":[0,0,0,0,0,0,0,0,0],"split_type":[0,0,0,0,0,0,0,0,0],"sum_hessian":[4.5298267E2,3.1640042E2,1.3658224E2,1.3081576E1,3.0331885E2,2.9668738E2,6.631479E0,7.2943645E0,2.89393E2],"tree_param":{"num_deleted":"0","num_feature":"1","num_nodes":"9","size_leaf_vector":"1"}},{"base_weights":[-3.1473917E-1,5.1497275E-1,-1.5393507E-1,1.6695076E-1,3.4638803E-2],"categories":[],"categories_nodes":[],"categories_segments":[],"categories_sizes":[],"default_left":[0,0,0,0,0],"id":39,"left_children":[1,3,-1,-1,-1],"loss_changes":[4.4733353E1,8.089676E-1,0E0,0E0,0E0],"parents":[2147483647,0,0,1,1],"right_children":[2,4,-1,-1,-1],"split_conditions":[-1.5902617E0,-1.6204855E0,-1.5393507E-1,1.6695076E-1,3.4638803E-2],"split_indices":[0,0,0,0,0],"split_type":[0,0,0,0,0],"sum_hessian":[2.6917065E2,5.1630585E1,2.1754007E2,4.6412918E1,5.2176676E0],"tree_param":{"num_deleted":"0","num_feature":"1","num_nodes":"5","size_leaf_vector":"1"}},{"base_weights":[-4.797815E-1,-1.5259041E-1,5.275521E-2],"categories":[],"categories_nodes":[],"categories_segments":[],"categories_sizes":[],"default_left":[0,0,0],"id":40,"left_children":[1,-1,-1],"loss_changes":[3.5384483E0,0E0,0E0],"parents":[2147483647,0,0],"right_children":[2,-1,-1],"split_conditions":[2.5090556E0,-1.5259041E-1,5.275521E-2],"split_indices":[0,0,0],"split_type":[0,0,0],"sum_hessian":[1.8132248E2,1.7389394E2,7.4285507E0],"tree_param":{"num_deleted":"0","num_feature":"1","num_nodes":"3","size_leaf_vector":"1"}},{"base_weights":[-1.2689419E-1,-1.5243569E-1,4.8936883E-1,3.6054026E-2,5.1632625E-1,1.6265853E-1,3.0672653E-2],"categories":[],"categories_nodes":[],"categories_segments":[],"categories_sizes":[],"default_left":[0,0,0,0,0,0,0],"id":41,"left_children":[1,-1,3,-1,5,-1,-1],"loss_changes":[5.7850018E1,0E0,8.756008E-1,0E0,8.8183975E-1,0E0,0E0],"parents":[2147483647,0,0,2,2,4,4],"right_children":[2,-1,4,-1,6,-1,-1],"split_conditions":[1.1500862E0,-1.5243569E-1,1.1655093E0,3.6054026E-2,2.5090556E0,1.6265853E-1,3.0672653E-2],"split_indices":[0,0,0,0,0,0,0],"split_type":[0,0,0,0,0,0,0],"sum_hessian":[2.4418028E2,1.5096669E2,9.32136E1,6.714536E0,8.649906E1,8.112181E1,5.3772526E0],"tree_param":{"num_deleted":"0","num_feature":"1","num_nodes":"7","size_leaf_vector":"1"}},{"base_weights":[2.8485036E-1,-1.5132682E-1,4.546574E-1,5.276394E-1,-1.4734392E-1,4.1378513E-2,5.3683E-1,1.6394581E-1,4.1391753E-2],"categories":[],"categories_nodes":[],"categories_segments":[],"categories_sizes":[],"default_left":[0,0,0,0,0,0,0,0,0],"id":42,"left_children":[1,-1,3,5,-1,-1,7,-1,-1],"loss_changes":[5.442106E1,0E0,2.3264282E1,1.0358734E0,0E0,0E0,1.0892563E0,0E0,0E0],"parents":[2147483647,0,0,2,2,3,3,6,6],"right_children":[2,-1,4,6,-1,-1,8,-1,-1],"split_conditions":[-2.3170705E-1,-1.5132682E-1,1.1655093E0,-2.2458334E-1,-1.4734392E-1,4.1378513E-2,1.1500862E0,1.6394581E-1,4.1391753E-2],"split_indices":[0,0,0,0,0,0,0,0,0],"split_type":[0,0,0,0,0,0,0,0,0],"sum_hessian":[4.03343E2,7.106379E1,3.322792E2,3.0888644E2,2.339278E1,7.4855146E0,3.014009E2,2.9391537E2,7.485548E0],"tree_param":{"num_deleted":"0","num_feature":"1","num_nodes":"9","size_leaf_vector":"1"}},{"base_weights":[1.9037415E-1,4.8205298E-1,-1.5200996E-1,-1.3961063E-1,5.236663E-1,5.348324E-1,3.6042508E-2,4.7261514E-2,1.6379845E-1],"categories":[],"categories_nodes":[],"categories_segments":[],"categories_sizes":[],"default_left":[0,0,0,0,0,0,0,0,0],"id":43,"left_children":[1,3,-1,-1,5,7,-1,-1,-1],"loss_changes":[7.17931E1,1.004496E1,0E0,0E0,1.0108795E0,8.906326E-1,0E0,0E0,0E0],"parents":[2147483647,0,0,1,1,4,4,5,5],"right_children":[2,4,-1,-1,6,8,-1,-1,-1],"split_conditions":[-2.2458334E-1,-1.6204855E0,-1.5200996E-1,-1.3961063E-1,-2.3170705E-1,-1.5902617E0,3.6042508E-2,4.7261514E-2,1.6379845E-1],"split_indices":[0,0,0,0,0,0,0,0,0],"split_type":[0,0,0,0,0,0,0,0,0],"sum_hessian":[3.5089966E2,2.4760289E2,1.03296776E2,9.989354E0,2.3761353E2,2.3089882E2,6.7147145E0,7.0692134E0,2.238296E2],"tree_param":{"num_deleted":"0","num_feature":"1","num_nodes":"9","size_leaf_vector":"1"}},{"base_weights":[-3.0748427E-1,4.8486978E-1,-1.5254551E-1,1.6050407E-1,3.296099E-2],"categories":[],"categories_nodes":[],"categories_segments":[],"categories_sizes":[],"default_left":[0,0,0,0,0],"id":44,"left_children":[1,3,-1,-1,-1],"loss_changes":[3.3179836E1,7.3763466E-1,0E0,0E0,0E0],"parents":[2147483647,0,0,1,1],"right_children":[2,4,-1,-1,-1],"split_conditions":[-1.5902617E0,-1.6204855E0,-1.5254551E-1,1.6050407E-1,3.296099E-2],"split_indices":[0,0,0,0,0],"split_type":[0,0,0,0,0],"sum_hessian":[2.0578459E2,4.1353794E1,1.644308E2,3.6099922E1,5.253872E0],"tree_param":{"num_deleted":"0","num_feature":"1","num_nodes":"5","size_leaf_vector":"1"}},{"base_weights":[-4.7043523E-1,-1.5144418E-1,4.2426713E-2],"categories":[],"categories_nodes":[],"categories_segments":[],"categories_sizes":[],"default_left":[0,0,0],"id":45,"left_children":[1,-1,-1],"loss_changes":[2.9991894E0,0E0,0E0],"parents":[2147483647,0,0],"right_children":[2,-1,-1],"split_conditions":[2.5090556E0,-1.5144418E-1,4.2426713E-2],"split_indices":[0,0,0],"split_type":[0,0,0],"sum_hessian":[1.3818797E2,1.3100224E2,7.185725E0],"tree_param":{"num_deleted":"0","num_feature":"1","num_nodes":"3","size_leaf_vector":"1"}},{"base_weights":[-1.21743105E-1,-1.512461E-1,4.612783E-1,3.149161E-2,4.9497274E-1,1.581726E-1,2.9664027E-2],"categories":[],"categories_nodes":[],"categories_segments":[],"categories_sizes":[],"default_left":[0,0,0,0,0,0,0],"id":46,"left_children":[1,-1,3,-1,5,-1,-1],"loss_changes":[4.238355E1,0E0,8.533592E-1,0E0,8.2499504E-1,0E0,0E0],"parents":[2147483647,0,0,2,2,4,4],"right_children":[2,-1,4,-1,6,-1,-1],"split_conditions":[1.1500862E0,-1.512461E-1,1.1655093E0,3.149161E-2,2.5090556E0,1.581726E-1,2.9664027E-2],"split_indices":[0,0,0,0,0,0,0],"split_type":[0,0,0,0,0,0,0],"sum_hessian":[1.8805727E2,1.13648895E2,7.440837E1,6.7841296E0,6.7624245E1,6.2223824E1,5.400423E0],"tree_param":{"num_deleted":"0","num_feature":"1","num_nodes":"7","size_leaf_vector":"1"}},{"base_weights":[2.7531973E-1,-1.4979097E-1,4.3775567E-1,5.07796E-1,-1.4465219E-1,3.3958588E-2,5.199303E-1,1.5985936E-1,3.3974085E-2],"categories":[],"categories_nodes":[],"categories_segments":[],"categories_sizes":[],"default_left":[0,0,0,0,0,0,0,0,0],"id":47,"left_children":[1,-1,3,5,-1,-1,7,-1,-1],"loss_changes":[3.949328E1,0E0,1.6904354E1,1.0939217E0,0E0,0E0,1.1668091E0,0E0,0E0],"parents":[2147483647,0,0,2,2,3,3,6,6],"right_children":[2,-1,4,6,-1,-1,8,-1,-1],"split_conditions":[-2.3170705E-1,-1.4979097E-1,1.1655093E0,-2.2458334E-1,-1.4465219E-1,3.3958588E-2,1.1500862E0,1.5985936E-1,3.3974085E-2],"split_indices":[0,0,0,0,0,0,0,0,0],"split_type":[0,0,0,0,0,0,0,0,0],"sum_hessian":[3.1113348E2,5.3574436E1,2.5755905E2,2.3975307E2,1.7805975E1,7.460791E0,2.3229228E2,2.2483142E2,7.4608555E0],"tree_param":{"num_deleted":"0","num_feature":"1","num_nodes":"9","size_leaf_vector":"1"}},{"base_weights":[1.8419655E-1,4.6299627E-1,-1.5067942E-1,-1.3500369E-1,5.0286263E-1,5.173464E-1,3.1478304E-2,3.7936322E-2,1.5966104E-1],"categories":[],"categories_nodes":[],"categories_segments":[],"categories_sizes":[],"default_left":[0,0,0,0,0,0,0,0,0],"id":48,"left_children":[1,3,-1,-1,5,7,-1,-1,-1],"loss_changes":[5.2183006E1,7.2716484E0,0E0,0E0,1.0173798E0,9.7312164E-1,0E0,0E0,0E0],"parents":[2147483647,0,0,1,1,4,4,5,5],"right_children":[2,4,-1,-1,6,8,-1,-1,-1],"split_conditions":[-2.2458334E-1,-1.6204855E0,-1.5067942E-1,-1.3500369E-1,-2.3170705E-1,-1.5902617E0,3.1478304E-2,3.7936322E-2,1.5966104E-1],"split_indices":[0,0,0,0,0,0,0,0,0],"split_type":[0,0,0,0,0,0,0,0,0],"sum_hessian":[2.7044446E2,1.9256255E2,7.788192E1,7.6260014E0,1.8493654E2,1.781522E2,6.784331E0,6.8715405E0,1.7128067E2],"tree_param":{"num_deleted":"0","num_feature":"1","num_nodes":"9","size_leaf_vector":"1"}},{"base_weights":[-3.0025586E-1,4.5659426E-1,-1.5138383E-1,1.5538642E-1,3.0976415E-2],"categories":[],"categories_nodes":[],"categories_segments":[],"categories_sizes":[],"default_left":[0,0,0,0,0],"id":49,"left_children":[1,3,-1,-1,-1],"loss_changes":[2.4667807E1,6.8619823E-1,0E0,0E0,0E0],"parents":[2147483647,0,0,1,1],"right_children":[2,4,-1,-1,-1],"split_conditions":[-1.5902617E0,-1.6204855E0,-1.5138383E-1,1.5538642E-1,3.0976415E-2],"split_indices":[0,0,0,0,0],"split_type":[0,0,0,0,0],"sum_hessian":[1.5699959E2,3.311639E1,1.238832E2,2.7819426E1,5.296965E0],"tree_param":{"num_deleted":"0","num_feature":"1","num_nodes":"5","size_leaf_vector":"1"}},{"base_weights":[-4.6005493E-1,-1.5042962E-1,3.4040514E-2],"categories":[],"categories_nodes":[],"categories_segments":[],"categories_sizes":[],"default_left":[0,0,0],"id":50,"left_children":[1,-1,-1],"loss_changes":[2.5835094E0,0E0,0E0],"parents":[2147483647,0,0],"right_children":[2,-1,-1],"split_conditions":[2.5090556E0,-1.5042962E-1,3.4040514E-2],"split_indices":[0,0,0],"split_type":[0,0,0],"sum_hessian":[1.054701E2,9.849018E1,6.979923E0],"tree_param":{"num_deleted":"0","num_feature":"1","num_nodes":"3","size_leaf_vector":"1"}},{"base_weights":[-1.1616143E-1,-1.5017399E-1,4.3293706E-1,2.7533755E-2,4.745952E-1,1.5461512E-1,2.8198324E-2],"categories":[],"categories_nodes":[],"categories_segments":[],"categories_sizes":[],"default_left":[0,0,0,0,0,0,0],"id":51,"left_children":[1,-1,3,-1,5,-1,-1],"loss_changes":[3.104611E1,0E0,8.1882954E-1,0E0,7.873354E-1,0E0,0E0],"parents":[2147483647,0,0,2,2,4,4],"right_children":[2,-1,4,-1,6,-1,-1],"split_conditions":[1.1500862E0,-1.5017399E-1,1.1655093E0,2.7533755E-2,2.5090556E0,1.5461512E-1,2.8198324E-2],"split_indices":[0,0,0,0,0,0,0],"split_type":[0,0,0,0,0,0,0],"sum_hessian":[1.4505296E2,8.537272E1,5.9680252E1,6.842985E0,5.283727E1,4.740301E1,5.434256E0],"tree_param":{"num_deleted":"0","num_feature":"1","num_nodes":"7","size_leaf_vector":"1"}},{"base_weights":[2.66288E-1,-1.4826518E-1,4.2199618E-1,4.8953268E-1,-1.416851E-1,2.7976038E-2,5.054549E-1,1.5682589E-1,2.7994191E-2],"categories":[],"categories_nodes":[],"categories_segments":[],"categories_sizes":[],"default_left":[0,0,0,0,0,0,0,0,0],"id":52,"left_children":[1,-1,3,5,-1,-1,7,-1,-1],"loss_changes":[2.8679419E1,0E0,1.23170395E1,1.1299171E0,0E0,0E0,1.2281799E0,0E0,0E0],"parents":[2147483647,0,0,2,2,3,3,6,6],"right_children":[2,-1,4,6,-1,-1,8,-1,-1],"split_conditions":[-2.3170705E-1,-1.4826518E-1,1.1655093E0,-2.2458334E-1,-1.416851E-1,2.7976038E-2,1.1500862E0,1.5682589E-1,2.7994191E-2],"split_indices":[0,0,0,0,0,0,0,0,0],"split_type":[0,0,0,0,0,0,0,0,0],"sum_hessian":[2.3942911E2,4.0320904E1,1.991082E2,1.8554811E2,1.3560101E1,7.4320884E0,1.7811601E2,1.7068382E2,7.432187E0],"tree_param":{"num_deleted":"0","num_feature":"1","num_nodes":"9","size_leaf_vector":"1"}},{"base_weights":[1.7822264E-1,4.4497916E-1,-1.4942193E-1,-1.2979719E-1,4.8335972E-1,5.021436E-1,2.7518263E-2,3.0395817E-2,1.565612E-1],"categories":[],"categories_nodes":[],"categories_segments":[],"categories_sizes":[],"default_left":[0,0,0,0,0,0,0,0,0],"id":53,"left_children":[1,3,-1,-1,5,7,-1,-1,-1],"loss_changes":[3.7941456E1,5.2775383E0,0E0,0E0,1.0179405E0,1.0366592E0,0E0,0E0,0E0],"parents":[2147483647,0,0,1,1,4,4,5,5],"right_children":[2,4,-1,-1,6,8,-1,-1,-1],"split_conditions":[-2.2458334E-1,-1.6204855E0,-1.4942193E-1,-1.2979719E-1,-2.3170705E-1,-1.5902617E0,2.7518263E-2,3.0395817E-2,1.565612E-1],"split_indices":[0,0,0,0,0,0,0,0,0],"split_type":[0,0,0,0,0,0,0,0,0],"sum_hessian":[2.0808264E2,1.4946861E2,5.861402E1,5.8322244E0,1.436364E2,1.3679318E2,6.8432126E0,6.70444E0,1.3008875E2],"tree_param":{"num_deleted":"0","num_feature":"1","num_nodes":"9","size_leaf_vector":"1"}},{"base_weights":[-2.9251933E-1,4.2814365E-1,-1.5034871E-1,1.510267E-1,2.8769633E-2],"categories":[],"categories_nodes":[],"categories_segments":[],"categories_sizes":[],"default_left":[0,0,0,0,0],"id":54,"left_children":[1,3,-1,-1,-1],"loss_changes":[1.837949E1,6.4359045E-1,0E0,0E0,0E0],"parents":[2147483647,0,0,1,1],"right_children":[2,4,-1,-1,-1],"split_conditions":[-1.5902617E0,-1.6204855E0,-1.5034871E-1,1.510267E-1,2.8769633E-2],"split_indices":[0,0,0,0,0],"split_type":[0,0,0,0,0],"sum_hessian":[1.19808495E2,2.6662588E1,9.3145905E1,2.1317371E1,5.3452177E0],"tree_param":{"num_deleted":"0","num_feature":"1","num_nodes":"5","size_leaf_vector":"1"}},{"base_weights":[-4.4802845E-1,-1.4945988E-1,2.7282419E-2],"categories":[],"categories_nodes":[],"categories_segments":[],"categories_sizes":[],"default_left":[0,0,0],"id":55,"left_children":[1,-1,-1],"loss_changes":[2.2568092E0,0E0,0E0],"parents":[2147483647,0,0],"right_children":[2,-1,-1],"split_conditions":[2.5090556E0,-1.4945988E-1,2.7282419E-2],"split_indices":[0,0,0],"split_type":[0,0,0],"sum_hessian":[8.0784164E1,7.397381E1,6.81036E0],"tree_param":{"num_deleted":"0","num_feature":"1","num_nodes":"3","size_leaf_vector":"1"}},{"base_weights":[-1.0989204E-1,-1.4912793E-1,4.030311E-1,2.4076495E-2,4.5357203E-1,1.5160444E-1,2.6410107E-2],"categories":[],"categories_nodes":[],"categories_segments":[],"categories_sizes":[],"default_left":[0,0,0,0,0,0,0],"id":56,"left_children":[1,-1,3,-1,5,-1,-1],"loss_changes":[2.2719645E1,0E0,7.682991E-1,0E0,7.5863457E-1,0E0,0E0],"parents":[2147483647,0,0,2,2,4,4],"right_children":[2,-1,4,-1,6,-1,-1],"split_conditions":[1.1500862E0,-1.4912793E-1,1.1655093E0,2.4076495E-2,2.5090556E0,1.5160444E-1,2.6410107E-2],"split_indices":[0,0,0,0,0,0,0],"split_type":[0,0,0,0,0,0,0],"sum_hessian":[1.1238773E2,6.406016E1,4.832757E1,6.8931117E0,4.143446E1,3.595867E1,5.4757895E0],"tree_param":{"num_deleted":"0","num_feature":"1","num_nodes":"7","size_leaf_vector":"1"}},{"base_weights":[2.5703204E-1,-1.466301E-1,4.0607098E-1,4.712624E-1,-1.3829413E-1,2.3136202E-2,4.9195278E-1,1.5449925E-1,2.3157338E-2],"categories":[],"categories_nodes":[],"categories_segments":[],"categories_sizes":[],"default_left":[0,0,0,0,0,0,0,0,0],"id":57,"left_children":[1,-1,3,5,-1,-1,7,-1,-1],"loss_changes":[2.0804253E1,0E0,8.981453E0,1.1421089E0,0E0,0E0,1.2725716E0,0E0,0E0],"parents":[2147483647,0,0,2,2,3,3,6,6],"right_children":[2,-1,4,6,-1,-1,8,-1,-1],"split_conditions":[-2.3170705E-1,-1.466301E-1,1.1655093E0,-2.2458334E-1,-1.3829413E-1,2.3136202E-2,1.1500862E0,1.5449925E-1,2.3157338E-2],"split_indices":[0,0,0,0,0,0,0,0,0],"split_type":[0,0,0,0,0,0,0,0,0],"sum_hessian":[1.8438196E2,3.0329918E1,1.5405203E2,1.4370378E2,1.0348249E1,7.403227E0,1.3630057E2,1.288972E2,7.403364E0],"tree_param":{"num_deleted":"0","num_feature":"1","num_nodes":"9","size_leaf_vector":"1"}},{"base_weights":[1.7199802E-1,4.2654982E-1,-1.4813432E-1,-1.3684197E-1,4.8643136E-1,-1.23893194E-1,2.4336793E-2,1.5414757E-1,2.4058515E-2],"categories":[],"categories_nodes":[],"categories_segments":[],"categories_sizes":[],"default_left":[0,0,0,0,0,0,0,0,0],"id":58,"left_children":[1,3,-1,5,7,-1,-1,-1,-1],"loss_changes":[2.7549772E1,4.0216904E0,0E0,7.5839674E-1,1.1405258E0,0E0,0E0,0E0,0E0],"parents":[2147483647,0,0,1,1,3,3,4,4],"right_children":[2,4,-1,6,8,-1,-1,-1,-1],"split_conditions":[-2.2458334E-1,-1.5902617E0,-1.4813432E-1,-1.6204855E0,-2.3170705E-1,-1.23893194E-1,2.4336793E-2,1.5414757E-1,2.4058515E-2],"split_indices":[0,0,0,0,0,0,0,0,0],"split_type":[0,0,0,0,0,0,0,0,0],"sum_hessian":[1.6031647E2,1.1623491E2,4.408155E1,1.1043898E1,1.0519102E2,4.477163E0,6.5667343E0,9.8297646E1,6.893369E0],"tree_param":{"num_deleted":"0","num_feature":"1","num_nodes":"9","size_leaf_vector":"1"}},{"base_weights":[-2.837829E-1,3.9831698E-1,-1.4935175E-1,1.4701205E-1,2.643636E-2],"categories":[],"categories_nodes":[],"categories_segments":[],"categories_sizes":[],"default_left":[0,0,0,0,0],"id":59,"left_children":[1,3,-1,-1,-1],"loss_changes":[1.3726248E1,6.0229635E-1,0E0,0E0,0E0],"parents":[2147483647,0,0,1,1],"right_children":[2,4,-1,-1,-1],"split_conditions":[-1.5902617E0,-1.6204855E0,-1.4935175E-1,1.4701205E-1,2.643636E-2],"split_indices":[0,0,0,0,0],"split_type":[0,0,0,0,0],"sum_hessian":[9.165227E1,2.1686491E1,6.996578E1,1.6289885E1,5.396607E0],"tree_param":{"num_deleted":"0","num_feature":"1","num_nodes":"5","size_leaf_vector":"1"}},{"base_weights":[-4.3377012E-1,-1.4845502E-1,2.1881472E-2],"categories":[],"categories_nodes":[],"categories_segments":[],"categories_sizes":[],"default_left":[0,0,0],"id":60,"left_children":[1,-1,-1],"loss_changes":[1.9930096E0,0E0,0E0],"parents":[2147483647,0,0],"right_children":[2,-1,-1],"split_conditions":[2.5090556E0,-1.4845502E-1,2.1881472E-2],"split_indices":[0,0,0],"split_type":[0,0,0],"sum_hessian":[6.2228947E1,5.5555546E1,6.6734014E0],"tree_param":{"num_deleted":"0","num_feature":"1","num_nodes":"3","size_leaf_vector":"1"}},{"base_weights":[-1.0273966E-1,-1.4802223E-1,3.7095165E-1,2.1046285E-2,4.307076E-1,1.4885241E-1,2.4428384E-2],"categories":[],"categories_nodes":[],"categories_segments":[],"categories_sizes":[],"default_left":[0,0,0,0,0,0,0],"id":61,"left_children":[1,-1,3,-1,5,-1,-1],"loss_changes":[1.6603674E1,0E0,7.00912E-1,0E0,7.3110867E-1,0E0,0E0],"parents":[2147483647,0,0,2,2,4,4],"right_children":[2,-1,4,-1,6,-1,-1],"split_conditions":[1.1500862E0,-1.4802223E-1,1.1655093E0,2.1046285E-2,2.5090556E0,1.4885241E-1,2.4428384E-2],"split_indices":[0,0,0,0,0,0,0],"split_type":[0,0,0,0,0,0,0],"sum_hessian":[8.773341E1,4.805739E1,3.9676025E1,6.935975E0,3.274005E1,2.7217909E1,5.52214E0],"tree_param":{"num_deleted":"0","num_feature":"1","num_nodes":"7","size_leaf_vector":"1"}},{"base_weights":[2.4695371E-1,-1.4476864E-1,3.889382E-1,4.7825342E-1,-2.1226504E-1,1.9210178E-2,1.5263279E-1,1.9234743E-2,-1.3435473E-1],"categories":[],"categories_nodes":[],"categories_segments":[],"categories_sizes":[],"default_left":[0,0,0,0,0,0,0,0,0],"id":62,"left_children":[1,-1,3,5,7,-1,-1,-1,-1],"loss_changes":[1.5052345E1,0E0,6.581749E0,1.2997456E0,1.0901701E0,0E0,0E0,0E0,0E0],"parents":[2147483647,0,0,2,2,3,3,4,4],"right_children":[2,-1,4,6,8,-1,-1,-1,-1],"split_conditions":[-2.3170705E-1,-1.4476864E-1,1.1500862E0,-2.2458334E-1,1.1655093E0,1.9210178E-2,1.5263279E-1,1.9234743E-2,-1.3435473E-1],"split_indices":[0,0,0,0,0,0,0,0,0],"split_type":[0,0,0,0,0,0,0,0,0],"sum_hessian":[1.4250906E2,2.2826727E1,1.1968234E2,1.04380066E2,1.5302277E1,7.3761864E0,9.7003876E1,7.376365E0,7.925912E0],"tree_param":{"num_deleted":"0","num_feature":"1","num_nodes":"9","size_leaf_vector":"1"}},{"base_weights":[1.6514409E-1,4.0658134E-1,-1.4671753E-1,-1.1524171E-1,4.7108704E-1,-1.1727355E-1,1.9499933E-2,1.5216711E-1,2.1025416E-2],"categories":[],"categories_nodes":[],"categories_segments":[],"categories_sizes":[],"default_left":[0,0,0,0,0,0,0,0,0],"id":63,"left_children":[1,3,-1,5,7,-1,-1,-1,-1],"loss_changes":[1.9948784E1,3.1469936E0,0E0,5.6757855E-1,1.1522312E0,0E0,0E0,0E0,0E0],"parents":[2147483647,0,0,1,1,3,3,4,4],"right_children":[2,4,-1,6,8,-1,-1,-1,-1],"split_conditions":[-2.2458334E-1,-1.5902617E0,-1.4671753E-1,-1.6204855E0,-2.3170705E-1,-1.1727355E-1,1.9499933E-2,1.5216711E-1,2.1025416E-2],"split_indices":[0,0,0,0,0,0,0,0,0],"split_type":[0,0,0,0,0,0,0,0,0],"sum_hessian":[1.2404009E2,9.087913E1,3.3160965E1,9.911653E0,8.0967476E1,3.4564168E0,6.4552355E0,7.403121E1,6.9362664E0],"tree_param":{"num_deleted":"0","num_feature":"1","num_nodes":"9","size_leaf_vector":"1"}},{"base_weights":[-2.7359498E-1,3.6663815E-1,-1.4831115E-1,1.430287E-1,2.4066614E-2],"categories":[],"categories_nodes":[],"categories_segments":[],"categories_sizes":[],"default_left":[0,0,0,0,0],"id":64,"left_children":[1,3,-1,-1,-1],"loss_changes":[1.0279535E1,5.5766964E-1,0E0,0E0,0E0],"parents":[2147483647,0,0,1,1],"right_children":[2,4,-1,-1,-1],"split_conditions":[-1.5902617E0,-1.6204855E0,-1.4831115E-1,1.430287E-1,2.4066614E-2],"split_indices":[0,0,0,0,0],"split_type":[0,0,0,0,0],"sum_hessian":[7.044279E1,1.7893177E1,5.254961E1,1.2444E1,5.449176E0],"tree_param":{"num_deleted":"0","num_feature":"1","num_nodes":"5","size_leaf_vector":"1"}},{"base_weights":[-4.167569E-1,-1.4733697E-1,1.7599877E-2],"categories":[],"categories_nodes":[],"categories_segments":[],"categories_sizes":[],"default_left":[0,0,0],"id":65,"left_children":[1,-1,-1],"loss_changes":[1.7725134E0,0E0,0E0],"parents":[2147483647,0,0],"right_children":[2,-1,-1],"split_conditions":[2.5090556E0,-1.4733697E-1,1.7599877E-2],"split_indices":[0,0,0],"split_type":[0,0,0],"sum_hessian":[4.8319073E1,4.1754715E1,6.564355E0],"tree_param":{"num_deleted":"0","num_feature":"1","num_nodes":"3","size_leaf_vector":"1"}},{"base_weights":[-9.4593205E-2,-1.4677186E-1,3.367767E-1,1.838782E-2,4.0523294E-1,1.4612748E-1,2.2364277E-2],"categories":[],"categories_nodes":[],"categories_segments":[],"categories_sizes":[],"default_left":[0,0,0,0,0,0,0],"id":66,"left_children":[1,-1,3,-1,5,-1,-1],"loss_changes":[1.21174E1,0E0,6.189394E-1,0E0,6.990142E-1,0E0,0E0],"parents":[2147483647,0,0,2,2,4,4],"right_children":[2,-1,4,-1,6,-1,-1],"split_conditions":[1.1500862E0,-1.4677186E-1,1.1655093E0,1.838782E-2,2.5090556E0,1.4612748E-1,2.2364277E-2],"split_indices":[0,0,0,0,0,0,0],"split_type":[0,0,0,0,0,0,0],"sum_hessian":[6.92111E1,3.6074005E1,3.3137093E1,6.972694E0,2.6164398E1,2.0593628E1,5.5707707E0],"tree_param":{"num_deleted":"0","num_feature":"1","num_nodes":"7","size_leaf_vector":"1"}},{"base_weights":[2.355626E-1,-1.4256327E-1,3.69783E-1,4.6338105E-1,-1.8164822E-1,1.6017662E-2,1.5104127E-1,1.604607E-2,-1.2977767E-1],"categories":[],"categories_nodes":[],"categories_segments":[],"categories_sizes":[],"default_left":[0,0,0,0,0,0,0,0,0],"id":67,"left_children":[1,-1,3,5,7,-1,-1,-1,-1],"loss_changes":[1.0847815E1,0E0,4.9698353E0,1.3078461E0,8.760155E-1,0E0,0E0,0E0,0E0],"parents":[2147483647,0,0,2,2,3,3,4,4],"right_children":[2,-1,4,6,8,-1,-1,-1,-1],"split_conditions":[-2.3170705E-1,-1.4256327E-1,1.1500862E0,-2.2458334E-1,1.1655093E0,1.6017662E-2,1.5104127E-1,1.604607E-2,-1.2977767E-1],"split_indices":[0,0,0,0,0,0,0,0,0],"split_type":[0,0,0,0,0,0,0,0,0],"sum_hessian":[1.1086641E2,1.7206686E1,9.365972E1,8.0205574E1,1.3454144E1,7.3518567E0,7.285372E1,7.352082E0,6.1020613E0],"tree_param":{"num_deleted":"0","num_feature":"1","num_nodes":"9","size_leaf_vector":"1"}},{"base_weights":[1.5735374E-1,3.8424757E-1,-1.4507206E-1,-9.6274875E-2,4.5414102E-1,-1.1001112E-1,1.5661728E-2,1.5042669E-1,1.8363658E-2],"categories":[],"categories_nodes":[],"categories_segments":[],"categories_sizes":[],"default_left":[0,0,0,0,0,0,0,0,0],"id":68,"left_children":[1,3,-1,5,7,-1,-1,-1,-1],"loss_changes":[1.4387382E1,2.4847689E0,0E0,4.2286456E-1,1.1513882E0,0E0,0E0,0E0,0E0],"parents":[2147483647,0,0,1,1,3,3,4,4],"right_children":[2,4,-1,6,8,-1,-1,-1,-1],"split_conditions":[-2.2458334E-1,-1.5902617E0,-1.4507206E-1,-1.6204855E0,-2.3170705E-1,-1.1001112E-1,1.5661728E-2,1.5042669E-1,1.8363658E-2],"split_indices":[0,0,0,0,0,0,0,0,0],"split_type":[0,0,0,0,0,0,0,0,0],"sum_hessian":[9.665736E1,7.168184E1,2.4975513E1,9.054441E0,6.2627396E1,2.6883757E0,6.366066E0,5.5654373E1,6.973023E0],"tree_param":{"num_deleted":"0","num_feature":"1","num_nodes":"9","size_leaf_vector":"1"}},{"base_weights":[-2.6156488E-1,3.3330145E-1,-1.4714663E-1,1.388334E-1,2.1735867E-2],"categories":[],"categories_nodes":[],"categories_segments":[],"categories_sizes":[],"default_left":[0,0,0,0,0],"id":69,"left_children":[1,3,-1,-1,-1],"loss_changes":[7.724509E0,5.076834E-1,0E0,0E0,0E0],"parents":[2147483647,0,0,1,1],"right_children":[2,4,-1,-1,-1],"split_conditions":[-1.5902617E0,-1.6204855E0,-1.4714663E-1,1.388334E-1,2.1735867E-2],"split_indices":[0,0,0,0,0],"split_type":[0,0,0,0,0],"sum_hessian":[5.4522682E1,1.5024655E1,3.9498024E1,9.523422E0,5.501233E0],"tree_param":{"num_deleted":"0","num_feature":"1","num_nodes":"5","size_leaf_vector":"1"}},{"base_weights":[-3.965933E-1,-1.4602599E-1,1.4230358E-2],"categories":[],"categories_nodes":[],"categories_segments":[],"categories_sizes":[],"default_left":[0,0,0],"id":70,"left_children":[1,-1,-1],"loss_changes":[1.580802E0,0E0,0E0],"parents":[2147483647,0,0],"right_children":[2,-1,-1],"split_conditions":[2.5090556E0,-1.4602599E-1,1.4230358E-2],"split_indices":[0,0,0],"split_type":[0,0,0],"sum_hessian":[3.7910187E1,3.143174E1,6.478446E0],"tree_param":{"num_deleted":"0","num_feature":"1","num_nodes":"3","size_leaf_vector":"1"}},{"base_weights":[-8.5454576E-2,-1.4528872E-1,3.0120033E-1,1.6057324E-2,3.7686336E-1,1.4323463E-1,2.0306105E-2],"categories":[],"categories_nodes":[],"categories_segments":[],"categories_sizes":[],"default_left":[0,0,0,0,0,0,0],"id":71,"left_children":[1,-1,3,-1,5,-1,-1],"loss_changes":[8.834478E0,0E0,5.27488E-1,0E0,6.586969E-1,0E0,0E0],"parents":[2147483647,0,0,2,2,4,4],"right_children":[2,-1,4,-1,6,-1,-1],"split_conditions":[1.1500862E0,-1.4528872E-1,1.1655093E0,1.6057324E-2,2.5090556E0,1.4323463E-1,2.0306105E-2],"split_indices":[0,0,0,0,0,0,0],"split_type":[0,0,0,0,0,0,0],"sum_hessian":[5.534128E1,2.711705E1,2.822423E1,7.0041604E0,2.122007E1,1.5600459E1,5.619611E0],"tree_param":{"num_deleted":"0","num_feature":"1","num_nodes":"7","size_leaf_vector":"1"}},{"base_weights":[2.2249223E-1,-1.3989693E-1,3.4804246E-1,4.4648907E-1,-1.5350029E-1,1.3415466E-2,1.4957681E-1,1.3448213E-2,-1.2452376E-1],"categories":[],"categories_nodes":[],"categories_segments":[],"categories_sizes":[],"default_left":[0,0,0,0,0,0,0,0,0],"id":72,"left_children":[1,-1,3,5,7,-1,-1,-1,-1],"loss_changes":[7.7783384E0,0E0,3.7747164E0,1.2964716E0,6.9615436E-1,0E0,0E0,0E0,0E0],"parents":[2147483647,0,0,2,2,3,3,4,4],"right_children":[2,-1,4,6,8,-1,-1,-1,-1],"split_conditions":[-2.3170705E-1,-1.3989693E-1,1.1500862E0,-2.2458334E-1,1.1655093E0,1.3415466E-2,1.4957681E-1,1.3448213E-2,-1.2452376E-1],"split_indices":[0,0,0,0,0,0,0,0,0],"split_type":[0,0,0,0,0,0,0,0,0],"sum_hessian":[8.70661E1,1.3004474E1,7.406162E1,6.200131E1,1.2060316E1,7.330507E0,5.4670803E1,7.330784E0,4.7295322E0],"tree_param":{"num_deleted":"0","num_feature":"1","num_nodes":"9","size_leaf_vector":"1"}},{"base_weights":[1.4841068E-1,3.59068E-1,-1.4309599E-1,-8.0065295E-2,4.3476272E-1,-1.0226678E-1,1.2631611E-2,1.4876926E-1,1.6029412E-2],"categories":[],"categories_nodes":[],"categories_segments":[],"categories_sizes":[],"default_left":[0,0,0,0,0,0,0,0,0],"id":73,"left_children":[1,3,-1,5,7,-1,-1,-1,-1],"loss_changes":[1.0325834E1,1.9702883E0,0E0,3.1406257E-1,1.1349754E0,0E0,0E0,0E0,0E0],"parents":[2147483647,0,0,1,1,3,3,4,4],"right_children":[2,4,-1,6,8,-1,-1,-1,-1],"split_conditions":[-2.2458334E-1,-1.5902617E0,-1.4309599E-1,-1.6204855E0,-2.3170705E-1,-1.0226678E-1,1.2631611E-2,1.4876926E-1,1.6029412E-2],"split_indices":[0,0,0,0,0,0,0,0,0],"split_type":[0,0,0,0,0,0,0,0,0],"sum_hessian":[7.60777E1,5.7227264E1,1.8850437E1,8.405585E0,4.882168E1,2.1102057E0,6.29538E0,4.1817146E1,7.004533E0],"tree_param":{"num_deleted":"0","num_feature":"1","num_nodes":"9","size_leaf_vector":"1"}},{"base_weights":[-2.4740195E-1,2.990557E-1,-1.4577575E-1,1.3424386E-1,1.9501703E-2],"categories":[],"categories_nodes":[],"categories_segments":[],"categories_sizes":[],"default_left":[0,0,0,0,0],"id":74,"left_children":[1,3,-1,-1,-1],"loss_changes":[5.8283525E0,4.5265126E-1,0E0,0E0,0E0],"parents":[2147483647,0,0,1,1],"right_children":[2,4,-1,-1,-1],"split_conditions":[-1.5902617E0,-1.6204855E0,-1.4577575E-1,1.3424386E-1,1.9501703E-2],"split_indices":[0,0,0,0,0],"split_type":[0,0,0,0,0],"sum_hessian":[4.2601776E1,1.2867569E1,2.973421E1,7.316122E0,5.551447E0],"tree_param":{"num_deleted":"0","num_feature":"1","num_nodes":"5","size_leaf_vector":"1"}},{"base_weights":[-3.7310022E-1,-1.4443839E-1,1.159505E-2],"categories":[],"categories_nodes":[],"categories_segments":[],"categories_sizes":[],"default_left":[0,0,0],"id":75,"left_children":[1,-1,-1],"loss_changes":[1.4075398E0,0E0,0E0],"parents":[2147483647,0,0],"right_children":[2,-1,-1],"split_conditions":[2.5090556E0,-1.4443839E-1,1.159505E-2],"split_indices":[0,0,0],"split_type":[0,0,0],"sum_hessian":[3.0129599E1,2.3718307E1,6.4112916E0],"tree_param":{"num_deleted":"0","num_feature":"1","num_nodes":"3","size_leaf_vector":"1"}},{"base_weights":[-7.546113E-2,-1.4347993E-1,2.6536036E-1,1.4018116E-2,3.4585112E-1,1.4000678E-1,1.8319087E-2],"categories":[],"categories_nodes":[],"categories_segments":[],"categories_sizes":[],"default_left":[0,0,0,0,0,0,0],"id":76,"left_children":[1,-1,3,-1,5,-1,-1],"loss_changes":[6.4391165E0,0E0,4.3344724E-1,0E0,6.0875726E-1,0E0,0E0],"parents":[2147483647,0,0,2,2,4,4],"right_children":[2,-1,4,-1,6,-1,-1],"split_conditions":[1.1500862E0,-1.4347993E-1,1.1655093E0,1.4018116E-2,2.5090556E0,1.4000678E-1,1.8319087E-2],"split_indices":[0,0,0,0,0,0,0],"split_type":[0,0,0,0,0,0,0],"sum_hessian":[4.497893E1,2.0430061E1,2.454887E1,7.0311146E0,1.7517756E1,1.1850672E1,5.6670837E0],"tree_param":{"num_deleted":"0","num_feature":"1","num_nodes":"7","size_leaf_vector":"1"}},{"base_weights":[2.0754673E-1,-1.3665867E-1,3.234737E-1,4.2689675E-1,-1.284862E-1,1.12896245E-2,1.4811337E-1,1.1327088E-2,-1.1861713E-1],"categories":[],"categories_nodes":[],"categories_segments":[],"categories_sizes":[],"default_left":[0,0,0,0,0,0,0,0,0],"id":77,"left_children":[1,-1,3,5,7,-1,-1,-1,-1],"loss_changes":[5.5453024E0,0E0,2.876161E0,1.264925E0,5.477559E-1,0E0,0E0,0E0,0E0],"parents":[2147483647,0,0,2,2,3,3,4,4],"right_children":[2,-1,4,6,8,-1,-1,-1,-1],"split_conditions":[-2.3170705E-1,-1.3665867E-1,1.1500862E0,-2.2458334E-1,1.1655093E0,1.12896245E-2,1.4811337E-1,1.1327088E-2,-1.1861713E-1],"split_indices":[0,0,0,0,0,0,0,0,0],"split_type":[0,0,0,0,0,0,0,0,0],"sum_hessian":[6.922334E1,9.8654995E0,5.9357845E1,4.8349392E1,1.1008452E1,7.312074E0,4.1037315E1,7.3124065E0,3.696046E0],"tree_param":{"num_deleted":"0","num_feature":"1","num_nodes":"9","size_leaf_vector":"1"}},{"base_weights":[1.382149E-1,3.309779E-1,-1.4068598E-1,-6.651726E-2,4.123575E-1,-9.4267495E-2,1.0249376E-2,1.4705853E-1,1.3986104E-2],"categories":[],"categories_nodes":[],"categories_segments":[],"categories_sizes":[],"default_left":[0,0,0,0,0,0,0,0,0],"id":78,"left_children":[1,3,-1,5,7,-1,-1,-1,-1],"loss_changes":[7.371538E0,1.560257E0,0E0,2.3304176E-1,1.1008348E0,0E0,0E0,0E0,0E0],"parents":[2147483647,0,0,1,1,3,3,4,4],"right_children":[2,4,-1,6,8,-1,-1,-1,-1],"split_conditions":[-2.2458334E-1,-1.5902617E0,-1.4068598E-1,-1.6204855E0,-2.3170705E-1,-9.4267495E-2,1.0249376E-2,1.4705853E-1,1.3986104E-2],"split_indices":[0,0,0,0,0,0,0,0,0],"split_type":[0,0,0,0,0,0,0,0,0],"sum_hessian":[6.0657143E1,4.6385586E1,1.4271556E1,7.9137673E0,3.847182E1,1.6740732E0,6.239694E0,3.1440285E1,7.0315337E0],"tree_param":{"num_deleted":"0","num_feature":"1","num_nodes":"9","size_leaf_vector":"1"}},{"base_weights":[-2.3097935E-1,2.6498896E-1,-1.4411205E-1,1.2914002E-1,1.7404243E-2],"categories":[],"categories_nodes":[],"categories_segments":[],"categories_sizes":[],"default_left":[0,0,0,0,0],"id":79,"left_children":[1,3,-1,-1,-1],"loss_changes":[4.4180026E0,3.9462548E-1,0E0,0E0,0E0],"parents":[2147483647,0,0,1,1],"right_children":[2,4,-1,-1,-1],"split_conditions":[-1.5902617E0,-1.6204855E0,-1.4411205E-1,1.2914002E-1,1.7404243E-2],"split_indices":[0,0,0,0,0],"split_type":[0,0,0,0,0],"sum_hessian":[3.368877E1,1.1251153E1,2.2437616E1,5.6522994E0,5.5988536E0],"tree_param":{"num_deleted":"0","num_feature":"1","num_nodes":"5","size_leaf_vector":"1"}},{"base_weights":[-3.4640712E-1,-1.4248689E-1,9.54463E-3],"categories":[],"categories_nodes":[],"categories_segments":[],"categories_sizes":[],"default_left":[0,0,0],"id":80,"left_children":[1,-1,-1],"loss_changes":[1.2460091E0,0E0,0E0],"parents":[2147483647,0,0],"right_children":[2,-1,-1],"split_conditions":[2.5090556E0,-1.4248689E-1,9.54463E-3],"split_indices":[0,0,0],"split_type":[0,0,0],"sum_hessian":[2.4316616E1,1.7957512E1,6.3591037E0],"tree_param":{"num_deleted":"0","num_feature":"1","num_nodes":"3","size_leaf_vector":"1"}},{"base_weights":[-6.490073E-2,-1.4124875E-1,2.3056675E-1,1.2238405E-2,3.1295815E-1,1.3630441E-1,1.6447594E-2],"categories":[],"categories_nodes":[],"categories_segments":[],"categories_sizes":[],"default_left":[0,0,0,0,0,0,0],"id":81,"left_children":[1,-1,3,-1,5,-1,-1],"loss_changes":[4.695944E0,0E0,3.4383285E-1,0E0,5.500239E-1,0E0,0E0],"parents":[2147483647,0,0,2,2,4,4],"right_children":[2,-1,4,-1,6,-1,-1],"split_conditions":[1.1500862E0,-1.4124875E-1,1.1655093E0,1.2238405E-2,2.5090556E0,1.3630441E-1,1.6447594E-2],"split_indices":[0,0,0,0,0,0,0],"split_type":[0,0,0,0,0,0,0],"sum_hessian":[3.7247776E1,1.5440845E1,2.180693E1,7.054178E0,1.4752752E1,9.040675E0,5.7120776E0],"tree_param":{"num_deleted":"0","num_feature":"1","num_nodes":"7","size_leaf_vector":"1"}},{"base_weights":[1.9074558E-1,-1.3275446E-1,2.9622045E-1,4.0414682E-1,-1.0691757E-1,9.549122E-3,1.4653644E-1,9.591733E-3,-1.1215145E-1],"categories":[],"categories_nodes":[],"categories_segments":[],"categories_sizes":[],"default_left":[0,0,0,0,0,0,0,0,0],"id":82,"left_children":[1,-1,3,5,7,-1,-1,-1,-1],"loss_changes":[3.9299543E0,0E0,2.1905537E0,1.2130418E0,4.276587E-1,0E0,0E0,0E0,0E0],"parents":[2147483647,0,0,2,2,3,3,4,4],"right_children":[2,-1,4,6,8,-1,-1,-1,-1],"split_conditions":[-2.3170705E-1,-1.3275446E-1,1.1500862E0,-2.2458334E-1,1.1655093E0,9.549122E-3,1.4653644E-1,9.591733E-3,-1.1215145E-1],"split_indices":[0,0,0,0,0,0,0,0,0],"split_type":[0,0,0,0,0,0,0,0,0],"sum_hessian":[5.5875256E1,7.521497E0,4.835376E1,3.814046E1,1.02133E1,7.2963324E0,3.0844128E1,7.2967243E0,2.9165752E0],"tree_param":{"num_deleted":"0","num_feature":"1","num_nodes":"9","size_leaf_vector":"1"}},{"base_weights":[1.2682076E-1,3.0038297E-1,-1.377422E-1,-5.5381276E-2,3.8665316E-1,-8.626966E-2,8.382703E-3,1.451697E-1,1.2201818E-2],"categories":[],"categories_nodes":[],"categories_segments":[],"categories_sizes":[],"default_left":[0,0,0,0,0,0,0,0,0],"id":83,"left_children":[1,3,-1,5,7,-1,-1,-1,-1],"loss_changes":[5.2356787E0,1.2268448E0,0E0,1.7325227E-1,1.0480595E0,0E0,0E0,0E0,0E0],"parents":[2147483647,0,0,1,1,3,3,4,4],"right_children":[2,4,-1,6,8,-1,-1,-1,-1],"split_conditions":[-2.2458334E-1,-1.5902617E0,-1.377422E-1,-1.6204855E0,-2.3170705E-1,-8.626966E-2,8.382703E-3,1.451697E-1,1.2201818E-2],"split_indices":[0,0,0,0,0,0,0,0,0],"split_type":[0,0,0,0,0,0,0,0,0],"sum_hessian":[4.9125095E1,3.827529E1,1.0849804E1,7.5399213E0,3.0735369E1,1.3439019E0,6.1960196E0,2.3680721E1,7.0546484E0],"tree_param":{"num_deleted":"0","num_feature":"1","num_nodes":"9","size_leaf_vector":"1"}},{"base_weights":[-2.123914E-1,2.3226736E-1,-1.4206544E-1,1.23471804E-1,1.5468324E-2],"categories":[],"categories_nodes":[],"categories_segments":[],"categories_sizes":[],"default_left":[0,0,0,0,0],"id":84,"left_children":[1,3,-1,-1,-1],"loss_changes":[3.364994E0,3.3656305E-1,0E0,0E0,0E0],"parents":[2147483647,0,0,1,1],"right_children":[2,4,-1,-1,-1],"split_conditions":[-1.5902617E0,-1.6204855E0,-1.4206544E-1,1.23471804E-1,1.5468324E-2],"split_indices":[0,0,0,0,0],"split_type":[0,0,0,0,0],"sum_hessian":[2.7029657E1,1.0042179E1,1.6987478E1,4.399355E0,5.6428246E0],"tree_param":{"num_deleted":"0","num_feature":"1","num_nodes":"5","size_leaf_vector":"1"}},{"base_weights":[-3.1701478E-1,-1.400835E-1,7.955667E-3],"categories":[],"categories_nodes":[],"categories_segments":[],"categories_sizes":[],"default_left":[0,0,0],"id":85,"left_children":[1,-1,-1],"loss_changes":[1.0926511E0,0E0,0E0],"parents":[2147483647,0,0],"right_children":[2,-1,-1],"split_conditions":[2.5090556E0,-1.400835E-1,7.955667E-3],"split_indices":[0,0,0],"split_type":[0,0,0],"sum_hessian":[1.9973608E1,1.3654892E1,6.3187165E0],"tree_param":{"num_deleted":"0","num_feature":"1","num_nodes":"3","size_leaf_vector":"1"}},{"base_weights":[-5.4174125E-2,-1.3849907E-1,1.9802804E-1,1.06898565E-2,2.7933177E-1,1.3202387E-1,1.47186695E-2],"categories":[],"categories_nodes":[],"categories_segments":[],"categories_sizes":[],"default_left":[0,0,0,0,0,0,0],"id":86,"left_children":[1,-1,3,-1,5,-1,-1],"loss_changes":[3.4297671E0,0E0,2.642129E-1,0E0,4.851867E-1,0E0,0E0],"parents":[2147483647,0,0,2,2,4,4],"right_children":[2,-1,4,-1,6,-1,-1],"split_conditions":[1.1500862E0,-1.3849907E-1,1.1655093E0,1.06898565E-2,2.5090556E0,1.3202387E-1,1.47186695E-2],"split_indices":[0,0,0,0,0,0,0],"split_type":[0,0,0,0,0,0,0],"sum_hessian":[3.1483744E1,1.1718821E1,1.9764923E1,7.0738864E0,1.2691036E1,6.9371586E0,5.7538776E0],"tree_param":{"num_deleted":"0","num_feature":"1","num_nodes":"7","size_leaf_vector":"1"}},{"base_weights":[1.723694E-1,-1.2812282E-1,2.668517E-1,3.7809873E-1,-8.8784076E-2,8.1213955E-3,1.4473729E-1,8.169455E-3,-1.0528339E-1],"categories":[],"categories_nodes":[],"categories_segments":[],"categories_sizes":[],"default_left":[0,0,0,0,0,0,0,0,0],"id":87,"left_children":[1,-1,3,5,7,-1,-1,-1,-1],"loss_changes":[2.7703605E0,0E0,1.6608746E0,1.141645E0,3.3227223E-1,0E0,0E0,0E0,0E0],"parents":[2147483647,0,0,2,2,3,3,4,4],"right_children":[2,-1,4,6,8,-1,-1,-1,-1],"split_conditions":[-2.3170705E-1,-1.2812282E-1,1.1500862E0,-2.2458334E-1,1.1655093E0,8.1213955E-3,1.4473729E-1,8.169455E-3,-1.0528339E-1],"split_indices":[0,0,0,0,0,0,0,0,0],"split_type":[0,0,0,0,0,0,0,0,0],"sum_hessian":[4.5902115E1,5.7705483E0,4.0131565E1,3.0521059E1,9.610507E0,7.2829885E0,2.323807E1,7.283444E0,2.3270628E0],"tree_param":{"num_deleted":"0","num_feature":"1","num_nodes":"9","size_leaf_vector":"1"}},{"base_weights":[1.1444978E-1,2.6813635E-1,-1.341778E-1,-4.6327148E-2,3.5778716E-1,-7.85178E-2,6.9240537E-3,1.4298487E-1,1.0648383E-2],"categories":[],"categories_nodes":[],"categories_segments":[],"categories_sizes":[],"default_left":[0,0,0,0,0,0,0,0,0],"id":88,"left_children":[1,3,-1,5,7,-1,-1,-1,-1],"loss_changes":[3.70337E0,9.530468E-1,0E0,1.2944844E-1,9.7741365E-1,0E0,0E0,0E0,0E0],"parents":[2147483647,0,0,1,1,3,3,4,4],"right_children":[2,4,-1,6,8,-1,-1,-1,-1],"split_conditions":[-2.2458334E-1,-1.5902617E0,-1.341778E-1,-1.6204855E0,-2.3170705E-1,-7.85178E-2,6.9240537E-3,1.4298487E-1,1.0648383E-2],"split_indices":[0,0,0,0,0,0,0,0,0],"split_type":[0,0,0,0,0,0,0,0,0],"sum_hessian":[4.0510044E1,3.2217743E1,8.292302E0,7.2545576E0,2.4963184E1,1.0926757E0,6.161882E0,1.7888775E1,7.074409E0],"tree_param":{"num_deleted":"0","num_feature":"1","num_nodes":"9","size_leaf_vector":"1"}},{"base_weights":[-1.9200066E-1,2.0188767E-1,-1.3954568E-1,1.17263876E-1,1.3706465E-2],"categories":[],"categories_nodes":[],"categories_segments":[],"categories_sizes":[],"default_left":[0,0,0,0,0],"id":89,"left_children":[1,3,-1,-1,-1],"loss_changes":[2.574394E0,2.8142557E-1,0E0,0E0,0E0],"parents":[2147483647,0,0,1,1],"right_children":[2,4,-1,-1,-1],"split_conditions":[-1.5902617E0,-1.6204855E0,-1.3954568E-1,1.17263876E-1,1.3706465E-2],"split_indices":[0,0,0,0,0],"split_type":[0,0,0,0,0],"sum_hessian":[2.2054724E1,9.138203E0,1.291652E1,3.4551914E0,5.6830115E0],"tree_param":{"num_deleted":"0","num_feature":"1","num_nodes":"5","size_leaf_vector":"1"}},{"base_weights":[-2.857895E-1,-1.371463E-1,6.7279604E-3],"categories":[],"categories_nodes":[],"categories_segments":[],"categories_sizes":[],"default_left":[0,0,0],"id":90,"left_children":[1,-1,-1],"loss_changes":[9.46556E-1,0E0,0E0],"parents":[2147483647,0,0],"right_children":[2,-1,-1],"split_conditions":[2.5090556E0,-1.371463E-1,6.7279604E-3],"split_indices":[0,0,0],"split_type":[0,0,0],"sum_hessian":[1.672719E1,1.0439636E1,6.287553E0],"tree_param":{"num_deleted":"0","num_feature":"1","num_nodes":"3","size_leaf_vector":"1"}},{"base_weights":[-4.3742016E-2,-1.351442E-1,1.686341E-1,9.346788E-3,2.4627358E-1,1.2710889E-1,1.3145781E-2],"categories":[],"categories_nodes":[],"categories_segments":[],"categories_sizes":[],"default_left":[0,0,0,0,0,0,0],"id":91,"left_children":[1,-1,3,-1,5,-1,-1],"loss_changes":[2.5107386E0,0E0,1.9774395E-1,0E0,4.180194E-1,0E0,0E0],"parents":[2147483647,0,0,2,2,4,4],"right_children":[2,-1,4,-1,6,-1,-1],"split_conditions":[1.1500862E0,-1.351442E-1,1.1655093E0,9.346788E-3,2.5090556E0,1.2710889E-1,1.3145781E-2],"split_indices":[0,0,0,0,0,0,0],"split_type":[0,0,0,0,0,0,0],"sum_hessian":[2.7186247E1,8.941162E0,1.8245085E1,7.0906982E0,1.11543865E1,5.362293E0,5.792094E0],"tree_param":{"num_deleted":"0","num_feature":"1","num_nodes":"7","size_leaf_vector":"1"}},{"base_weights":[1.5295278E-1,-1.22752175E-1,2.3631223E-1,3.4901187E-1,-7.383851E-2,6.948398E-3,1.4261071E-1,7.0021735E-3,-9.821277E-2],"categories":[],"categories_nodes":[],"categories_segments":[],"categories_sizes":[],"default_left":[0,0,0,0,0,0,0,0,0],"id":92,"left_children":[1,-1,3,5,7,-1,-1,-1,-1],"loss_changes":[1.9454422E0,0E0,1.2488962E0,1.052949E0,2.5776482E-1,0E0,0E0,0E0,0E0],"parents":[2147483647,0,0,2,2,3,3,4,4],"right_children":[2,-1,4,6,8,-1,-1,-1,-1],"split_conditions":[-2.3170705E-1,-1.22752175E-1,1.1500862E0,-2.2458334E-1,1.1655093E0,6.948398E-3,1.4261071E-1,7.0021735E-3,-9.821277E-2],"split_indices":[0,0,0,0,0,0,0,0,0],"split_type":[0,0,0,0,0,0,0,0,0],"sum_hessian":[3.8453815E1,4.461249E0,3.3992565E1,2.484084E1,9.151727E0,7.27174E0,1.75691E1,7.272261E0,1.8794659E0],"tree_param":{"num_deleted":"0","num_feature":"1","num_nodes":"9","size_leaf_vector":"1"}},{"base_weights":[1.0149085E-1,2.3542406E-1,-1.299326E-1,-1.1701778E-2,3.26358E-1,1.4039378E-1,9.3001295E-3],"categories":[],"categories_nodes":[],"categories_segments":[],"categories_sizes":[],"default_left":[0,0,0,0,0,0,0],"id":93,"left_children":[1,3,-1,-1,5,-1,-1],"loss_changes":[2.6134598E0,7.2886646E-1,0E0,0E0,8.915725E-1,0E0,0E0],"parents":[2147483647,0,0,1,1,4,4],"right_children":[2,4,-1,-1,6,-1,-1],"split_conditions":[-2.2458334E-1,-1.5902617E0,-1.299326E-1,-1.1701778E-2,-2.3170705E-1,1.4039378E-1,9.3001295E-3],"split_indices":[0,0,0,0,0,0,0],"split_type":[0,0,0,0,0,0,0],"sum_hessian":[3.407645E1,2.7697117E1,6.379333E0,7.0355506E0,2.0661568E1,1.3570289E1,7.091278E0],"tree_param":{"num_deleted":"0","num_feature":"1","num_nodes":"7","size_leaf_vector":"1"}},{"base_weights":[-1.7043215E-1,1.7452608E-1,-1.3646975E-1,1.10613085E-1,1.2121683E-2],"categories":[],"categories_nodes":[],"categories_segments":[],"categories_sizes":[],"default_left":[0,0,0,0,0],"id":94,"left_children":[1,3,-1,-1,-1],"loss_changes":[1.9767913E0,2.3151672E-1,0E0,0E0,0E0],"parents":[2147483647,0,0,1,1],"right_children":[2,4,-1,-1,-1],"split_conditions":[-1.5902617E0,-1.6204855E0,-1.3646975E-1,1.10613085E-1,1.2121683E-2],"split_indices":[0,0,0,0,0],"split_type":[0,0,0,0,0],"sum_hessian":[1.8335722E1,8.461448E0,9.874274E0,2.7421584E0,5.719289E0],"tree_param":{"num_deleted":"0","num_feature":"1","num_nodes":"5","size_leaf_vector":"1"}},{"base_weights":[-2.539152E-1,-1.3361563E-1,5.7810224E-3],"categories":[],"categories_nodes":[],"categories_segments":[],"categories_sizes":[],"default_left":[0,0,0],"id":95,"left_children":[1,-1,-1],"loss_changes":[8.0892265E-1,0E0,0E0],"parents":[2147483647,0,0],"right_children":[2,-1,-1],"split_conditions":[2.5090556E0,-1.3361563E-1,5.7810224E-3],"split_indices":[0,0,0],"split_type":[0,0,0],"sum_hessian":[1.4300868E1,8.037324E0,6.263545E0],"tree_param":{"num_deleted":"0","num_feature":"1","num_nodes":"3","size_leaf_vector":"1"}},{"base_weights":[-3.4101367E-2,-1.3112783E-1,1.428647E-1,8.185824E-3,2.1498413E-1,1.2156173E-1,1.173246E-2],"categories":[],"categories_nodes":[],"categories_segments":[],"categories_sizes":[],"default_left":[0,0,0,0,0,0,0],"id":96,"left_children":[1,-1,3,-1,5,-1,-1],"loss_changes":[1.8440999E0,0E0,1.4511567E-1,0E0,3.524354E-1,0E0,0E0],"parents":[2147483647,0,0,2,2,4,4],"right_children":[2,-1,4,-1,6,-1,-1],"split_conditions":[1.1500862E0,-1.3112783E-1,1.1655093E0,8.185824E-3,2.5090556E0,1.2156173E-1,1.173246E-2],"split_indices":[0,0,0,0,0,0,0],"split_type":[0,0,0,0,0,0,0],"sum_hessian":[2.3982609E1,6.8694367E0,1.7113173E1,7.1050167E0,1.0008155E1,4.181574E0,5.8265815E0],"tree_param":{"num_deleted":"0","num_feature":"1","num_nodes":"7","size_leaf_vector":"1"}},{"base_weights":[1.3316482E-1,-1.1672005E-1,2.057838E-1,3.1757957E-1,-6.1696958E-2,5.98345E-3,1.4005738E-1,6.0429797E-3,-9.1153204E-2],"categories":[],"categories_nodes":[],"categories_segments":[],"categories_sizes":[],"default_left":[0,0,0,0,0,0,0,0,0],"id":97,"left_children":[1,-1,3,5,7,-1,-1,-1,-1],"loss_changes":[1.3654089E0,0E0,9.289262E-1,9.5075965E-1,2.0034568E-1,0E0,0E0,0E0,0E0],"parents":[2147483647,0,0,2,2,3,3,4,4],"right_children":[2,-1,4,6,8,-1,-1,-1,-1],"split_conditions":[-2.3170705E-1,-1.1672005E-1,1.1500862E0,-2.2458334E-1,1.1655093E0,5.98345E-3,1.4005738E-1,6.0429797E-3,-9.1153204E-2],"split_indices":[0,0,0,0,0,0,0,0,0],"split_type":[0,0,0,0,0,0,0,0,0],"sum_hessian":[3.289273E1,3.4835443E0,2.9409185E1,2.0608427E1,8.800759E0,7.2622957E0,1.3346131E1,7.2628827E0,1.5378762E0],"tree_param":{"num_deleted":"0","num_feature":"1","num_nodes":"9","size_leaf_vector":"1"}},{"base_weights":[8.916594E-2,2.0397383E-1,-1.2498881E-1,-8.650765E-3,2.9337794E-1,1.3729897E-1,8.133825E-3],"categories":[],"categories_nodes":[],"categories_segments":[],"categories_sizes":[],"default_left":[0,0,0,0,0,0,0],"id":98,"left_children":[1,3,-1,-1,5,-1,-1],"loss_changes":[1.8484112E0,5.3757954E-1,0E0,0E0,7.9496896E-1,0E0,0E0],"parents":[2147483647,0,0,1,1,4,4],"right_children":[2,4,-1,-1,6,-1,-1],"split_conditions":[-2.2458334E-1,-1.5902617E0,-1.2498881E-1,-8.650765E-3,-2.3170705E-1,1.3729897E-1,8.133825E-3],"split_indices":[0,0,0,0,0,0,0],"split_type":[0,0,0,0,0,0,0],"sum_hessian":[2.936768E1,2.442117E1,4.9465103E0,6.9640737E0,1.7457096E1,1.0351442E1,7.1056533E0],"tree_param":{"num_deleted":"0","num_feature":"1","num_nodes":"7","size_leaf_vector":"1"}},{"base_weights":[-1.4920269E-1,1.4600457E-1,-1.3277309E-1,1.04344375E-1,8.4665995E-3],"categories":[],"categories_nodes":[],"categories_segments":[],"categories_sizes":[],"default_left":[0,0,0,0,0],"id":99,"left_children":[1,3,-1,-1,-1],"loss_changes":[1.5065365E0,2.0531353E-1,0E0,0E0,0E0],"parents":[2147483647,0,0,1,1],"right_children":[2,4,-1,-1,-1],"split_conditions":[-1.5902617E0,-1.6204855E0,-1.3277309E-1,1.04344375E-1,8.4665995E-3],"split_indices":[0,0,0,0,0],"split_type":[0,0,0,0,0],"sum_hessian":[1.5649132E1,8.050579E0,7.5985527E0,2.2471924E0,5.8033867E0],"tree_param":{"num_deleted":"0","num_feature":"1","num_nodes":"5","size_leaf_vector":"1"}},{"base_weights":[-2.2256987E-1,-1.2945062E-1,5.0509083E-3],"categories":[],"categories_nodes":[],"categories_segments":[],"categories_sizes":[],"default_left":[0,0,0],"id":100,"left_children":[1,-1,-1],"loss_changes":[6.8160844E-1,0E0,0E0],"parents":[2147483647,0,0],"right_children":[2,-1,-1],"split_conditions":[2.5090556E0,-1.2945062E-1,5.0509083E-3],"split_indices":[0,0,0],"split_type":[0,0,0],"sum_hessian":[1.2481566E1,6.2365146E0,6.245052E0],"tree_param":{"num_deleted":"0","num_feature":"1","num_nodes":"3","size_leaf_vector":"1"}},{"base_weights":[-2.551616E-2,-1.264179E-1,1.2082227E-1,7.185611E-3,1.8637732E-1,1.1545134E-1,1.0475099E-2],"categories":[],"categories_nodes":[],"categories_segments":[],"categories_sizes":[],"default_left":[0,0,0,0,0,0,0],"id":101,"left_children":[1,-1,3,-1,5,-1,-1],"loss_changes":[1.3594773E0,0E0,1.0519874E-1,0E0,2.9171E-1,0E0,0E0],"parents":[2147483647,0,0,2,2,4,4],"right_children":[2,-1,4,-1,6,-1,-1],"split_conditions":[1.1500862E0,-1.264179E-1,1.1655093E0,7.185611E-3,2.5090556E0,1.1545134E-1,1.0475099E-2],"split_indices":[0,0,0,0,0,0,0],"split_type":[0,0,0,0,0,0,0],"sum_hessian":[2.1587925E1,5.319084E0,1.626884E1,7.1171904E0,9.151651E0,3.2942724E0,5.8573785E0],"tree_param":{"num_deleted":"0","num_feature":"1","num_nodes":"7","size_leaf_vector":"1"}},{"base_weights":[1.1387971E-1,-1.1012606E-1,1.7646983E-1,2.8486198E-1,-5.192337E-2,5.1889094E-3,1.369897E-1,5.2541327E-3,-8.4301636E-2],"categories":[],"categories_nodes":[],"categories_segments":[],"categories_sizes":[],"default_left":[0,0,0,0,0,0,0,0,0],"id":102,"left_children":[1,-1,3,5,7,-1,-1,-1,-1],"loss_changes":[9.5984733E-1,0E0,6.828172E-1,8.402362E-1,1.5652247E-1,0E0,0E0,0E0,0E0],"parents":[2147483647,0,0,2,2,3,3,4,4],"right_children":[2,-1,4,6,8,-1,-1,-1,-1],"split_conditions":[-2.3170705E-1,-1.1012606E-1,1.1500862E0,-2.2458334E-1,1.1655093E0,5.1889094E-3,1.369897E-1,5.2541327E-3,-8.4301636E-2],"split_indices":[0,0,0,0,0,0,0,0,0],"split_type":[0,0,0,0,0,0,0,0,0],"sum_hessian":[2.873275E1,2.7483606E0,2.598439E1,1.7453815E1,8.530574E0,7.2543907E0,1.0199425E1,7.2550435E0,1.2755306E0],"tree_param":{"num_deleted":"0","num_feature":"1","num_nodes":"9","size_leaf_vector":"1"}},{"base_weights":[7.723185E-2,1.746542E-1,-1.19384415E-1,-6.4021093E-3,2.6011392E-1,1.3362472E-1,7.128256E-3],"categories":[],"categories_nodes":[],"categories_segments":[],"categories_sizes":[],"default_left":[0,0,0,0,0,0,0],"id":103,"left_children":[1,3,-1,-1,5,-1,-1],"loss_changes":[1.311878E0,3.902241E-1,0E0,0E0,6.931647E-1,0E0,0E0],"parents":[2147483647,0,0,1,1,4,4],"right_children":[2,4,-1,-1,6,-1,-1],"split_conditions":[-2.2458334E-1,-1.5902617E0,-1.19384415E-1,-6.4021093E-3,-2.3170705E-1,1.3362472E-1,7.128256E-3],"split_indices":[0,0,0,0,0,0,0],"split_type":[0,0,0,0,0,0,0],"sum_hessian":[2.5837124E1,2.1966045E1,3.8710775E0,6.8975034E0,1.50685425E1,7.950659E0,7.117884E0],"tree_param":{"num_deleted":"0","num_feature":"1","num_nodes":"7","size_leaf_vector":"1"}},{"base_weights":[-1.2866464E-1,1.22468084E-1,-1.2842321E-1,9.807774E-2,5.7853446E-3],"categories":[],"categories_nodes":[],"categories_segments":[],"categories_sizes":[],"default_left":[0,0,0,0,0],"id":104,"left_children":[1,3,-1,-1,-1],"loss_changes":[1.1520956E0,1.778945E-1,0E0,0E0,0E0],"parents":[2147483647,0,0,1,1],"right_children":[2,4,-1,-1,-1],"split_conditions":[-1.5902617E0,-1.6204855E0,-1.2842321E-1,9.807774E-2,5.7853446E-3],"split_indices":[0,0,0,0,0],"split_type":[0,0,0,0,0],"sum_hessian":[1.3624758E1,7.7311883E0,5.8935695E0,1.8657757E0,5.8654127E0],"tree_param":{"num_deleted":"0","num_feature":"1","num_nodes":"5","size_leaf_vector":"1"}},{"base_weights":[-1.9287583E-1,-1.2465648E-1,4.4871103E-3],"categories":[],"categories_nodes":[],"categories_segments":[],"categories_sizes":[],"default_left":[0,0,0],"id":105,"left_children":[1,-1,-1],"loss_changes":[5.66777E-1,0E0,0E0],"parents":[2147483647,0,0],"right_children":[2,-1,-1],"split_conditions":[2.5090556E0,-1.2465648E-1,4.4871103E-3],"split_indices":[0,0,0],"split_type":[0,0,0],"sum_hessian":[1.1114205E1,4.883421E0,6.230784E0],"tree_param":{"num_deleted":"0","num_feature":"1","num_nodes":"3","size_leaf_vector":"1"}},{"base_weights":[-1.8185334E-2,-1.21039964E-1,1.0231913E-1,6.326553E-3,1.6098405E-1,1.0890773E-1,9.365436E-3],"categories":[],"categories_nodes":[],"categories_segments":[],"categories_sizes":[],"default_left":[0,0,0,0,0,0,0],"id":106,"left_children":[1,-1,3,-1,5,-1,-1],"loss_changes":[1.0066909E0,0E0,7.588783E-2,0E0,2.3799306E-1,0E0,0E0],"parents":[2147483647,0,0,2,2,4,4],"right_children":[2,-1,4,-1,6,-1,-1],"split_conditions":[1.1500862E0,-1.21039964E-1,1.1655093E0,6.326553E-3,2.5090556E0,1.0890773E-1,9.365436E-3],"split_indices":[0,0,0,0,0,0,0],"split_type":[0,0,0,0,0,0,0],"sum_hessian":[1.9793625E1,4.1564207E0,1.5637203E1,7.127524E0,8.50968E0,2.625035E0,5.8846445E0],"tree_param":{"num_deleted":"0","num_feature":"1","num_nodes":"7","size_leaf_vector":"1"}},{"base_weights":[9.582593E-2,-1.0314765E-1,1.4939284E-1,2.5212908E-1,-4.409063E-2,4.534264E-3,1.3334244E-1,4.6048244E-3,-7.781526E-2],"categories":[],"categories_nodes":[],"categories_segments":[],"categories_sizes":[],"default_left":[0,0,0,0,0,0,0,0,0],"id":107,"left_children":[1,-1,3,5,7,-1,-1,-1,-1],"loss_changes":[6.7816025E-1,0E0,4.9655563E-1,7.272701E-1,1.23263136E-1,0E0,0E0,0E0,0E0],"parents":[2147483647,0,0,2,2,3,3,4,4],"right_children":[2,-1,4,6,8,-1,-1,-1,-1],"split_conditions":[-2.3170705E-1,-1.0314765E-1,1.1500862E0,-2.2458334E-1,1.1655093E0,4.534264E-3,1.3334244E-1,4.6048244E-3,-7.781526E-2],"split_indices":[0,0,0,0,0,0,0,0,0],"split_type":[0,0,0,0,0,0,0,0,0],"sum_hessian":[2.5614641E1,2.1934268E0,2.3421215E1,1.5100184E1,8.321031E0,7.2477913E0,7.8523927E0,7.2485065E0,1.0725235E0],"tree_param":{"num_deleted":"0","num_feature":"1","num_nodes":"9","size_leaf_vector":"1"}},{"base_weights":[6.608934E-2,1.4823951E-1,-1.1321894E-1,-4.7515966E-3,2.2786494E-1,1.2932907E-1,6.2639792E-3],"categories":[],"categories_nodes":[],"categories_segments":[],"categories_sizes":[],"default_left":[0,0,0,0,0,0,0],"id":108,"left_children":[1,3,-1,-1,5,-1,-1],"loss_changes":[9.369908E-1,2.79557E-1,0E0,0E0,5.919297E-1,0E0,0E0],"parents":[2147483647,0,0,1,1,4,4],"right_children":[2,4,-1,-1,6,-1,-1],"split_conditions":[-2.2458334E-1,-1.5902617E0,-1.1321894E-1,-4.7515966E-3,-2.3170705E-1,1.2932907E-1,6.2639792E-3],"split_indices":[0,0,0,0,0,0,0],"split_type":[0,0,0,0,0,0,0],"sum_hessian":[2.3183E1,2.0121489E1,3.061513E0,6.8360453E0,1.3285442E1,6.1571703E0,7.1282725E0],"tree_param":{"num_deleted":"0","num_feature":"1","num_nodes":"7","size_leaf_vector":"1"}},{"base_weights":[-1.0950841E-1,1.03254855E-1,-1.23432994E-1,9.1956355E-2,3.820991E-3],"categories":[],"categories_nodes":[],"categories_segments":[],"categories_sizes":[],"default_left":[0,0,0,0,0],"id":109,"left_children":[1,3,-1,-1,-1],"loss_changes":[8.836475E-1,1.5213364E-1,0E0,0E0,0E0],"parents":[2147483647,0,0,1,1],"right_children":[2,4,-1,-1,-1],"split_conditions":[-1.5902617E0,-1.6204855E0,-1.23432994E-1,9.1956355E-2,3.820991E-3],"split_indices":[0,0,0,0,0],"split_type":[0,0,0,0,0],"sum_hessian":[1.2093953E1,7.4806294E0,4.613323E0,1.5696208E0,5.911009E0],"tree_param":{"num_deleted":"0","num_feature":"1","num_nodes":"5","size_leaf_vector":"1"}},{"base_weights":[-1.6569102E-1,-1.1928842E-1,4.0501542E-3],"categories":[],"categories_nodes":[],"categories_segments":[],"categories_sizes":[],"default_left":[0,0,0],"id":110,"left_children":[1,-1,-1],"loss_changes":[4.6599984E-1,0E0,0E0],"parents":[2147483647,0,0],"right_children":[2,-1,-1],"split_conditions":[2.5090556E0,-1.1928842E-1,4.0501542E-3],"split_indices":[0,0,0],"split_type":[0,0,0],"sum_hessian":[1.0083225E1,3.8634923E0,6.219733E0],"tree_param":{"num_deleted":"0","num_feature":"1","num_nodes":"3","size_leaf_vector":"1"}},{"base_weights":[-1.2168523E-2,-1.1507886E-1,8.6986385E-2,5.5907536E-3,1.389612E-1,1.0210184E-1,8.392296E-3],"categories":[],"categories_nodes":[],"categories_segments":[],"categories_sizes":[],"default_left":[0,0,0,0,0,0,0],"id":111,"left_children":[1,-1,3,-1,5,-1,-1],"loss_changes":[7.494812E-1,0E0,5.4827526E-2,0E0,1.9221707E-1,0E0,0E0],"parents":[2147483647,0,0,2,2,4,4],"right_children":[2,-1,4,-1,6,-1,-1],"split_conditions":[1.1500862E0,-1.1507886E-1,1.1655093E0,5.5907536E-3,2.5090556E0,1.0210184E-1,8.392296E-3],"split_indices":[0,0,0,0,0,0,0],"split_type":[0,0,0,0,0,0,0],"sum_hessian":[1.844435E1,3.2819033E0,1.5162446E1,7.136284E0,8.026162E0,2.1175413E0,5.908621E0],"tree_param":{"num_deleted":"0","num_feature":"1","num_nodes":"7","size_leaf_vector":"1"}},{"base_weights":[7.953442E-2,-9.5997E-2,1.2523507E-1,2.2062102E-1,-1.1344472E-2,3.994456E-3,1.2908211E-1],"categories":[],"categories_nodes":[],"categories_segments":[],"categories_sizes":[],"default_left":[0,0,0,0,0,0,0],"id":112,"left_children":[1,-1,3,5,-1,-1,-1],"loss_changes":[4.8320144E-1,0E0,3.5823375E-1,6.1752105E-1,0E0,0E0,0E0],"parents":[2147483647,0,0,2,2,3,3],"right_children":[2,-1,4,6,-1,-1,-1],"split_conditions":[-2.3170705E-1,-9.5997E-2,1.1500862E0,-2.2458334E-1,-1.1344472E-2,3.994456E-3,1.2908211E-1],"split_indices":[0,0,0,0,0,0,0],"split_type":[0,0,0,0,0,0,0],"sum_hessian":[2.3269623E1,1.7724689E0,2.1497154E1,1.3340015E1,8.157138E0,7.242292E0,6.0977235E0],"tree_param":{"num_deleted":"0","num_feature":"1","num_nodes":"7","size_leaf_vector":"1"}},{"base_weights":[5.603667E-2,1.2514551E-1,-1.0664701E-1,-3.5441557E-3,1.9775194E-1,1.2441764E-1,5.5232467E-3],"categories":[],"categories_nodes":[],"categories_segments":[],"categories_sizes":[],"default_left":[0,0,0,0,0,0,0],"id":113,"left_children":[1,3,-1,-1,5,-1,-1],"loss_changes":[6.7531353E-1,1.985453E-1,0E0,0E0,4.9633467E-1,0E0,0E0],"parents":[2147483647,0,0,1,1,4,4],"right_children":[2,4,-1,-1,6,-1,-1],"split_conditions":[-2.2458334E-1,-1.5902617E0,-1.0664701E-1,-3.5441557E-3,-2.3170705E-1,1.2441764E-1,5.5232467E-3],"split_indices":[0,0,0,0,0,0,0],"split_type":[0,0,0,0,0,0,0],"sum_hessian":[2.1180824E1,1.8731148E1,2.4496756E0,6.779706E0,1.1951443E1,4.8143587E0,7.1370835E0],"tree_param":{"num_deleted":"0","num_feature":"1","num_nodes":"7","size_leaf_vector":"1"}},{"base_weights":[-9.22264E-2,8.7683104E-2,-1.1786861E-1,8.610179E-2,2.3863192E-3],"categories":[],"categories_nodes":[],"categories_segments":[],"categories_sizes":[],"default_left":[0,0,0,0,0],"id":114,"left_children":[1,3,-1,-1,-1],"loss_changes":[6.7985E-1,1.2933594E-1,0E0,0E0,0E0],"parents":[2147483647,0,0,1,1],"right_children":[2,4,-1,-1,-1],"split_conditions":[-1.5902617E0,-1.6204855E0,-1.1786861E-1,8.610179E-2,2.3863192E-3],"split_indices":[0,0,0,0,0],"split_type":[0,0,0,0,0],"sum_hessian":[1.0931254E1,7.2822127E0,3.6490414E0,1.3378321E0,5.9443808E0],"tree_param":{"num_deleted":"0","num_feature":"1","num_nodes":"5","size_leaf_vector":"1"}},{"base_weights":[-1.409969E-1,-1.1346456E-1,3.923891E-3],"categories":[],"categories_nodes":[],"categories_segments":[],"categories_sizes":[],"default_left":[0,0,0],"id":115,"left_children":[1,-1,-1],"loss_changes":[3.8175344E-1,0E0,0E0],"parents":[2147483647,0,0],"right_children":[2,-1,-1],"split_conditions":[2.5090556E0,-1.1346456E-1,3.923891E-3],"split_indices":[0,0,0],"split_type":[0,0,0],"sum_hessian":[9.309408E0,3.0928671E0,6.216541E0],"tree_param":{"num_deleted":"0","num_feature":"1","num_nodes":"3","size_leaf_vector":"1"}},{"base_weights":[-9.238805E-3,-1.086751E-1,7.1949825E-2,2.974491E-3,1.2194939E-1,9.593268E-2,7.612111E-3],"categories":[],"categories_nodes":[],"categories_segments":[],"categories_sizes":[],"default_left":[0,0,0,0,0,0,0],"id":116,"left_children":[1,-1,3,-1,5,-1,-1],"loss_changes":[5.55761E-1,0E0,4.7984906E-2,0E0,1.5797761E-1,0E0,0E0],"parents":[2147483647,0,0,2,2,4,4],"right_children":[2,-1,4,-1,6,-1,-1],"split_conditions":[1.1500862E0,-1.086751E-1,1.1655093E0,2.974491E-3,2.5090556E0,9.593268E-2,7.612111E-3],"split_indices":[0,0,0,0,0,0,0],"split_type":[0,0,0,0,0,0,0],"sum_hessian":[1.7481768E1,2.621508E0,1.486026E1,7.166736E0,7.6935244E0,1.7656393E0,5.927885E0],"tree_param":{"num_deleted":"0","num_feature":"1","num_nodes":"7","size_leaf_vector":"1"}},{"base_weights":[6.651419E-2,-8.889053E-2,1.0547719E-1,1.9138996E-1,-8.724743E-3,3.5488445E-3,1.24223895E-1],"categories":[],"categories_nodes":[],"categories_segments":[],"categories_sizes":[],"default_left":[0,0,0,0,0,0,0],"id":117,"left_children":[1,-1,3,5,-1,-1,-1],"loss_changes":[3.5029548E-1,0E0,2.4969494E-1,5.157448E-1,0E0,0E0,0E0],"parents":[2147483647,0,0,2,2,3,3],"right_children":[2,-1,4,6,-1,-1,-1],"split_conditions":[-2.3170705E-1,-8.889053E-2,1.1500862E0,-2.2458334E-1,-8.724743E-3,3.5488445E-3,1.24223895E-1],"split_indices":[0,0,0,0,0,0,0],"split_type":[0,0,0,0,0,0,0],"sum_hessian":[2.1568861E1,1.4511682E0,2.0117691E1,1.2020548E1,8.097144E0,7.237713E0,4.782835E0],"tree_param":{"num_deleted":"0","num_feature":"1","num_nodes":"7","size_leaf_vector":"1"}},{"base_weights":[4.7187146E-2,1.0543798E-1,-9.988385E-2,-2.6630112E-3,1.705457E-1,1.1894709E-1,4.889963E-3],"categories":[],"categories_nodes":[],"categories_segments":[],"categories_sizes":[],"default_left":[0,0,0,0,0,0,0],"id":118,"left_children":[1,3,-1,-1,5,-1,-1],"loss_changes":[4.9267954E-1,1.4053074E-1,0E0,0E0,4.099992E-1,0E0,0E0],"parents":[2147483647,0,0,1,1,4,4],"right_children":[2,4,-1,-1,6,-1,-1],"split_conditions":[-2.2458334E-1,-1.5902617E0,-9.988385E-2,-2.6630112E-3,-2.3170705E-1,1.1894709E-1,4.889963E-3],"split_indices":[0,0,0,0,0,0,0],"split_type":[0,0,0,0,0,0,0],"sum_hessian":[1.9664438E1,1.767811E1,1.9863278E0,6.728326E0,1.0949783E1,3.8052354E0,7.1445484E0],"tree_param":{"num_deleted":"0","num_feature":"1","num_nodes":"7","size_leaf_vector":"1"}},{"base_weights":[-7.713904E-2,7.510532E-2,-1.1186167E-1,8.0598615E-2,1.3438716E-3],"categories":[],"categories_nodes":[],"categories_segments":[],"categories_sizes":[],"default_left":[0,0,0,0,0],"id":119,"left_children":[1,3,-1,-1,-1],"loss_changes":[5.252687E-1,1.0984391E-1,0E0,0E0,0E0],"parents":[2147483647,0,0,1,1],"right_children":[2,4,-1,-1,-1],"split_conditions":[-1.5902617E0,-1.6204855E0,-1.1186167E-1,8.0598615E-2,1.3438716E-3],"split_indices":[0,0,0,0,0],"split_type":[0,0,0,0,0],"sum_hessian":[1.0044493E1,7.1233873E0,2.9211051E0,1.1547254E0,5.968662E0],"tree_param":{"num_deleted":"0","num_feature":"1","num_nodes":"5","size_leaf_vector":"1"}},{"base_weights":[-1.1957459E-1,-1.0731819E-1,3.8244228E-3],"categories":[],"categories_nodes":[],"categories_segments":[],"categories_sizes":[],"default_left":[0,0,0],"id":120,"left_children":[1,-1,-1],"loss_changes":[3.10873E-1,0E0,0E0],"parents":[2147483647,0,0],"right_children":[2,-1,-1],"split_conditions":[2.5090556E0,-1.0731819E-1,3.8244228E-3],"split_indices":[0,0,0],"split_type":[0,0,0],"sum_hessian":[8.720201E0,2.5061736E0,6.214027E0],"tree_param":{"num_deleted":"0","num_feature":"1","num_nodes":"3","size_leaf_vector":"1"}},{"base_weights":[-6.9186604E-3,-1.0200869E-1,6.004891E-2,1.1039844E-3,1.07639976E-1,8.9943126E-2,6.9525978E-3],"categories":[],"categories_nodes":[],"categories_segments":[],"categories_sizes":[],"default_left":[0,0,0,0,0,0,0],"id":121,"left_children":[1,-1,3,-1,5,-1,-1],"loss_changes":[4.1625166E-1,0E0,4.151797E-2,0E0,1.299858E-1,0E0,0E0],"parents":[2147483647,0,0,2,2,4,4],"right_children":[2,-1,4,-1,6,-1,-1],"split_conditions":[1.1500862E0,-1.0200869E-1,1.1655093E0,1.1039844E-3,2.5090556E0,8.9943126E-2,6.9525978E-3],"split_indices":[0,0,0,0,0,0,0],"split_type":[0,0,0,0,0,0,0],"sum_hessian":[1.6744333E1,2.1202521E0,1.4624082E1,7.187826E0,7.436255E0,1.4920557E0,5.9441996E0],"tree_param":{"num_deleted":"0","num_feature":"1","num_nodes":"7","size_leaf_vector":"1"}},{"base_weights":[5.5351663E-2,-8.202003E-2,8.869668E-2,1.6509742E-1,-6.81106E-3,3.180174E-3,1.1882492E-1],"categories":[],"categories_nodes":[],"categories_segments":[],"categories_sizes":[],"default_left":[0,0,0,0,0,0,0],"id":122,"left_children":[1,-1,3,5,-1,-1,-1],"loss_changes":[2.5746897E-1,0E0,1.7457101E-1,4.2498428E-1,0E0,0E0,0E0],"parents":[2147483647,0,0,2,2,3,3],"right_children":[2,-1,4,6,-1,-1,-1],"split_conditions":[-2.3170705E-1,-8.202003E-2,1.1500862E0,-2.2458334E-1,-6.81106E-3,3.180174E-3,1.1882492E-1],"split_indices":[0,0,0,0,0,0,0],"split_type":[0,0,0,0,0,0,0],"sum_hessian":[2.0274797E1,1.2041209E0,1.9070677E1,1.10264635E1,8.044214E0,7.233898E0,3.7925653E0],"tree_param":{"num_deleted":"0","num_feature":"1","num_nodes":"7","size_leaf_vector":"1"}},{"base_weights":[3.963117E-2,8.893888E-2,-9.31035E-2,-2.0210922E-3,1.4664678E-1,1.13027945E-1,4.3495004E-3],"categories":[],"categories_nodes":[],"categories_segments":[],"categories_sizes":[],"default_left":[0,0,0,0,0,0,0],"id":123,"left_children":[1,3,-1,-1,5,-1,-1],"loss_changes":[3.6423928E-1,9.9686235E-2,0E0,0E0,3.3495018E-1,0E0,0E0],"parents":[2147483647,0,0,1,1,4,4],"right_children":[2,4,-1,-1,6,-1,-1],"split_conditions":[-2.2458334E-1,-1.5902617E0,-9.31035E-2,-2.0210922E-3,-2.3170705E-1,1.13027945E-1,4.3495004E-3],"split_indices":[0,0,0,0,0,0,0],"split_type":[0,0,0,0,0,0,0],"sum_hessian":[1.8507843E1,1.6876066E1,1.6317765E0,6.681629E0,1.0194437E1,3.0435688E0,7.1508684E0],"tree_param":{"num_deleted":"0","num_feature":"1","num_nodes":"7","size_leaf_vector":"1"}},{"base_weights":[-6.422749E-2,6.495302E-2,-1.05556965E-1,7.549835E-2,5.91928E-4],"categories":[],"categories_nodes":[],"categories_segments":[],"categories_sizes":[],"default_left":[0,0,0,0,0],"id":124,"left_children":[1,3,-1,-1,-1],"loss_changes":[4.0787435E-1,9.3514055E-2,0E0,0E0,0E0],"parents":[2147483647,0,0,1,1],"right_children":[2,4,-1,-1,-1],"split_conditions":[-1.5902617E0,-1.6204855E0,-1.05556965E-1,7.549835E-2,5.91928E-4],"split_indices":[0,0,0,0,0],"split_type":[0,0,0,0,0],"sum_hessian":[9.362244E0,6.994871E0,2.3673725E0,1.0086795E0,5.9861917E0],"tree_param":{"num_deleted":"0","num_feature":"1","num_nodes":"5","size_leaf_vector":"1"}},{"base_weights":[-1.0133287E-1,-1.01014934E-1,3.7439833E-3],"categories":[],"categories_nodes":[],"categories_segments":[],"categories_sizes":[],"default_left":[0,0,0],"id":125,"left_children":[1,-1,-1],"loss_changes":[2.5250596E-1,0E0,0E0],"parents":[2147483647,0,0],"right_children":[2,-1,-1],"split_conditions":[2.5090556E0,-1.01014934E-1,3.7439833E-3],"split_indices":[0,0,0],"split_type":[0,0,0],"sum_hessian":[8.2686405E0,2.056647E0,6.2119937E0],"tree_param":{"num_deleted":"0","num_feature":"1","num_nodes":"3","size_leaf_vector":"1"}},{"base_weights":[-5.1036444E-3,-9.527431E-2,5.063482E-2,-2.2126942E-4,9.565413E-2,8.423685E-2,6.3949986E-3],"categories":[],"categories_nodes":[],"categories_segments":[],"categories_sizes":[],"default_left":[0,0,0,0,0,0,0],"id":126,"left_children":[1,-1,3,-1,5,-1,-1],"loss_changes":[3.1521735E-1,0E0,3.5773873E-2,0E0,1.07351325E-1,0E0,0E0],"parents":[2147483647,0,0,2,2,4,4],"right_children":[2,-1,4,-1,6,-1,-1],"split_conditions":[1.1500862E0,-9.527431E-2,1.1655093E0,-2.2126942E-4,2.5090556E0,8.423685E-2,6.3949986E-3],"split_indices":[0,0,0,0,0,0,0],"split_type":[0,0,0,0,0,0,0],"sum_hessian":[1.6174976E1,1.7373666E0,1.4437611E1,7.202415E0,7.235195E0,1.2771822E0,5.958013E0],"tree_param":{"num_deleted":"0","num_feature":"1","num_nodes":"7","size_leaf_vector":"1"}},{"base_weights":[4.5967154E-2,-7.55329E-2,7.46761E-2,1.4206825E-1,-5.419632E-3,2.8741667E-3,1.1299331E-1],"categories":[],"categories_nodes":[],"categories_segments":[],"categories_sizes":[],"default_left":[0,0,0,0,0,0,0],"id":127,"left_children":[1,-1,3,5,-1,-1,-1],"loss_changes":[1.921852E-1,0E0,1.23012595E-1,3.4676224E-1,0E0,0E0,0E0],"parents":[2147483647,0,0,2,2,3,3],"right_children":[2,-1,4,6,-1,-1,-1],"split_conditions":[-2.3170705E-1,-7.55329E-2,1.1500862E0,-2.2458334E-1,-5.419632E-3,2.8741667E-3,1.1299331E-1],"split_indices":[0,0,0,0,0,0,0],"split_type":[0,0,0,0,0,0,0],"sum_hessian":[1.928376E1,1.0125489E0,1.8271212E1,1.027375E1,7.997461E0,7.230713E0,3.0430372E0],"tree_param":{"num_deleted":"0","num_feature":"1","num_nodes":"7","size_leaf_vector":"1"}},{"base_weights":[3.32809E-2,7.529236E-2,-8.648664E-2,-1.5537334E-3,1.2608422E-1,1.0679974E-1,3.8886839E-3],"categories":[],"categories_nodes":[],"categories_segments":[],"categories_sizes":[],"default_left":[0,0,0,0,0,0,0],"id":128,"left_children":[1,3,-1,-1,5,-1,-1],"loss_changes":[2.7323508E-1,7.1200125E-2,0E0,0E0,2.7161622E-1,0E0,0E0],"parents":[2147483647,0,0,1,1,4,4],"right_children":[2,4,-1,-1,6,-1,-1],"split_conditions":[-2.2458334E-1,-1.5902617E0,-8.648664E-2,-1.5537334E-3,-2.3170705E-1,1.0679974E-1,3.8886839E-3],"split_indices":[0,0,0,0,0,0,0],"split_type":[0,0,0,0,0,0,0],"sum_hessian":[1.7618536E1,1.6260096E1,1.3584394E0,6.639275E0,9.620821E0,2.4646006E0,7.1562204E0],"tree_param":{"num_deleted":"0","num_feature":"1","num_nodes":"7","size_leaf_vector":"1"}},{"base_weights":[-5.3389344E-2,1.702112E-2,-9.912972E-2],"categories":[],"categories_nodes":[],"categories_segments":[],"categories_sizes":[],"default_left":[0,0,0],"id":129,"left_children":[1,-1,-1],"loss_changes":[3.187516E-1,0E0,0E0],"parents":[2147483647,0,0],"right_children":[2,-1,-1],"split_conditions":[-1.5902617E0,1.702112E-2,-9.912972E-2],"split_indices":[0,0,0],"split_type":[0,0,0],"sum_hessian":[8.833047E0,6.8895936E0,1.9434533E0],"tree_param":{"num_deleted":"0","num_feature":"1","num_nodes":"3","size_leaf_vector":"1"}},{"base_weights":[-8.627227E-2,-9.483782E-2,3.6767356E-3],"categories":[],"categories_nodes":[],"categories_segments":[],"categories_sizes":[],"default_left":[0,0,0],"id":130,"left_children":[1,-1,-1],"loss_changes":[2.0601487E-1,0E0,0E0],"parents":[2147483647,0,0],"right_children":[2,-1,-1],"split_conditions":[2.5090556E0,-9.483782E-2,3.6767356E-3],"split_indices":[0,0,0],"split_type":[0,0,0],"sum_hessian":[7.9256907E0,1.715396E0,6.2102947E0],"tree_param":{"num_deleted":"0","num_feature":"1","num_nodes":"3","size_leaf_vector":"1"}},{"base_weights":[-3.8732556E-3,-8.8805474E-2,4.3170877E-2,-1.1491061E-3,8.561938E-2,7.888007E-2,5.923056E-3],"categories":[],"categories_nodes":[],"categories_segments":[],"categories_sizes":[],"default_left":[0,0,0,0,0,0,0],"id":131,"left_children":[1,-1,3,-1,5,-1,-1],"loss_changes":[2.4281295E-1,0E0,3.0830907E-2,0E0,8.914513E-2,0E0,0E0],"parents":[2147483647,0,0,2,2,4,4],"right_children":[2,-1,4,-1,6,-1,-1],"split_conditions":[1.1500862E0,-8.8805474E-2,1.1655093E0,-1.1491061E-3,2.5090556E0,7.888007E-2,5.923056E-3],"split_indices":[0,0,0,0,0,0,0],"split_type":[0,0,0,0,0,0,0],"sum_hessian":[1.5737375E1,1.4486818E0,1.4288693E1,7.2124505E0,7.076243E0,1.1065252E0,5.969718E0],"tree_param":{"num_deleted":"0","num_feature":"1","num_nodes":"7","size_leaf_vector":"1"}},{"base_weights":[3.7975032E-2,-1.1984699E-2,9.668924E-2,1.0686527E-1,-4.4124816E-3],"categories":[],"categories_nodes":[],"categories_segments":[],"categories_sizes":[],"default_left":[0,0,0,0,0],"id":132,"left_children":[1,-1,3,-1,-1],"loss_changes":[9.319712E-2,0E0,3.356238E-1,0E0,0E0],"parents":[2147483647,0,0,2,2],"right_children":[2,-1,4,-1,-1],"split_conditions":[-2.2458334E-1,-1.1984699E-2,1.1500862E0,1.0686527E-1,-4.4124816E-3],"split_indices":[0,0,0,0,0],"split_type":[0,0,0,0,0],"sum_hessian":[1.8525606E1,8.097891E0,1.0427715E1,2.4716573E0,7.956058E0],"tree_param":{"num_deleted":"0","num_feature":"1","num_nodes":"5","size_leaf_vector":"1"}},{"base_weights":[3.0051759E-2,6.6123135E-2,-8.0177926E-2,3.1259758E-4,1.0866724E-1,1.0042457E-1,3.4957745E-3],"categories":[],"categories_nodes":[],"categories_segments":[],"categories_sizes":[],"default_left":[0,0,0,0,0,0,0],"id":133,"left_children":[1,3,-1,-1,5,-1,-1],"loss_changes":[2.1071154E-1,4.655263E-2,0E0,0E0,2.1942309E-1,0E0,0E0],"parents":[2147483647,0,0,1,1,4,4],"right_children":[2,4,-1,-1,6,-1,-1],"split_conditions":[-2.2458334E-1,-1.5902617E0,-8.0177926E-2,3.1259758E-4,-2.3170705E-1,1.0042457E-1,3.4957745E-3],"split_indices":[0,0,0,0,0,0,0],"split_type":[0,0,0,0,0,0,0],"sum_hessian":[1.6999968E1,1.5854066E1,1.1459011E0,6.67207E0,9.181995E0,2.0212393E0,7.1607566E0],"tree_param":{"num_deleted":"0","num_feature":"1","num_nodes":"7",