{"learner":{"attributes":{"scikit_learn":"{\"_estimator_type\": \"classifier\"}"},"feature_names":[],"feature_types":[],"gradient_booster":{"model":{"gbtree_model_param":{"num_parallel_tree":"1","num_trees":"300"},"iteration_indptr":[0,3,6,9,12,15,18,21,24,27,30,33,36,39,42,45,48,51,54,57,60,63,66,69,72,75,78,81,84,87,90,93,96,99,102,105,108,111,114,117,120,123,126,129,132,135,138,141,144,147,150,153,156,159,162,165,168,171,174,177,180,183,186,189,192,195,198,201,204,207,210,213,216,219,222,225,228,231,234,237,240,243,246,249,252,255,258,261,264,267,270,273,276,279,282,285,288,291,294,297,300],"tree_info":[0,1,2,0,1,2,0,1,2,0,1,2,0,1,2,0,1,2,0,1,2,0,1,2,0,1,2,0,1,2,0,1,2,0,1,2,0,1,2,0,1,2,0,1,2,0,1,2,0,1,2,0,1,2,0,1,2,0,1,2,0,1,2,0,1,2,0,1,2,0,1,2,0,1,2,0,1,2,0,1,2,0,1,2,0,1,2,0,1,2,0,1,2,0,1,2,0,1,2,0,1,2,0,1,2,0,1,2,0,1,2,0,1,2,0,1,2,0,1,2,0,1,2,0,1,2,0,1,2,0,1,2,0,1,2,0,1,2,0,1,2,0,1,2,0,1,2,0,1,2,0,1,2,0,1,2,0,1,2,0,1,2,0,1,2,0,1,2,0,1,2,0,1,2,0,1,2,0,1,2,0,1,2,0,1,2,0,1,2,0,1,2,0,1,2,0,1,2,0,1,2,0,1,2,0,1,2,0,1,2,0,1,2,0,1,2,0,1,2,0,1,2,0,1,2,0,1,2,0,1,2,0,1,2,0,1,2,0,1,2,0,1,2,0,1,2,0,1,2,0,1,2,0,1,2,0,1,2,0,1,2,0,1,2,0,1,2,0,1,2,0,1,2,0,1,2,0,1,2,0,1,2,0,1,2,0,1,2,0,1,2,0,1,2,0,1,2,0,1,2],"trees":[{"base_weights":[-1.7334005E-1,-4.7125295E-1,3.2208738E-1,-6.411403E-2,-6.771571E-1,-4.0902185E-1,6.772761E-1,-6.87556E-1,2.4413973E-1,-5.5419856E-1,-7.27428E-1,6.521739E-1,-6.304216E-1,1.1854333E0,-5.2002437E-2,-7.260407E-1,-1.9354843E-1,8.4776664E-1,-3.222507E-1,-6.657591E-1,-2.1980204E-1,-4.1584164E-1,-7.328544E-1,1.220339E0,5.0847415E-2,-7.643317E-2,-6.8502355E-1,1.4012738E0,8.649746E-1,4.523522E-1,-5.416179E-1,-7.663455E-9,-7.34574E-1,2.4545455E-1,-1.956522E-1,6.2337622E-2,1.2565881E0,3.2176653E-1,-5.5491334E-1,-3.301436E-1,-7.163121E-1,5.0442475E-1,-4.1895267E-1,-2.0000003E-1,1.2413793E-1,-6.206898E-2,-7.3474747E-1,1.6216213E-1,4.228188E-1,-5.647059E-1,5.643564E-1,7.8947365E-1,-5.229358E-1,-2.2091618E-1,-4.926687E-1,4.4338885E-1,1.1745635E0,1.3293413E0,3.772819E-1,9.343339E-1,-4.0327874E-1,6.97674E-2,-6.425649E-1,-1.0975611E-1,-2.229525E-1,1.3517787E-1,-1.9148938E-1,4.0732113E-1,2.0930232E-1,-1.5109491E-1,2.7142859E-1,-1.9459464E-1,7.42268E-2,5.806451E-2,-2.0880002E-1,-8.490568E-2,-2.1893881E-1,2.4352941E-1,-9.729732E-2,-1.7647073E-2,-1.8560313E-1,-2.232139E-1,-1.8847062E-1,-1.4400001E-1,2.5714284E-1,-7.663455E-9,-1.972603E-1,2.8356165E-1,-9.729732E-2,3E-1,-7.663455E-9,-2.0322584E-1,7.2E-2,-2.0930246E-2,-2.1583714E-1,4.148699E-1,2.106383E-1,4.2755347E-1,2.2247192E-1,3.2400003E-1,-6.173287E-2,-1.17391326E-1,3.32981E-1,1.1647058E-1,-2.0436685E-1,2.2153845E-1,-1.60274E-1,-1.18781745E-1,-2.163303E-1],"categories":[],"categories_nodes":[],"categories_segments":[],"categories_sizes":[],"default_left":[0,0,0,0,0,0,0,0,0,0,0,0,0,0,0,0,0,0,0,0,0,0,0,0,0,0,0,0,0,0,0,0,0,0,0,0,0,0,0,0,0,0,0,0,0,0,0,0,0,0,0,0,0,0,0,0,0,0,0,0,0,0,0,0,0,0,0,0,0,0,0,0,0,0,0,0,0,0,0,0,0,0,0,0,0,0,0,0,0,0,0,0,0,0,0,0,0,0,0,0,0,0,0,0,0,0,0,0,0],"id":0,"left_children":[1,3,5,7,9,11,13,15,17,19,21,23,25,27,29,31,33,35,37,39,41,43,45,47,49,51,53,55,57,59,61,-1,63,-1,-1,65,67,69,71,73,75,77,79,-1,-1,-1,81,83,-1,85,87,89,91,-1,93,-1,95,97,99,101,103,105,107,-1,-1,-1,-1,-1,-1,-1,-1,-1,-1,-1,-1,-1,-1,-1,-1,-1,-1,-1,-1,-1,-1,-1,-1,-1,-1,-1,-1,-1,-1,-1,-1,-1,-1,-1,-1,-1,-1,-1,-1,-1,-1,-1,-1,-1,-1],"loss_changes":[2.626891E2,9.311211E1,1.7388867E2,7.210661E1,4.157959E0,5.1917053E1,1.6694983E2,2.2190437E0,8.616318E1,7.9986877E0,5.753784E-1,1.3034636E1,5.449585E0,1.7148163E1,4.614837E1,7.1110916E-1,5.328318E0,3.906021E1,1.9707535E1,2.5328064E0,8.304249E0,2.61113E0,3.5610962E-1,3.7058773E0,6.535175E0,7.157384E0,1.2718048E0,9.9365234E-1,2.4284157E1,3.836328E1,5.8942776E0,0E0,8.7875366E-2,0E0,0E0,1.1924255E1,3.5817108E0,1.7405104E1,7.3887424E0,4.583996E0,6.172333E-1,3.4612718E0,3.1683364E0,0E0,0E0,0E0,3.5827637E-2,2.2461777E0,0E0,4.9508452E-1,4.1047506E0,1.0526311E0,1.590009E0,0E0,3.5836935E0,0E0,3.414425E0,2.0788193E0,2.2666088E1,1.4220394E1,7.7199135E0,6.183762E0,1.2919846E0,0E0,0E0,0E0,0E0,0E0,0E0,0E0,0E0,0E0,0E0,0E0,0E0,0E0,0E0,0E0,0E0,0E0,0E0,0E0,0E0,0E0,0E0,0E0,0E0,0E0,0E0,0E0,0E0,0E0,0E0,0E0,0E0,0E0,0E0,0E0,0E0,0E0,0E0,0E0,0E0,0E0,0E0,0E0,0E0,0E0,0E0],"parents":[2147483647,0,0,1,1,2,2,3,3,4,4,5,5,6,6,7,7,8,8,9,9,10,10,11,11,12,12,13,13,14,14,15,15,16,16,17,17,18,18,19,19,20,20,21,21,22,22,23,23,24,24,25,25,26,26,27,27,28,28,29,29,30,30,32,32,35,35,36,36,37,37,38,38,39,39,40,40,41,41,42,42,46,46,47,47,49,49,50,50,51,51,52,52,54,54,56,56,57,57,58,58,59,59,60,60,61,61,62,62],"right_children":[2,4,6,8,10,12,14,16,18,20,22,24,26,28,30,32,34,36,38,40,42,44,46,48,50,52,54,56,58,60,62,-1,64,-1,-1,66,68,70,72,74,76,78,80,-1,-1,-1,82,84,-1,86,88,90,92,-1,94,-1,96,98,100,102,104,106,108,-1,-1,-1,-1,-1,-1,-1,-1,-1,-1,-1,-1,-1,-1,-1,-1,-1,-1,-1,-1,-1,-1,-1,-1,-1,-1,-1,-1,-1,-1,-1,-1,-1,-1,-1,-1,-1,-1,-1,-1,-1,-1,-1,-1,-1,-1],"split_conditions":[4.2807633E-1,-5.6321865E-1,-8.599801E-3,-8.599801E-3,1.2833932E-1,-1.116465E0,3.3580673E-1,2.0561668E-1,1.2199432E0,-1.8368772E-1,-1.6307744E0,-1.1540046E-2,-9.089976E-1,3.4353617E-1,1.2199432E0,-1.7153499E0,-1.3930882E0,-8.6497045E-1,-7.5643575E-1,-1.2768899E0,-1.0473055E0,-1.5588026E-1,-1.7396703E0,6.50536E-1,1.1510702E0,-5.0697905E-1,1.4152411E0,-2.1743965E-1,1.2199432E0,4.7139138E-1,-1.3137177E0,-7.663455E-9,-1.632755E0,2.4545455E-1,-1.956522E-1,5.20032E-1,-7.015302E-1,-7.9545176E-1,9.438685E-2,-3.3510464E-1,-1.634219E0,1.2199432E0,-4.7154093E-1,-2.0000003E-1,1.2413793E-1,-6.206898E-2,2.612316E-1,-1.6666019E-1,4.228188E-1,-1.1162828E0,2.0463777E-1,1.0953788E0,1.470856E0,-2.2091618E-1,-3.6453167E-1,4.4338885E-1,-4.2637467E-1,5.918353E-2,-7.015302E-1,6.227285E-1,8.198973E-1,-4.1885782E-2,6.8158567E-1,-1.0975611E-1,-2.229525E-1,1.3517787E-1,-1.9148938E-1,4.0732113E-1,2.0930232E-1,-1.5109491E-1,2.7142859E-1,-1.9459464E-1,7.42268E-2,5.806451E-2,-2.0880002E-1,-8.490568E-2,-2.1893881E-1,2.4352941E-1,-9.729732E-2,-1.7647073E-2,-1.8560313E-1,-2.232139E-1,-1.8847062E-1,-1.4400001E-1,2.5714284E-1,-7.663455E-9,-1.972603E-1,2.8356165E-1,-9.729732E-2,3E-1,-7.663455E-9,-2.0322584E-1,7.2E-2,-2.0930246E-2,-2.1583714E-1,4.148699E-1,2.106383E-1,4.2755347E-1,2.2247192E-1,3.2400003E-1,-6.173287E-2,-1.17391326E-1,3.32981E-1,1.1647058E-1,-2.0436685E-1,2.2153845E-1,-1.60274E-1,-1.18781745E-1,-2.163303E-1],"split_indices":[11,16,15,15,16,16,16,11,15,11,9,3,16,3,15,3,16,11,3,3,5,11,3,11,11,3,11,16,15,3,3,0,6,0,0,3,16,11,11,10,4,15,3,0,0,0,11,14,0,4,10,10,11,0,3,0,3,16,16,11,16,5,16,0,0,0,0,0,0,0,0,0,0,0,0,0,0,0,0,0,0,0,0,0,0,0,0,0,0,0,0,0,0,0,0,0,0,0,0,0,0,0,0,0,0,0,0,0,0],"split_type":[0,0,0,0,0,0,0,0,0,0,0,0,0,0,0,0,0,0,0,0,0,0,0,0,0,0,0,0,0,0,0,0,0,0,0,0,0,0,0,0,0,0,0,0,0,0,0,0,0,0,0,0,0,0,0,0,0,0,0,0,0,0,0,0,0,0,0,0,0,0,0,0,0,0,0,0,0,0,0,0,0,0,0,0,0,0,0,0,0,0,0,0,0,0,0,0,0,0,0,0,0,0,0,0,0,0,0,0,0],"sum_hessian":[1.7777777E3,1.1102222E3,6.6755554E2,3.733333E2,7.3688885E2,2.1822221E2,4.493333E2,1.2311111E2,2.5022221E2,2.1733331E2,5.1955554E2,3.7333332E1,1.8088889E2,2.6444443E2,1.8488889E2,1.1377777E2,9.333333E0,1.20888885E2,1.2933333E2,1.6222221E2,5.5111107E1,1.0222221E1,5.093333E2,1.8666666E1,1.8666666E1,1.6444443E1,1.6444443E2,1.5599998E2,1.08444435E2,9.111111E1,9.377777E1,1.3333333E0,1.12444435E2,2.6666665E0,6.666666E0,4.1777775E1,7.911111E1,3.422222E1,9.511111E1,2.2222221E1,1.3999998E2,1.1555555E1,4.3555553E1,7.9999995E0,2.222222E0,2.222222E0,5.0711108E2,3.111111E0,1.5555554E1,8.444444E0,1.0222221E1,5.333333E0,1.1111111E1,1.2755555E2,3.6888885E1,1.12444435E2,4.3555553E1,5.4666664E1,5.3777775E1,5.8222218E1,3.2888885E1,1.3333332E1,8.044444E1,3.5555553E0,1.08888885E2,2.7111109E1,1.4666666E1,6.577777E1,1.3333332E1,1.4222221E1,1.9999998E1,8.533333E1,9.777777E0,9.333333E0,1.2888888E1,4.8888884E0,1.351111E2,8.444444E0,3.111111E0,1.5999999E1,2.7555553E1,4.6088885E2,4.622222E1,1.7777777E0,1.3333333E0,1.3333333E0,7.1111107E0,7.1111107E0,3.111111E0,3.9999998E0,1.3333333E0,9.333333E0,1.7777777E0,1.3333332E1,2.3555553E1,2.8888887E1,1.4666666E1,4.5777775E1,8.888888E0,2.3999998E1,2.9777777E1,6.666666E0,5.1555553E1,8.444444E0,2.4444443E1,6.222222E0,7.1111107E0,2.0888887E1,5.9555553E1],"tree_param":{"num_deleted":"0","num_feature":"19","num_nodes":"109","size_leaf_vector":"1"}},{"base_weights":[-5.213318E-1,-2.3787458E-1,-6.924928E-1,-5.350599E-1,3.8477257E-1,-7.3485136E-1,-4.9862418E-1,-1.4902812E-1,-7.3092526E-1,1.2975327E0,-1.10415086E-1,-2.727273E-1,-7.3591167E-1,-4.615389E-2,-7.082998E-1,-6.000001E-1,5.026178E-1,-2.2025178E-1,-7.663455E-9,7.627118E-1,1.4568138E0,-5.6720835E-1,3.9901474E-1,-1.2857145E-1,-7.663455E-9,-2.2108963E-1,-3.658537E-1,5.719844E-1,-5.163205E-1,3.1034475E-2,-7.2235876E-1,-7.261725E-1,-8.6705245E-2,-1.22676626E-1,1.0255591E0,1.116279E0,-1.5789478E-1,1.2857142E-1,4.4204322E-1,-2.211982E-1,-7.1641797E-1,-4.8927045E-1,9.2727274E-1,-1.5517244E-1,-7.663455E-9,-3.8461542E-1,1.2885906E0,-6.9836074E-1,2.8536585E-1,-2.188382E-1,-3.600001E-2,-2.2180097E-1,-9.729732E-2,2.2153845E-1,-1.6153848E-1,1.556391E-1,-2.1103452E-1,3.9694324E-1,5.806451E-2,-3.600001E-2,3.902655E-1,-1.7560977E-1,1.7999999E-1,-2.0571432E-1,5.9504125E-2,-2.2056897E-1,-7.663455E-9,-1.7560977E-1,4.864864E-2,1.2928176E-1,3.9295778E-1,1.2413793E-1,-1.7628868E-1,1.9459459E-1,4.1652894E-1,-2.1789476E-1,-6.206898E-2],"categories":[],"categories_nodes":[],"categories_segments":[],"categories_sizes":[],"default_left":[0,0,0,0,0,0,0,0,0,0,0,0,0,0,0,0,0,0,0,0,0,0,0,0,0,0,0,0,0,0,0,0,0,0,0,0,0,0,0,0,0,0,0,0,0,0,0,0,0,0,0,0,0,0,0,0,0,0,0,0,0,0,0,0,0,0,0,0,0,0,0,0,0,0,0,0,0],"id":1,"left_children":[1,3,5,7,9,11,13,15,17,19,21,23,25,27,29,31,33,-1,-1,35,37,39,41,-1,-1,-1,43,45,47,-1,49,51,53,55,57,59,61,-1,-1,63,65,67,69,-1,-1,71,73,75,-1,-1,-1,-1,-1,-1,-1,-1,-1,-1,-1,-1,-1,-1,-1,-1,-1,-1,-1,-1,-1,-1,-1,-1,-1,-1,-1,-1,-1],"loss_changes":[8.6135925E1,1.2440991E2,8.737061E0,3.4276917E1,9.842544E1,2.4407959E-1,1.9120903E1,4.5656124E1,7.1551514E-1,5.4104004E0,3.324445E1,1.5584415E-1,8.328247E-2,1.9186146E1,1.6483688E0,5.873707E0,2.094432E1,0E0,0E0,6.5776825E0,3.6039734E-1,3.7251072E0,3.2205845E1,0E0,0E0,0E0,2.5231284E-1,2.0070595E1,1.0667624E1,0E0,4.9282074E-1,1.4873505E-1,7.5631833E0,1.1500043E1,8.3546715E0,3.4273224E0,2.403081E0,0E0,0E0,4.834917E0,7.0230865E-1,1.7155609E0,7.5586205E0,0E0,0E0,2.3502967E0,1.5715218E-1,3.153267E-1,0E0,0E0,0E0,0E0,0E0,0E0,0E0,0E0,0E0,0E0,0E0,0E0,0E0,0E0,0E0,0E0,0E0,0E0,0E0,0E0,0E0,0E0,0E0,0E0,0E0,0E0,0E0,0E0,0E0],"parents":[2147483647,0,0,1,1,2,2,3,3,4,4,5,5,6,6,7,7,8,8,9,9,10,10,11,11,12,12,13,13,14,14,15,15,16,16,19,19,20,20,21,21,22,22,26,26,27,27,28,28,30,30,31,31,32,32,33,33,34,34,35,35,36,36,39,39,40,40,41,41,42,42,45,45,46,46,47,47],"right_children":[2,4,6,8,10,12,14,16,18,20,22,24,26,28,30,32,34,-1,-1,36,38,40,42,-1,-1,-1,44,46,48,-1,50,52,54,56,58,60,62,-1,-1,64,66,68,70,-1,-1,72,74,76,-1,-1,-1,-1,-1,-1,-1,-1,-1,-1,-1,-1,-1,-1,-1,-1,-1,-1,-1,-1,-1,-1,-1,-1,-1,-1,-1,-1,-1],"split_conditions":[-4.3395483E-1,6.8158567E-1,1.0965204E0,-8.599801E-3,-8.599801E-3,-1.7060891E0,-8.599801E-3,-2.8659546E-1,1.6874058E0,-9.558621E-1,1.2199432E0,9.798039E-1,2.5029695E0,5.949211E-1,-3.7833992E-1,9.5571256E-1,-2.7419916E-1,-2.2025178E-1,-7.663455E-9,-6.564145E-1,-1.915186E0,-1.3237934E0,-2.5404808E-1,-1.2857145E-1,-7.663455E-9,-2.2108963E-1,9.798039E-1,-4.3503854E-2,1.4733872E0,3.1034475E-2,1.7620242E0,1.5895829E0,-1.295986E0,-1.1986599E0,-8.093555E-1,-1.6548676E0,5.4042065E-1,1.2857142E-1,4.4204322E-1,1.234832E0,1.6874058E0,1.1071364E0,4.3039435E-1,-1.5517244E-1,-7.663455E-9,-9.468749E-1,-9.800826E-1,1.4570824E0,2.8536585E-1,-2.188382E-1,-3.600001E-2,-2.2180097E-1,-9.729732E-2,2.2153845E-1,-1.6153848E-1,1.556391E-1,-2.1103452E-1,3.9694324E-1,5.806451E-2,-3.600001E-2,3.902655E-1,-1.7560977E-1,1.7999999E-1,-2.0571432E-1,5.9504125E-2,-2.2056897E-1,-7.663455E-9,-1.7560977E-1,4.864864E-2,1.2928176E-1,3.9295778E-1,1.2413793E-1,-1.7628868E-1,1.9459459E-1,4.1652894E-1,-2.1789476E-1,-6.206898E-2],"split_indices":[11,16,16,15,15,5,15,16,3,3,15,0,10,11,11,3,3,0,0,11,10,11,3,0,0,0,0,3,3,0,5,5,11,11,11,4,10,0,0,16,3,10,3,0,0,7,5,8,0,0,0,0,0,0,0,0,0,0,0,0,0,0,0,0,0,0,0,0,0,0,0,0,0,0,0,0,0],"split_type":[0,0,0,0,0,0,0,0,0,0,0,0,0,0,0,0,0,0,0,0,0,0,0,0,0,0,0,0,0,0,0,0,0,0,0,0,0,0,0,0,0,0,0,0,0,0,0,0,0,0,0,0,0,0,0,0,0,0,0,0,0,0,0,0,0,0,0,0,0,0,0,0,0,0,0,0,0],"sum_hessian":[1.7777777E3,6.7022217E2,1.1075555E3,4.5377774E2,2.1644443E2,9.066666E2,2.0088887E2,1.5333333E2,3.0044443E2,7.555555E1,1.4088889E2,2.6666665E0,9.0399994E2,6.3999996E1,1.3688889E2,9.0666664E1,6.2666664E1,2.9911108E2,1.3333333E0,1.8666666E1,5.6888885E1,7.422222E1,6.6666664E1,1.3333333E0,1.3333333E0,9.004444E2,3.5555553E0,2.7555553E1,3.6444443E1,2.222222E0,1.3466666E2,7.244444E1,1.8222221E1,2.8888887E1,3.3777775E1,1.3333332E1,5.333333E0,1.3333333E0,5.5555553E1,2.311111E1,5.1111107E1,2.4888887E1,4.1777775E1,2.222222E0,1.3333333E0,1.1999999E1,1.5555554E1,3.2888885E1,3.5555553E0,1.3288889E2,1.7777777E0,6.933333E1,3.111111E0,6.222222E0,1.1999999E1,1.3777777E1,1.5111111E1,2.4444443E1,9.333333E0,1.7777777E0,1.1555555E1,3.5555553E0,1.7777777E0,1.0666666E1,1.2444444E1,4.9777775E1,1.3333333E0,2.1777777E1,3.111111E0,1.911111E1,2.2666666E1,2.222222E0,9.777777E0,3.111111E0,1.2444444E1,3.0666664E1,2.222222E0],"tree_param":{"num_deleted":"0","num_feature":"19","num_nodes":"77","size_leaf_vector":"1"}},{"base_weights":[6.9467175E-1,8.292179E-1,2.7628547E-1,7.250587E-1,1.0364854E0,1.0212766E0,-8.154025E-2,2.712477E-1,7.574552E-1,7.068803E-1,1.150823E0,9.792281E-2,1.3421892E0,-5.386582E-1,5.736505E-1,1.1433963E0,-5.1515156E-1,7.99662E-1,4.8803824E-1,1.0898876E0,-4.5724913E-1,1.3008091E0,7.8305084E-1,-5.403727E-1,6.486486E-1,1.3797909E0,8.426966E-1,-7.027625E-1,-3.094171E-1,-1.0772037E-2,1.1614679E0,4.2857146E-1,3.8823527E-1,3.9622638E-1,-6.877471E-1,9.24563E-1,6.723979E-1,-2.717191E-1,1.2807018E0,4.2081445E-1,1.3242785E0,-6.787331E-1,4.736842E-1,1.3559798E0,9.665653E-1,-9.230813E-3,1.2231985E0,-2.0707966E-1,-1.5789478E-1,8.571424E-2,1.247191E0,6.486486E-1,1.3973589E0,3.8769233E-1,-2.727273E-1,-3.600001E-2,-2.1361083E-1,-7.0588243E-1,1.4018688E-1,-4.72441E-1,9.4054055E-1,3.4020615E-1,1.3129103E0,-4.7368433E-2,3.4054056E-1,-1.2857145E-1,2.195122E-1,-2.1659754E-1,-7.663455E-9,1.4244144E-1,3.781838E-1,-3.300299E-2,3.0584848E-1,-2.0396604E-1,1.4162436E-1,1.01123594E-1,4.3441108E-1,3.4247786E-1,-9.230771E-2,4.3522978E-1,2.4893616E-1,-2.149254E-1,-6.206898E-2,-1.4400001E-1,2.8536585E-1,2.7142859E-1,4.204872E-1,-1.03278704E-1,3.67148E-1,2.8800002E-1,-1.7655505E-1,4.3333334E-1,1.9248556E-1,8.181818E-2,-1.6363637E-1,-1.8E-1,1.5652174E-1,3.974026E-1,1.2857142E-1,2.8800002E-1,-7.663455E-9,1.2857142E-1,4.2204627E-1,-1.2857145E-1,-7.663455E-9,-2.1913046E-1,-7.663455E-9,-2.0826449E-1,1.8516746E-1,-2.009709E-1,1E-1,-1.475411E-2,3.9924815E-1,-1.3584907E-1,3.226415E-1,1.5365854E-1,4.0870592E-1],"categories":[],"categories_nodes":[],"categories_segments":[],"categories_sizes":[],"default_left":[0,0,0,0,0,0,0,0,0,0,0,0,0,0,0,0,0,0,0,0,0,0,0,0,0,0,0,0,0,0,0,0,0,0,0,0,0,0,0,0,0,0,0,0,0,0,0,0,0,0,0,0,0,0,0,0,0,0,0,0,0,0,0,0,0,0,0,0,0,0,0,0,0,0,0,0,0,0,0,0,0,0,0,0,0,0,0,0,0,0,0,0,0,0,0,0,0,0,0,0,0,0,0,0,0,0,0,0,0,0,0,0,0,0,0,0,0],"id":2,"left_children":[1,3,5,7,9,11,13,15,17,19,21,23,25,27,29,31,33,35,37,39,41,43,45,47,49,51,53,55,57,59,61,-1,63,65,67,69,71,73,75,77,79,81,83,85,87,89,91,-1,93,95,97,99,101,-1,103,-1,-1,105,107,109,111,113,115,-1,-1,-1,-1,-1,-1,-1,-1,-1,-1,-1,-1,-1,-1,-1,-1,-1,-1,-1,-1,-1,-1,-1,-1,-1,-1,-1,-1,-1,-1,-1,-1,-1,-1,-1,-1,-1,-1,-1,-1,-1,-1,-1,-1,-1,-1,-1,-1,-1,-1,-1,-1,-1,-1],"loss_changes":[9.990234E1,2.8295044E1,1.1586653E2,1.300827E1,1.6057343E1,4.164911E1,8.846166E1,4.273112E1,9.142578E0,5.3061485E1,1.7227356E1,1.3513201E1,8.009949E-1,6.3241615E0,4.173277E1,5.786331E0,5.463396E0,1.0874268E1,7.027381E1,1.3400101E1,6.484199E0,2.9942017E0,3.4302193E1,9.165926E-1,6.819089E0,3.2243347E-1,5.3117933E0,4.5798492E-1,1.3349049E1,2.7625422E1,7.0848618E0,0E0,4.0316625E0,1.9430676E0,6.6206264E-1,5.4164886E1,9.839081E1,1.8570404E1,8.512276E0,1.3245184E1,2.8895264E0,2.8840065E-1,3.340898E0,2.807434E0,1.2748779E1,2.0839987E1,7.208153E0,0E0,1.2057416E0,3.8012424E0,5.9535027E-2,8.302702E-1,2.4551392E-1,0E0,1.5584415E-1,0E0,0E0,6.874676E-1,1.4625294E1,6.958947E0,8.005543E0,6.771446E0,1.3124771E0,0E0,0E0,0E0,0E0,0E0,0E0,0E0,0E0,0E0,0E0,0E0,0E0,0E0,0E0,0E0,0E0,0E0,0E0,0E0,0E0,0E0,0E0,0E0,0E0,0E0,0E0,0E0,0E0,0E0,0E0,0E0,0E0,0E0,0E0,0E0,0E0,0E0,0E0,0E0,0E0,0E0,0E0,0E0,0E0,0E0,0E0,0E0,0E0,0E0,0E0,0E0,0E0,0E0,0E0],"parents":[2147483647,0,0,1,1,2,2,3,3,4,4,5,5,6,6,7,7,8,8,9,9,10,10,11,11,12,12,13,13,14,14,15,15,16,16,17,17,18,18,19,19,20,20,21,21,22,22,23,23,24,24,25,25,26,26,27,27,28,28,29,29,30,30,32,32,33,33,34,34,35,35,36,36,37,37,38,38,39,39,40,40,41,41,42,42,43,43,44,44,45,45,46,46,48,48,49,49,50,50,51,51,52,52,54,54,57,57,58,58,59,59,60,60,61,61,62,62],"right_children":[2,4,6,8,10,12,14,16,18,20,22,24,26,28,30,32,34,36,38,40,42,44,46,48,50,52,54,56,58,60,62,-1,64,66,68,70,72,74,76,78,80,82,84,86,88,90,92,-1,94,96,98,100,102,-1,104,-1,-1,106,108,110,112,114,116,-1,-1,-1,-1,-1,-1,-1,-1,-1,-1,-1,-1,-1,-1,-1,-1,-1,-1,-1,-1,-1,-1,-1,-1,-1,-1,-1,-1,-1,-1,-1,-1,-1,-1,-1,-1,-1,-1,-1,-1,-1,-1,-1,-1,-1,-1,-1,-1,-1,-1,-1,-1,-1,-1],"split_conditions":[9.008031E-1,1.2199432E0,-8.599801E-3,-1.462244E0,-8.3984184E-1,-9.089976E-1,3.3580673E-1,-8.599801E-3,1.3039879E0,1.7780922E-1,1.0273647E0,-1.2341338E-1,1.4733872E0,3.4353617E-1,1.2199432E0,8.048312E-2,-1.0179114E0,-8.599801E-3,-8.599801E-3,-7.5643575E-1,1.0126915E0,4.6978754E-1,-6.9812566E-1,1.0710903E0,2.0463777E-1,-1.6423206E0,1.0273647E0,-1.6152794E0,1.2199432E0,4.7139138E-1,-1.3137177E0,4.2857146E-1,-5.0697905E-1,-1.567669E-1,1.4831154E0,-6.147033E-1,-5.6321865E-1,-1.9759145E-1,-1.3794084E0,-7.9545176E-1,-3.6443618E-1,1.4043279E0,-5.0199324E-1,-1.5184457E0,-1.3477662E0,-2.6099673E-1,6.1731315E-1,-2.0707966E-1,1.3040112E0,-6.4365894E-1,1.4430485E0,9.798039E-1,-1.6788185E0,3.8769233E-1,9.798039E-1,-3.600001E-2,-2.1361083E-1,1.6167911E0,-7.7068603E-1,1.3731437E0,8.198973E-1,-4.1885782E-2,4.049625E-1,-4.7368433E-2,3.4054056E-1,-1.2857145E-1,2.195122E-1,-2.1659754E-1,-7.663455E-9,1.4244144E-1,3.781838E-1,-3.300299E-2,3.0584848E-1,-2.0396604E-1,1.4162436E-1,1.01123594E-1,4.3441108E-1,3.4247786E-1,-9.230771E-2,4.3522978E-1,2.4893616E-1,-2.149254E-1,-6.206898E-2,-1.4400001E-1,2.8536585E-1,2.7142859E-1,4.204872E-1,-1.03278704E-1,3.67148E-1,2.8800002E-1,-1.7655505E-1,4.3333334E-1,1.9248556E-1,8.181818E-2,-1.6363637E-1,-1.8E-1,1.5652174E-1,3.974026E-1,1.2857142E-1,2.8800002E-1,-7.663455E-9,1.2857142E-1,4.2204627E-1,-1.2857145E-1,-7.663455E-9,-2.1913046E-1,-7.663455E-9,-2.0826449E-1,1.8516746E-1,-2.009709E-1,1E-1,-1.475411E-2,3.9924815E-1,-1.3584907E-1,3.226415E-1,1.5365854E-1,4.0870592E-1],"split_indices":[11,15,15,16,16,16,16,15,16,11,16,3,3,3,15,11,11,15,15,3,3,11,11,5,10,7,16,7,15,3,3,0,3,3,3,11,16,11,11,11,11,7,10,11,3,3,3,0,11,4,11,0,8,0,0,0,0,4,16,16,16,5,16,0,0,0,0,0,0,0,0,0,0,0,0,0,0,0,0,0,0,0,0,0,0,0,0,0,0,0,0,0,0,0,0,0,0,0,0,0,0,0,0,0,0,0,0,0,0,0,0,0,0,0,0,0,0],"split_type":[0,0,0,0,0,0,0,0,0,0,0,0,0,0,0,0,0,0,0,0,0,0,0,0,0,0,0,0,0,0,0,0,0,0,0,0,0,0,0,0,0,0,0,0,0,0,0,0,0,0,0,0,0,0,0,0,0,0,0,0,0,0,0,0,0,0,0,0,0,0,0,0,0,0,0,0,0,0,0,0,0,0,0,0,0,0,0,0,0,0,0,0,0,0,0,0,0,0,0,0,0,0,0,0,0,0,0,0,0,0,0,0,0,0,0,0,0],"sum_hessian":[1.7777777E3,1.3444443E3,4.333333E2,8.977777E2,4.4666663E2,1.3999998E2,2.933333E2,6.0444443E1,8.373333E2,1.16888885E2,3.2977777E2,3.6444443E1,1.0355555E2,1.7288889E2,1.20444435E2,2.8444443E1,3.1999998E1,7.2222217E2,1.1511111E2,8.799999E1,2.8888887E1,2.3244443E2,9.733333E1,1.6888887E1,1.9555553E1,9.4666664E1,8.888888E0,9.955555E1,7.333333E1,6.0888885E1,5.9555553E1,1.9999998E1,8.444444E0,4.8888884E0,2.7111109E1,3.613333E2,3.6088885E2,5.9111107E1,5.5999996E1,2.3555553E1,6.444444E1,2.3555553E1,5.333333E0,1.9688887E2,3.5555553E1,3.511111E1,6.2222218E1,1.1555555E1,5.333333E0,1.0666666E1,8.888888E0,3.111111E0,9.155555E1,6.222222E0,2.6666665E0,1.7777777E0,9.777777E1,3.8666664E1,3.4666664E1,4.1333332E1,1.9555553E1,9.777777E0,4.9777775E1,5.333333E0,3.111111E0,1.3333333E0,3.5555553E0,2.5777777E1,1.3333333E0,1.5555554E2,2.0577777E2,1.1111111E2,2.4977776E2,3.822222E1,2.0888887E1,8.888888E0,4.7111107E1,1.1555555E1,1.1999999E1,4.9777775E1,1.4666666E1,2.1333332E1,2.222222E0,1.7777777E0,3.5555553E0,1.9999998E1,1.7688889E2,5.7777777E0,2.9777777E1,1.2888888E1,2.2222221E1,4.3999996E1,1.8222221E1,2.6666665E0,2.6666665E0,3.9999998E0,6.666666E0,7.5555553E0,1.3333333E0,1.7777777E0,1.3333333E0,1.3333333E0,9.022221E1,1.3333333E0,1.3333333E0,3.7333332E1,1.3333333E0,1.2444444E1,2.2222221E1,3.3333332E1,7.9999995E0,5.7777777E0,1.3777777E1,4.8888884E0,4.8888884E0,3.5555553E0,4.622222E1],"tree_param":{"num_deleted":"0","num_feature":"19","num_nodes":"117","size_leaf_vector":"1"}},{"base_weights":[-1.4145865E-1,-4.0459484E-1,2.5498322E-1,-6.0309954E-2,-5.9754646E-1,-3.4388438E-1,5.0890917E-1,-6.2294567E-1,1.8847574E-1,-6.479448E-1,-4.690075E-1,3.406943E-1,-6.0563534E-1,7.6696104E-1,-1.9967179E-1,-6.6236776E-1,-1.4452782E-1,5.925346E-1,-2.5831908E-1,-5.3252405E-1,-6.6391265E-1,-1.6668153E-1,-6.1706454E-1,7.3026645E-1,-9.8443255E-2,-6.613466E-1,-4.0467045E-1,9.3894976E-1,4.5706972E-1,1.3651645E-1,-5.778961E-1,-1.5189209E-4,-6.7107254E-1,2.0078188E-1,-1.7475842E-1,8.728404E-2,9.5186615E-1,-5.270852E-1,1.838105E-1,-2.6919606E-1,-1.986603E-1,-3.4797576E-1,-1.9985804E-1,-1.9986217E-1,6.965531E-2,-3.0652285E-1,-1.9866492E-1,-1.0843957E-1,8.9725953E-1,-5.547792E-1,2.7549198E-1,-3.8946798E-1,-2.0108433E-1,6.358948E-2,-6.155974E-1,9.951353E-1,6.8043184E-1,9.161969E-1,-3.470561E-2,4.996583E-1,-5.708105E-1,-1.5474851E-1,-6.4384276E-1,-9.1576084E-2,-2.0406616E-1,1.2851174E-1,-1.5020332E-1,2.9553363E-1,2.5905306E-2,-1.719098E-2,-1.9164665E-1,1.9640832E-1,-1.3154861E-1,-1.9684327E-1,5.1680397E-2,2.9647877E-2,-1.5297398E-1,1.9166254E-1,-1.688407E-1,1.20797455E-1,-1.4869294E-1,-1.595451E-1,1.1856994E-1,3.0290103E-1,1.595549E-1,2.2530878E-2,-1.8848802E-1,2.4377133E-1,-8.8140495E-2,3.2349676E-2,-1.5920603E-1,2.1494004E-1,-1.706106E-1,7.2915033E-3,-1.9616677E-1,3.0259857E-1,1.903556E-1,2.8757027E-1,1.1397539E-1,3.1613007E-1,3.2163363E-2,1.9615294E-1,-1.3699406E-1,-1.8363152E-1,2.0406225E-1,-1.95696E-1,1.4543045E-1,-1.8143976E-1,1.03316136E-1,-9.9113904E-2,-1.987168E-1],"categories":[],"categories_nodes":[],"categories_segments":[],"categories_sizes":[],"default_left":[0,0,0,0,0,0,0,0,0,0,0,0,0,0,0,0,0,0,0,0,0,0,0,0,0,0,0,0,0,0,0,0,0,0,0,0,0,0,0,0,0,0,0,0,0,0,0,0,0,0,0,0,0,0,0,0,0,0,0,0,0,0,0,0,0,0,0,0,0,0,0,0,0,0,0,0,0,0,0,0,0,0,0,0,0,0,0,0,0,0,0,0,0,0,0,0,0,0,0,0,0,0,0,0,0,0,0,0,0,0,0],"id":3,"left_children":[1,3,5,7,9,11,13,15,17,19,21,23,25,27,29,31,33,35,37,39,41,43,45,47,49,51,53,55,57,59,61,-1,63,-1,-1,65,67,69,71,73,-1,75,-1,-1,77,79,-1,81,83,85,87,89,-1,91,93,95,97,99,101,103,105,107,109,-1,-1,-1,-1,-1,-1,-1,-1,-1,-1,-1,-1,-1,-1,-1,-1,-1,-1,-1,-1,-1,-1,-1,-1,-1,-1,-1,-1,-1,-1,-1,-1,-1,-1,-1,-1,-1,-1,-1,-1,-1,-1,-1,-1,-1,-1,-1,-1],"loss_changes":[1.7430356E2,6.666553E1,1.01575714E2,5.0751446E1,3.8638153E0,3.589097E1,8.5849106E1,2.0004272E0,4.557344E1,4.9336243E-1,8.170074E0,9.604694E0,1.3493309E0,1.7892365E1,1.6088722E1,5.8963394E-1,3.8616765E0,2.395779E1,1.4377135E1,1.9013252E0,5.6137085E-2,7.3809886E0,1.5314064E0,4.2495356E0,4.773116E0,9.780884E-3,3.3897038E0,2.5200806E0,2.8173914E1,1.7614874E1,1.5590782E0,0E0,1.3059998E-1,0E0,0E0,1.1472323E1,2.1387177E0,3.90024E0,1.3818026E1,3.833521E0,0E0,4.0910518E-1,0E0,0E0,1.5868533E1,2.5552113E0,0E0,1.4501789E0,4.8299026E-1,6.272211E-1,4.993195E0,4.7398782E-1,0E0,5.130619E0,5.912657E-1,2.3146057E-1,3.1848583E0,7.064934E0,1.8062492E1,9.471842E0,2.325604E0,2.3043852E0,7.8294754E-2,0E0,0E0,0E0,0E0,0E0,0E0,0E0,0E0,0E0,0E0,0E0,0E0,0E0,0E0,0E0,0E0,0E0,0E0,0E0,0E0,0E0,0E0,0E0,0E0,0E0,0E0,0E0,0E0,0E0,0E0,0E0,0E0,0E0,0E0,0E0,0E0,0E0,0E0,0E0,0E0,0E0,0E0,0E0,0E0,0E0,0E0,0E0,0E0],"parents":[2147483647,0,0,1,1,2,2,3,3,4,4,5,5,6,6,7,7,8,8,9,9,10,10,11,11,12,12,13,13,14,14,15,15,16,16,17,17,18,18,19,19,20,20,21,21,22,22,23,23,24,24,25,25,26,26,27,27,28,28,29,29,30,30,32,32,35,35,36,36,37,37,38,38,39,39,41,41,44,44,45,45,47,47,48,48,49,49,50,50,51,51,53,53,54,54,55,55,56,56,57,57,58,58,59,59,60,60,61,61,62,62],"right_children":[2,4,6,8,10,12,14,16,18,20,22,24,26,28,30,32,34,36,38,40,42,44,46,48,50,52,54,56,58,60,62,-1,64,-1,-1,66,68,70,72,74,-1,76,-1,-1,78,80,-1,82,84,86,88,90,-1,92,94,96,98,100,102,104,106,108,110,-1,-1,-1,-1,-1,-1,-1,-1,-1,-1,-1,-1,-1,-1,-1,-1,-1,-1,-1,-1,-1,-1,-1,-1,-1,-1,-1,-1,-1,-1,-1,-1,-1,-1,-1,-1,-1,-1,-1,-1,-1,-1,-1,-1,-1,-1,-1,-1],"split_conditions":[4.2807633E-1,-5.6321865E-1,-8.599801E-3,-8.599801E-3,-1.8368772E-1,-9.089976E-1,7.507415E-1,2.0561668E-1,1.2199432E0,-1.2768899E0,2.6665092E-1,-1.2341338E-1,1.4152411E0,-1.4828385E-1,1.2199432E0,-1.7153499E0,-1.3930882E0,-6.7031825E-1,-4.061474E-1,1.2833932E-1,-2.073706E0,-8.599801E-3,-1.2449261E0,6.50536E-1,1.1510702E0,-1.5799876E0,-7.9128064E-2,1.0293683E0,1.2199432E0,4.6027353E-1,-1.4193373E0,-1.5189209E-4,-1.632755E0,2.0078188E-1,-1.7475842E-1,3.247748E-1,1.6165296E0,-1.0385511E0,2.3166284E-1,-7.537406E-1,-1.986603E-1,2.6665092E-1,-1.9985804E-1,-1.9986217E-1,1.2199432E0,-1.018013E0,-1.9866492E-1,-1.6666019E-1,-1.116465E0,-1.5929219E0,1.1288347E-1,-1.2768899E0,-2.0108433E-1,-3.6453167E-1,-1.5423285E0,-2.1743965E-1,1.2199432E0,1.2572842E0,-4.2637467E-1,7.061509E-1,1.623797E0,1.2344927E0,8.198973E-1,-9.1576084E-2,-2.0406616E-1,1.2851174E-1,-1.5020332E-1,2.9553363E-1,2.5905306E-2,-1.719098E-2,-1.9164665E-1,1.9640832E-1,-1.3154861E-1,-1.9684327E-1,5.1680397E-2,2.9647877E-2,-1.5297398E-1,1.9166254E-1,-1.688407E-1,1.20797455E-1,-1.4869294E-1,-1.595451E-1,1.1856994E-1,3.0290103E-1,1.595549E-1,2.2530878E-2,-1.8848802E-1,2.4377133E-1,-8.8140495E-2,3.2349676E-2,-1.5920603E-1,2.1494004E-1,-1.706106E-1,7.2915033E-3,-1.9616677E-1,3.0259857E-1,1.903556E-1,2.8757027E-1,1.1397539E-1,3.1613007E-1,3.2163363E-2,1.9615294E-1,-1.3699406E-1,-1.8363152E-1,2.0406225E-1,-1.95696E-1,1.4543045E-1,-1.8143976E-1,1.03316136E-1,-9.9113904E-2,-1.987168E-1],"split_indices":[11,16,15,15,11,16,16,11,15,3,16,3,11,16,15,3,16,11,11,16,10,15,3,11,11,6,16,3,15,3,3,0,6,0,0,3,3,3,3,11,0,16,0,0,15,10,0,14,16,4,4,3,0,3,3,16,15,3,3,11,11,11,16,0,0,0,0,0,0,0,0,0,0,0,0,0,0,0,0,0,0,0,0,0,0,0,0,0,0,0,0,0,0,0,0,0,0,0,0,0,0,0,0,0,0,0,0,0,0,0,0],"split_type":[0,0,0,0,0,0,0,0,0,0,0,0,0,0,0,0,0,0,0,0,0,0,0,0,0,0,0,0,0,0,0,0,0,0,0,0,0,0,0,0,0,0,0,0,0,0,0,0,0,0,0,0,0,0,0,0,0,0,0,0,0,0,0,0,0,0,0,0,0,0,0,0,0,0,0,0,0,0,0,0,0,0,0,0,0,0,0,0,0,0,0,0,0,0,0,0,0,0,0,0,0,0,0,0,0,0,0,0,0,0,0],"sum_hessian":[1.6688944E3,1.0030828E3,6.658115E2,3.6073444E2,6.423484E2,1.9814508E2,4.6766644E2,1.1014179E2,2.5059265E2,4.58526E2,1.838224E2,5.4722706E1,1.4342238E2,3.4275803E2,1.2490842E2,1.014017E2,8.740091E0,1.314183E2,1.1917434E2,5.9900005E1,3.98626E2,6.1127846E1,1.2269455E2,2.864654E1,2.6076166E1,1.1049908E2,3.2923298E1,2.1911815E2,1.2363988E2,6.646735E1,5.8441067E1,1.3300589E0,1.0007165E2,2.8733716E0,5.8667197E0,5.5135723E1,7.628259E1,7.399896E1,4.5175377E1,2.07797E1,3.9120308E1,3.9577394E0,3.9466824E2,1.9048248E1,4.2079597E1,1.6563581E1,1.0613097E2,4.8148856E0,2.3831656E1,1.15262985E1,1.4549868E1,4.9344144E0,1.0556467E2,1.0441527E1,2.2481771E1,1.7765729E2,4.1460865E1,6.349612E1,6.0143753E1,4.4113213E1,2.2354136E1,8.331085E0,5.010998E1,3.2799022E0,9.679174E1,3.506515E1,2.007057E1,7.3327774E1,2.9548202E0,1.4509344E1,5.9489616E1,2.568677E1,1.9488607E1,1.0814435E1,9.965264E0,1.156517E0,2.8012223E0,2.214167E1,1.993793E1,3.2494342E0,1.3314147E1,2.5856016E0,2.2292838E0,1.6876764E1,6.95489E0,1.2023923E0,1.0323906E1,7.2668724E0,7.282995E0,1.1436125E0,3.7908018E0,5.07164E0,5.369888E0,1.2899749E0,2.1191797E1,1.6950227E2,8.155013E0,2.0394918E1,2.1065945E1,5.4009155E1,9.486964E0,2.2643366E1,3.750039E1,5.829123E0,3.828409E1,2.1106375E1,1.2477611E0,4.2696342E0,4.0614514E0,3.8501759E0,4.6259808E1],"tree_param":{"num_deleted":"0","num_feature":"19","num_nodes":"111","size_leaf_vector":"1"}},{"base_weights":[-4.482331E-1,-5.5729973E-1,-6.9116846E-2,-3.2300937E-1,-6.4353687E-1,4.1248882E-1,-4.674034E-1,1.4877637E-1,-6.0780704E-1,-5.811789E-1,-2.0105214E-1,1.0044754E0,3.551603E-2,-1.08604245E-1,-6.4713275E-1,-5.0974643E-1,6.9196993E-1,-6.4475083E-1,-1.15901954E-1,-4.036559E-1,-6.636016E-1,7.568273E-2,1.0300705E0,-3.859895E-1,4.5851892E-1,3.6160585E-1,-4.709301E-1,-6.54141E-1,9.531138E-3,-6.632512E-1,1.465905E-1,1.0687576E-1,1.0595331E0,-2.0362109E-1,-4.698093E-1,-1.807089E-1,3.5524908E-1,-6.452611E-1,1.0752686E-1,-2.0049185E-1,-3.574954E-1,1.2066937E-1,3.1323558E-1,-5.5103993E-1,1.4958073E-2,-1.7520097E-1,9.9216443E-1,-5.536381E-1,8.5163885E-1,-6.308992E-1,6.3722444E-1,-1.9843943E-1,-3.310632E-1,-2.0501077E-1,-4.6185695E-2,-1.4400145E-1,2.214275E-1,2.008421E-1,-6.912625E-2,8.536329E-2,3.240939E-1,-1.8483807E-1,-4.053948E-2,2.1910174E-1,-1.5437102E-1,-1.9818585E-1,1.8681373E-2,-1.5178728E-1,3.0153912E-1,1.1376128E-2,-1.4994115E-1,-6.0300473E-2,-1.9216998E-1,-1.4690815E-1,1.500762E-1,1.18779175E-1,-1.6936727E-1,3.0652803E-1,8.39146E-2,7.341288E-3,-1.8970588E-1,7.4602626E-2,3.0472457E-1,-1.9703947E-1,-4.9503032E-2,2.678106E-1,-1.6161721E-2,2.8543362E-2,-1.4751898E-1],"categories":[],"categories_nodes":[],"categories_segments":[],"categories_sizes":[],"default_left":[0,0,0,0,0,0,0,0,0,0,0,0,0,0,0,0,0,0,0,0,0,0,0,0,0,0,0,0,0,0,0,0,0,0,0,0,0,0,0,0,0,0,0,0,0,0,0,0,0,0,0,0,0,0,0,0,0,0,0,0,0,0,0,0,0,0,0,0,0,0,0,0,0,0,0,0,0,0,0,0,0,0,0,0,0,0,0,0,0],"id":4,"left_children":[1,3,5,7,9,11,13,15,17,19,-1,21,23,25,27,29,31,33,35,37,39,-1,41,43,45,47,49,51,-1,53,55,57,59,-1,61,-1,63,65,67,-1,69,-1,-1,71,73,75,77,79,81,83,85,-1,87,-1,-1,-1,-1,-1,-1,-1,-1,-1,-1,-1,-1,-1,-1,-1,-1,-1,-1,-1,-1,-1,-1,-1,-1,-1,-1,-1,-1,-1,-1,-1,-1,-1,-1,-1,-1],"loss_changes":[6.5606995E1,2.4699554E1,6.8447556E1,4.4924896E1,1.1055603E0,3.6027462E1,1.2519615E1,4.5570038E1,3.7101517E0,3.7842026E0,0E0,9.4986343E-1,1.7965137E1,1.1475794E1,6.3871E-1,5.912037E0,1.4875225E1,8.3161163E-1,3.8280394E0,1.1229477E1,3.1204224E-2,0E0,1.131134E-1,3.3511243E0,1.7168072E1,1.3677802E1,7.1229324E0,8.527756E-2,0E0,3.759079E-1,4.712461E0,5.468067E0,3.8013077E-1,0E0,1.6172271E0,0E0,3.1944556E0,7.09465E-1,1.6950642E1,0E0,2.997101E-1,0E0,0E0,9.934654E-1,4.0909934E0,5.5208845E0,2.9257202E-1,5.103009E-1,1.6840553E0,2.9744148E-1,9.8035E-1,0E0,3.790664E-1,0E0,0E0,0E0,0E0,0E0,0E0,0E0,0E0,0E0,0E0,0E0,0E0,0E0,0E0,0E0,0E0,0E0,0E0,0E0,0E0,0E0,0E0,0E0,0E0,0E0,0E0,0E0,0E0,0E0,0E0,0E0,0E0,0E0,0E0,0E0,0E0],"parents":[2147483647,0,0,1,1,2,2,3,3,4,4,5,5,6,6,7,7,8,8,9,9,11,11,12,12,13,13,14,14,15,15,16,16,17,17,18,18,19,19,20,20,22,22,23,23,24,24,25,25,26,26,27,27,29,29,30,30,31,31,32,32,34,34,36,36,37,37,38,38,40,40,43,43,44,44,45,45,46,46,47,47,48,48,49,49,50,50,52,52],"right_children":[2,4,6,8,10,12,14,16,18,20,-1,22,24,26,28,30,32,34,36,38,40,-1,42,44,46,48,50,52,-1,54,56,58,60,-1,62,-1,64,66,68,-1,70,-1,-1,72,74,76,78,80,82,84,86,-1,88,-1,-1,-1,-1,-1,-1,-1,-1,-1,-1,-1,-1,-1,-1,-1,-1,-1,-1,-1,-1,-1,-1,-1,-1,-1,-1,-1,-1,-1,-1,-1,-1,-1,-1,-1,-1],"split_conditions":[1.0273647E0,-8.2325923E-1,-3.3662874E-1,-8.599801E-3,-8.636162E-2,-8.599801E-3,-8.599801E-3,-3.5575125E-1,8.198973E-1,-8.599801E-3,-2.0105214E-1,-1.6548676E0,2.4347556E-1,5.949211E-1,1.7620242E0,9.452896E-1,-5.0697905E-1,3.3580673E-1,1.2199432E0,1.2833932E-1,1.9848057E0,7.568273E-2,-1.6960677E0,6.57789E-1,1.2199432E0,-2.0193316E-1,1.4733872E0,1.6193948E0,9.531138E-3,1.5895829E0,-9.781534E-1,-1.4767345E0,-1.5034444E0,-2.0362109E-1,4.9380526E-1,-1.807089E-1,-1.2125636E0,1.6069727E0,2.3166284E-1,-2.0049185E-1,1.3229477E0,1.2066937E-1,3.1323558E-1,-1.4350233E0,1.2199432E0,-1.3237934E0,1.5873765E0,-2.5320637E-1,-1.0715442E0,1.4777814E0,1.3747435E0,-1.9843943E-1,1.6363467E0,-2.0501077E-1,-4.6185695E-2,-1.4400145E-1,2.214275E-1,2.008421E-1,-6.912625E-2,8.536329E-2,3.240939E-1,-1.8483807E-1,-4.053948E-2,2.1910174E-1,-1.5437102E-1,-1.9818585E-1,1.8681373E-2,-1.5178728E-1,3.0153912E-1,1.1376128E-2,-1.4994115E-1,-6.0300473E-2,-1.9216998E-1,-1.4690815E-1,1.500762E-1,1.18779175E-1,-1.6936727E-1,3.0652803E-1,8.39146E-2,7.341288E-3,-1.8970588E-1,7.4602626E-2,3.0472457E-1,-1.9703947E-1,-4.9503032E-2,2.678106E-1,-1.6161721E-2,2.8543362E-2,-1.4751898E-1],"split_indices":[16,11,11,15,11,15,15,16,16,15,0,4,3,11,5,3,3,16,15,16,10,0,8,10,15,3,3,5,0,5,16,11,4,0,10,0,11,9,3,0,9,0,0,11,15,11,7,11,4,8,4,0,5,0,0,0,0,0,0,0,0,0,0,0,0,0,0,0,0,0,0,0,0,0,0,0,0,0,0,0,0,0,0,0,0,0,0,0,0],"split_type":[0,0,0,0,0,0,0,0,0,0,0,0,0,0,0,0,0,0,0,0,0,0,0,0,0,0,0,0,0,0,0,0,0,0,0,0,0,0,0,0,0,0,0,0,0,0,0,0,0,0,0,0,0,0,0,0,0,0,0,0,0,0,0,0,0,0,0,0,0,0,0,0,0,0,0,0,0,0,0,0,0,0,0,0,0,0,0,0,0],"sum_hessian":[1.5865986E3,1.2317661E3,3.5483252E2,3.3268048E2,8.990857E2,1.6060014E2,1.9423236E2,1.2540937E2,2.0727112E2,2.759333E2,6.231524E2,6.1833748E1,9.87664E1,6.535881E1,1.2887355E2,5.6714725E1,6.869465E1,1.9250278E2,1.4768345E1,8.9361885E1,1.865714E2,2.3920474E0,5.94417E1,4.9514587E1,4.9251812E1,2.8445507E1,3.6913303E1,1.27592896E2,1.2806579E0,4.595596E1,1.0758765E1,2.700243E1,4.169222E1,1.5877715E2,3.3725624E1,7.1290965E0,7.639248E0,6.0503326E1,2.8858562E1,1.8258202E2,3.9893794E0,1.9494267E0,5.749227E1,3.481048E1,1.4704109E1,2.2821863E1,2.6429949E1,9.873948E0,1.8571558E1,3.2633175E1,4.2801285E0,1.2374048E2,3.852419E0,4.388082E1,2.0751383E0,5.3159323E0,5.442833E0,9.751866E0,1.7250565E1,1.4723904E0,4.0219826E1,2.2881235E1,1.0844392E1,5.4495897E0,2.1896584E0,5.9282784E1,1.2205417E0,1.7401497E1,1.1457065E1,1.2499158E0,2.7394633E0,7.750833E0,2.7059647E1,7.2038608E0,7.5002484E0,9.244537E0,1.3577325E1,2.495898E1,1.4709681E0,1.2658937E0,8.608054E0,4.5113792E0,1.406018E1,3.0526423E1,2.106753E0,2.9119508E0,1.3681778E0,1.16631E0,2.6861088E0],"tree_param":{"num_deleted":"0","num_feature":"19","num_nodes":"89","size_leaf_vector":"1"}},{"base_weights":[5.06409E-1,5.8202714E-1,1.5724939E-1,3.402583E-1,6.2915003E-1,6.788488E-1,-1.2677985E-1,8.532829E-1,2.8221989E-2,5.5327797E-1,7.768415E-1,2.2019827E-4,8.923526E-1,-4.0839776E-1,4.7779635E-1,1.0474293E0,2.6616922E-1,4.9366847E-1,-4.862552E-1,5.874606E-1,4.276977E-1,8.24423E-1,4.803687E-1,-5.4309934E-1,3.2536682E-1,5.5893457E-1,9.4375527E-1,-5.7886946E-1,-1.3417868E-1,5.5801217E-2,8.8034505E-1,9.544459E-2,3.1734878E-1,-2.9809397E-1,9.1783386E-1,-6.6057526E-2,8.4974635E-1,-5.8427846E-1,-8.236083E-2,6.922868E-1,4.8217884E-1,-1.197248E-1,9.237948E-1,6.3126236E-1,8.8358426E-1,-1.3033606E-2,9.4256544E-1,-1.8604968E-1,1.4273363E-2,-4.3611366E-1,6.3295454E-1,-3.3692735E-1,2.7873987E-1,8.0998324E-2,9.620374E-1,-6.156874E-1,6.2772594E-3,-5.996158E-1,2.8301668E-1,-4.4081804E-1,8.0929565E-1,2.9290703E-1,9.6849287E-1,-1.6027565E-1,1.9124623E-1,7.287973E-2,2.9736432E-1,1.4897186E-1,-1.4445485E-1,9.051967E-2,2.9250816E-1,-1.8708129E-1,-3.740199E-2,-1.8285742E-1,1.3904597E-1,5.692408E-2,2.7882436E-1,2.843181E-1,3.6779866E-3,-1.8406524E-1,1.4540343E-1,1.3896708E-1,2.9911807E-1,2.6463532E-1,-6.2005974E-2,1.8719724E-1,2.8421882E-1,1.4989717E-1,-2.0279701E-1,2.9938233E-1,1.8502384E-2,-1.7126063E-1,1.328894E-2,4.1460168E-2,2.98714E-1,-1.9568835E-1,7.096837E-2,2.94057E-1,8.562823E-2,-1.985568E-1,-1.16883464E-1,-1.546413E-1,1.9730629E-1,-2.0035757E-1,5.0723847E-2,-9.3567535E-2,2.637318E-1,-1.7987719E-1,1.351952E-2,2.771306E-1,-3.6474586E-2,-1.4475296E-1,2.4684027E-1,2.995078E-1,1.3581565E-1],"categories":[],"categories_nodes":[],"categories_segments":[],"categories_sizes":[],"default_left":[0,0,0,0,0,0,0,0,0,0,0,0,0,0,0,0,0,0,0,0,0,0,0,0,0,0,0,0,0,0,0,0,0,0,0,0,0,0,0,0,0,0,0,0,0,0,0,0,0,0,0,0,0,0,0,0,0,0,0,0,0,0,0,0,0,0,0,0,0,0,0,0,0,0,0,0,0,0,0,0,0,0,0,0,0,0,0,0,0,0,0,0,0,0,0,0,0,0,0,0,0,0,0,0,0,0,0,0,0,0,0,0,0,0,0],"id":5,"left_children":[1,3,5,7,9,11,13,15,17,19,21,23,25,27,29,31,33,35,37,39,41,43,45,47,49,51,53,55,57,59,61,-1,-1,63,65,67,69,71,73,75,77,79,81,83,85,87,89,-1,-1,91,93,95,-1,-1,97,99,101,103,105,107,109,111,113,-1,-1,-1,-1,-1,-1,-1,-1,-1,-1,-1,-1,-1,-1,-1,-1,-1,-1,-1,-1,-1,-1,-1,-1,-1,-1,-1,-1,-1,-1,-1,-1,-1,-1,-1,-1,-1,-1,-1,-1,-1,-1,-1,-1,-1,-1,-1,-1,-1,-1,-1,-1],"loss_changes":[4.932611E1,1.7309448E1,4.9651424E1,4.0487816E1,1.3981171E1,1.711267E1,3.7218647E1,1.062693E1,3.8169125E1,3.410675E0,5.725952E0,5.346805E0,1.012291E0,6.882406E0,1.1767963E1,2.0618439E-1,9.50923E0,1.6729156E1,2.9504166E0,7.0369873E0,5.06773E1,3.6997528E0,1.42457075E1,5.4533577E-1,4.710903E0,5.106461E0,6.812134E-1,1.9753685E0,1.1505507E1,1.3464731E1,1.5563526E0,0E0,0E0,3.4814987E0,3.4858036E-1,8.05904E0,3.2210464E0,1.0208511E0,4.873714E0,3.943022E1,7.360581E1,2.698215E1,2.8380585E0,1.928062E1,4.091919E0,1.0933625E1,1.5111008E0,0E0,0E0,4.1629016E-1,2.356151E0,1.0513828E0,0E0,0E0,6.28891E-1,6.408539E-1,2.5165842E0,1.5772533E0,1.1431875E1,1.705771E0,1.6327543E0,2.8910956E0,1.7313004E-2,0E0,0E0,0E0,0E0,0E0,0E0,0E0,0E0,0E0,0E0,0E0,0E0,0E0,0E0,0E0,0E0,0E0,0E0,0E0,0E0,0E0,0E0,0E0,0E0,0E0,0E0,0E0,0E0,0E0,0E0,0E0,0E0,0E0,0E0,0E0,0E0,0E0,0E0,0E0,0E0,0E0,0E0,0E0,0E0,0E0,0E0,0E0,0E0,0E0,0E0,0E0,0E0],"parents":[2147483647,0,0,1,1,2,2,3,3,4,4,5,5,6,6,7,7,8,8,9,9,10,10,11,11,12,12,13,13,14,14,15,15,16,16,17,17,18,18,19,19,20,20,21,21,22,22,23,23,24,24,25,25,26,26,27,27,28,28,29,29,30,30,33,33,34,34,35,35,36,36,37,37,38,38,39,39,40,40,41,41,42,42,43,43,44,44,45,45,46,46,49,49,50,50,51,51,54,54,55,55,56,56,57,57,58,58,59,59,60,60,61,61,62,62],"right_children":[2,4,6,8,10,12,14,16,18,20,22,24,26,28,30,32,34,36,38,40,42,44,46,48,50,52,54,56,58,60,62,-1,-1,64,66,68,70,72,74,76,78,80,82,84,86,88,90,-1,-1,92,94,96,-1,-1,98,100,102,104,106,108,110,112,114,-1,-1,-1,-1,-1,-1,-1,-1,-1,-1,-1,-1,-1,-1,-1,-1,-1,-1,-1,-1,-1,-1,-1,-1,-1,-1,-1,-1,-1,-1,-1,-1,-1,-1,-1,-1,-1,-1,-1,-1,-1,-1,-1,-1,-1,-1,-1,-1,-1,-1,-1,-1],"split_conditions":[1.0954553E0,-1.116465E0,-8.599801E-3,-8.599801E-3,1.2199432E0,-9.089976E-1,7.507415E-1,2.0561668E-1,-4.061474E-1,1.0965204E0,1.3731437E0,-3.019938E-1,-4.9406284E-1,-1.4828385E-1,1.2199432E0,-1.7014526E0,-1.2341338E-1,1.2199432E0,9.9948907E-1,-8.599801E-3,-8.599801E-3,-5.6321865E-1,-3.7833992E-1,1.2520914E0,-3.3510464E-1,-3.6453167E-1,-1.6423206E0,1.5671941E0,1.2199432E0,3.247748E-1,-1.4193373E0,9.544459E-2,3.1734878E-1,1.2715898E0,-6.9752324E-1,-1.143045E0,-1.0385511E0,1.3451238E0,1.2199432E0,-8.093555E-1,-3.7833992E-1,-1.9759145E-1,-1.3794084E0,2.7513534E-1,-1.0874301E0,2.7127016E-1,1.5533022E0,-1.8604968E-1,1.4273363E-2,3.7309846E-1,2.1784727E-1,9.8090696E-1,2.7873987E-1,8.0998324E-2,1.6497668E0,1.0960754E0,-8.3984184E-1,1.3373896E0,3.710053E-2,7.2051215E-1,1.623797E0,-1.6990142E-1,1.4777814E0,-1.6027565E-1,1.9124623E-1,7.287973E-2,2.9736432E-1,1.4897186E-1,-1.4445485E-1,9.051967E-2,2.9250816E-1,-1.8708129E-1,-3.740199E-2,-1.8285742E-1,1.3904597E-1,5.692408E-2,2.7882436E-1,2.843181E-1,3.6779866E-3,-1.8406524E-1,1.4540343E-1,1.3896708E-1,2.9911807E-1,2.6463532E-1,-6.2005974E-2,1.8719724E-1,2.8421882E-1,1.4989717E-1,-2.0279701E-1,2.9938233E-1,1.8502384E-2,-1.7126063E-1,1.328894E-2,4.1460168E-2,2.98714E-1,-1.9568835E-1,7.096837E-2,2.94057E-1,8.562823E-2,-1.985568E-1,-1.16883464E-1,-1.546413E-1,1.9730629E-1,-2.0035757E-1,5.0723847E-2,-9.3567535E-2,2.637318E-1,-1.7987719E-1,1.351952E-2,2.771306E-1,-3.6474586E-2,-1.4475296E-1,2.4684027E-1,2.995078E-1,1.3581565E-1],"split_indices":[11,16,15,15,15,16,16,11,11,16,16,3,16,16,15,3,3,15,3,15,15,16,11,6,10,3,7,3,15,3,3,0,0,5,6,11,3,10,15,11,11,11,11,11,11,3,10,0,0,6,4,1,0,0,16,3,16,9,3,9,11,5,8,0,0,0,0,0,0,0,0,0,0,0,0,0,0,0,0,0,0,0,0,0,0,0,0,0,0,0,0,0,0,0,0,0,0,0,0,0,0,0,0,0,0,0,0,0,0,0,0,0,0,0,0],"split_type":[0,0,0,0,0,0,0,0,0,0,0,0,0,0,0,0,0,0,0,0,0,0,0,0,0,0,0,0,0,0,0,0,0,0,0,0,0,0,0,0,0,0,0,0,0,0,0,0,0,0,0,0,0,0,0,0,0,0,0,0,0,0,0,0,0,0,0,0,0,0,0,0,0,0,0,0,0,0,0,0,0,0,0,0,0,0,0,0,0,0,0,0,0,0,0,0,0,0,0,0,0,0,0,0,0,0,0,0,0,0,0,0,0,0,0],"sum_hessian":[1.8706794E3,1.5371162E3,3.3356314E2,2.5206915E2,1.2850471E3,1.1710961E2,2.164535E2,9.467602E1,1.5739314E2,8.520687E2,4.329784E2,2.8266058E1,8.884356E1,1.4788953E2,6.8563995E1,7.055943E1,2.4116583E1,8.26554E1,7.473773E1,6.668706E2,1.851981E2,3.7156448E2,6.14139E1,1.0331617E1,1.7934439E1,1.345337E1,7.539019E1,9.0511154E1,5.7378365E1,3.4029358E1,3.4534634E1,1.4362361E0,6.91232E1,1.3215829E1,1.0900753E1,3.2454308E1,5.02011E1,5.9782246E1,1.4955488E1,3.3136432E2,3.3550632E2,8.840526E1,9.679285E1,8.985604E1,2.8170844E2,3.0174232E1,3.1239666E1,9.095055E0,1.236563E0,5.039798E0,1.2894642E1,3.9600682E0,9.493301E0,2.4081914E0,7.2981995E1,8.510414E1,5.4070115E0,2.691445E1,3.0463915E1,2.0760998E1,1.3268359E1,5.069981E0,2.9464655E1,1.08947525E1,2.3210764E0,1.4917047E0,9.409049E0,1.3702544E1,1.8751764E1,9.975192E0,4.0225906E1,5.47415E1,5.0407453E0,7.548603E0,7.406885E0,1.0680817E2,2.2455615E2,1.6802618E2,1.6748013E2,4.864491E1,3.976035E1,1.4289118E1,8.250372E1,6.911307E1,2.0742975E1,5.77112E1,2.2399725E2,1.715438E1,1.3019852E1,2.9266972E1,1.9726928E0,3.7887564E0,1.2510413E0,6.039098E0,6.855544E0,2.466371E0,1.4936972E0,7.063818E1,2.343813E0,6.907106E1,1.6033087E1,3.1181824E0,2.2888288E0,2.4840366E1,2.074084E0,1.5485682E1,1.4978233E1,1.5471375E1,5.289622E0,1.1822185E1,1.4461747E0,2.0944712E0,2.97551E0,2.6967426E1,2.497227E0],"tree_param":{"num_deleted":"0","num_feature":"19","num_nodes":"115","size_leaf_vector":"1"}},{"base_weights":[-1.1973928E-1,-3.917186E-1,1.7150149E-1,-5.2700233E-2,-5.427707E-1,4.441659E-1,-2.4333133E-1,-6.00102E-1,1.6423015E-1,-4.1570386E-1,-6.1290056E-1,-1.3409266E-1,6.703707E-1,-1.8719387E-1,-8.9519545E-2,1.0333885E-2,-6.125157E-1,5.1391757E-1,-2.4053013E-1,-6.11145E-1,-1.9216521E-1,-2.5692469E-2,-6.155194E-1,4.5426846E-1,-3.7054136E-1,7.5325876E-1,3.4471616E-1,-3.5562974E-1,2.6359567E-1,-2.3639503E-1,-1.877696E-1,-1.256526E-1,7.00314E-1,1.1559137E-1,-5.4215103E-1,-3.0854553E-1,-1.9087139E-1,1.7048422E-1,-3.9225927E-1,-4.1140893E-1,-1.8615663E-1,6.2398696E-1,-1.4757457E-1,-1.6892947E-2,-5.8202136E-1,2.617936E-1,6.2486506E-1,6.957009E-1,2.2230778E-2,-1.0525496E-1,-6.040997E-1,5.1576966E-1,-2.5717273E-1,4.368788E-2,-1.2933448E-1,1.8857054E-1,-1.412972E-1,2.5321704E-1,1.0032285E-1,-1.8152836E-1,1.4190699E-1,-1.7322177E-1,2.3728289E-2,8.8427864E-2,-1.3976035E-1,-1.7541896E-1,1.3890602E-1,4.08041E-2,-1.6376567E-1,2.999057E-2,-1.6803864E-1,7.46785E-2,2.350338E-1,1.1140051E-1,-1.7242517E-1,-1.3392447E-1,1.5469769E-1,6.425551E-3,-1.784754E-1,2.3304625E-1,6.2048573E-2,-6.862773E-2,2.2779685E-1,1.0594177E-1,-1.399053E-1,8.148992E-2,-1.4994164E-1,2.0864952E-2,-1.8552187E-1,1.9956142E-1,-1.8979784E-2,1.2316435E-1,-1.2527882E-1],"categories":[],"categories_nodes":[],"categories_segments":[],"categories_sizes":[],"default_left":[0,0,0,0,0,0,0,0,0,0,0,0,0,0,0,0,0,0,0,0,0,0,0,0,0,0,0,0,0,0,0,0,0,0,0,0,0,0,0,0,0,0,0,0,0,0,0,0,0,0,0,0,0,0,0,0,0,0,0,0,0,0,0,0,0,0,0,0,0,0,0,0,0,0,0,0,0,0,0,0,0,0,0,0,0,0,0,0,0,0,0,0,0],"id":6,"left_children":[1,3,5,7,9,11,13,15,17,19,21,23,25,-1,27,-1,29,31,33,35,37,-1,39,41,43,45,47,49,51,53,-1,55,57,59,61,63,-1,65,67,69,-1,71,73,75,77,-1,79,81,83,85,87,89,91,-1,-1,-1,-1,-1,-1,-1,-1,-1,-1,-1,-1,-1,-1,-1,-1,-1,-1,-1,-1,-1,-1,-1,-1,-1,-1,-1,-1,-1,-1,-1,-1,-1,-1,-1,-1,-1,-1,-1,-1],"loss_changes":[1.1926968E2,3.983635E1,8.2383865E1,2.872293E1,4.5431366E0,5.754738E1,1.6872427E1,5.61697E-1,2.4669687E1,8.383839E0,4.234314E-1,1.746726E1,8.267761E0,0E0,1.9553677E1,0E0,1.9112968E-1,1.121772E1,8.769888E0,5.885124E-1,6.7592945E0,0E0,9.490967E-2,3.7790828E0,6.665266E0,3.3017578E0,7.4479494E0,7.3096523E0,1.1895549E1,3.5449326E-1,0E0,6.0044165E0,3.5279694E0,1.0074125E1,1.0107851E0,1.0728148E0,0E0,7.66968E0,4.9223366E0,9.05666E-1,0E0,1.5003376E0,2.1527135E0,8.105653E0,4.4717216E-1,0E0,7.7446136E0,2.028822E0,5.887599E0,9.094276E0,6.142864E-1,5.2927322E0,3.3732145E0,0E0,0E0,0E0,0E0,0E0,0E0,0E0,0E0,0E0,0E0,0E0,0E0,0E0,0E0,0E0,0E0,0E0,0E0,0E0,0E0,0E0,0E0,0E0,0E0,0E0,0E0,0E0,0E0,0E0,0E0,0E0,0E0,0E0,0E0,0E0,0E0,0E0,0E0,0E0,0E0],"parents":[2147483647,0,0,1,1,2,2,3,3,4,4,5,5,6,6,7,7,8,8,9,9,10,10,11,11,12,12,14,14,16,16,17,17,18,18,19,19,20,20,22,22,23,23,24,24,25,25,26,26,27,27,28,28,29,29,31,31,32,32,33,33,34,34,35,35,37,37,38,38,39,39,41,41,42,42,43,43,44,44,46,46,47,47,48,48,49,49,50,50,51,51,52,52],"right_children":[2,4,6,8,10,12,14,16,18,20,22,24,26,-1,28,-1,30,32,34,36,38,-1,40,42,44,46,48,50,52,54,-1,56,58,60,62,64,-1,66,68,70,-1,72,74,76,78,-1,80,82,84,86,88,90,92,-1,-1,-1,-1,-1,-1,-1,-1,-1,-1,-1,-1,-1,-1,-1,-1,-1,-1,-1,-1,-1,-1,-1,-1,-1,-1,-1,-1,-1,-1,-1,-1,-1,-1,-1,-1,-1,-1,-1,-1],"split_conditions":[1.7780922E-1,-7.7068603E-1,2.6665092E-1,-8.599801E-3,5.918353E-2,-8.599801E-3,-8.599801E-3,-1.7014526E0,1.2199432E0,-6.9812566E-1,-1.7396703E0,-1.1856208E0,1.0293683E0,-1.8719387E-1,1.1232628E0,1.0333885E-2,-1.632755E0,-1.143045E0,-2.5404808E-1,-1.5450295E0,-4.7154093E-1,-2.5692469E-2,-1.6465583E0,7.4725294E-1,-3.1797567E-1,1.2199432E0,-7.7068603E-1,1.2199432E0,3.247748E-1,-1.2780632E0,-1.877696E-1,-6.1746264E-1,5.20032E-1,-1.0596226E0,1.2219431E-1,-1.3802285E0,-1.9087139E-1,-8.599801E-3,-1.08647E0,-8.8570666E-1,-1.8615663E-1,8.173807E-1,-3.3510464E-1,1.0954553E0,-1.7099307E0,2.617936E-1,-2.8659546E-1,1.082873E0,4.6605882E-1,-1.1646472E-1,-1.6917711E0,9.074174E-1,-8.6066884E-1,4.368788E-2,-1.2933448E-1,1.8857054E-1,-1.412972E-1,2.5321704E-1,1.0032285E-1,-1.8152836E-1,1.4190699E-1,-1.7322177E-1,2.3728289E-2,8.8427864E-2,-1.3976035E-1,-1.7541896E-1,1.3890602E-1,4.08041E-2,-1.6376567E-1,2.999057E-2,-1.6803864E-1,7.46785E-2,2.350338E-1,1.1140051E-1,-1.7242517E-1,-1.3392447E-1,1.5469769E-1,6.425551E-3,-1.784754E-1,2.3304625E-1,6.2048573E-2,-6.862773E-2,2.2779685E-1,1.0594177E-1,-1.399053E-1,8.148992E-2,-1.4994164E-1,2.0864952E-2,-1.8552187E-1,1.9956142E-1,-1.8979784E-2,1.2316435E-1,-1.2527882E-1],"split_indices":[11,16,16,15,16,15,15,3,15,11,3,16,3,0,11,0,6,11,3,10,3,0,3,3,3,15,16,15,3,10,0,3,3,11,11,7,0,15,5,4,0,11,10,11,4,0,16,3,9,3,6,5,10,0,0,0,0,0,0,0,0,0,0,0,0,0,0,0,0,0,0,0,0,0,0,0,0,0,0,0,0,0,0,0,0,0,0,0,0,0,0,0,0],"split_type":[0,0,0,0,0,0,0,0,0,0,0,0,0,0,0,0,0,0,0,0,0,0,0,0,0,0,0,0,0,0,0,0,0,0,0,0,0,0,0,0,0,0,0,0,0,0,0,0,0,0,0,0,0,0,0,0,0,0,0,0,0,0,0,0,0,0,0,0,0,0,0,0,0,0,0,0,0,0,0,0,0,0,0,0,0,0,0,0,0,0,0,0,0],"sum_hessian":[1.5038641E3,7.774688E2,7.263953E2,2.4005128E2,5.3741754E2,4.3826108E2,2.8813422E2,6.762929E1,1.7242198E2,1.9358778E2,3.4382977E2,1.233479E2,3.1491318E2,8.204218E1,2.0609204E2,1.2635916E0,6.63657E1,9.2359505E1,8.006248E1,1.0235994E2,9.1227844E1,1.8658991E0,3.4196387E2,3.5096127E1,8.825177E1,2.4997462E2,6.493855E1,1.1752057E2,8.857147E1,2.9215326E0,6.3444164E1,2.0916376E1,7.144313E1,3.6997078E1,4.3065403E1,8.8563175E0,9.3503624E1,3.24904E1,5.8737446E1,1.0172239E1,3.3179163E2,2.734742E1,7.7487082E0,3.3429314E1,5.4822456E1,1.2652709E2,1.2344753E2,3.0541101E1,3.439745E1,5.9245E1,5.827557E1,5.9681324E1,2.889015E1,1.0714929E0,1.8500397E0,6.311612E0,1.4604765E1,5.0354843E1,2.1088285E1,1.2036045E1,2.4961033E1,4.081952E1,2.2458835E0,1.6510824E0,7.205235E0,8.792567E0,2.369783E1,1.3258891E1,4.5478554E1,2.3656588E0,7.8065805E0,8.9224E0,1.8425018E1,3.5577152E0,4.1909933E0,1.8594189E1,1.4835127E1,1.1333137E0,5.368914E1,8.990788E1,3.353965E1,1.7993926E0,2.8741709E1,2.0673107E1,1.3724341E1,3.0460054E1,2.8784943E1,1.131582E0,5.7143986E1,4.732029E1,1.2361034E1,5.294405E0,2.3595745E1],"tree_param":{"num_deleted":"0","num_feature":"19","num_nodes":"93","size_leaf_vector":"1"}},{"base_weights":[-3.970681E-1,-1.6291498E-1,-5.6061614E-1,-5.149942E-1,1.742771E-1,-6.06595E-1,-3.65703E-1,-3.144874E-1,-1.883144E-1,6.733614E-1,-1.7749456E-1,-1.4089938E-1,-6.07927E-1,1.151575E-3,-5.743326E-1,-5.123358E-1,1.7263095E-1,3.5255814E-1,8.090826E-1,-4.9533606E-1,1.3019446E-1,-1.0103672E-1,3.586925E-2,-6.092659E-1,-2.1633042E-1,-5.776389E-1,3.0103233E-1,2.640788E-2,-5.898473E-1,-6.232792E-1,-1.0997359E-1,-1.8954219E-1,4.3366298E-1,2.40947E-3,6.2737733E-1,3.672261E-1,8.676032E-1,-5.345978E-1,2.5605217E-1,-4.5606694E-1,4.7265983E-1,-5.628692E-1,-1.8718071E-1,3.854447E-2,-1.2058905E-1,-7.8707766E-5,-1.8503171E-1,7.490083E-1,-2.348085E-1,-6.0837364E-1,-1.8797176E-1,-1.9184451E-1,-6.1846998E-2,1.4652793E-1,-1.352611E-1,1.862346E-1,-1.0461038E-1,2.2759783E-1,-1.0632277E-1,5.1629256E-2,2.3486221E-1,-9.436094E-2,1.7945068E-1,2.642358E-1,7.711579E-2,-1.731665E-1,2.1033194E-2,-1.2751311E-1,2.6578966E-1,-1.7505899E-1,-1.6247656E-2,-3.2234684E-2,2.039686E-1,-1.8475592E-1,-1.1045295E-1,3.9475836E-2,2.5433326E-1,-1.5808803E-1,2.0005448E-1,-1.8553455E-1,-7.767777E-2,-1.4568743E-1,1.21589124E-1],"categories":[],"categories_nodes":[],"categories_segments":[],"categories_sizes":[],"default_left":[0,0,0,0,0,0,0,0,0,0,0,0,0,0,0,0,0,0,0,0,0,0,0,0,0,0,0,0,0,0,0,0,0,0,0,0,0,0,0,0,0,0,0,0,0,0,0,0,0,0,0,0,0,0,0,0,0,0,0,0,0,0,0,0,0,0,0,0,0,0,0,0,0,0,0,0,0,0,0,0,0,0,0],"id":7,"left_children":[1,3,5,7,9,11,13,15,-1,17,19,21,23,25,27,29,31,33,35,37,39,-1,-1,41,43,45,47,-1,49,51,53,-1,55,57,59,61,63,65,67,69,71,73,-1,-1,-1,-1,-1,75,77,79,81,-1,-1,-1,-1,-1,-1,-1,-1,-1,-1,-1,-1,-1,-1,-1,-1,-1,-1,-1,-1,-1,-1,-1,-1,-1,-1,-1,-1,-1,-1,-1,-1],"loss_changes":[5.2635223E1,6.74758E1,7.039337E0,6.084137E0,5.1152973E1,3.2006836E-1,1.20296E1,9.920869E0,0E0,4.9563637E0,1.6816687E1,2.0186593E-1,2.0999146E-1,1.0236512E1,1.0815125E0,3.1814575E0,6.618952E0,3.6130147E0,1.848896E0,2.6287155E0,1.7849632E1,0E0,0E0,9.060669E-2,2.9307207E-1,4.5464373E-1,9.500669E0,0E0,6.1548233E-1,2.5242043E-1,3.6779103E0,0E0,3.6430793E0,4.996879E0,1.3548584E0,2.0046868E0,3.634529E-1,2.1178265E0,2.4661922E0,1.6536126E0,6.7974167E0,1.487236E0,0E0,0E0,0E0,0E0,0E0,1.1932497E0,5.211445E0,1.6820526E-1,1.215207E0,0E0,0E0,0E0,0E0,0E0,0E0,0E0,0E0,0E0,0E0,0E0,0E0,0E0,0E0,0E0,0E0,0E0,0E0,0E0,0E0,0E0,0E0,0E0,0E0,0E0,0E0,0E0,0E0,0E0,0E0,0E0,0E0],"parents":[2147483647,0,0,1,1,2,2,3,3,4,4,5,5,6,6,7,7,9,9,10,10,11,11,12,12,13,13,14,14,15,15,16,16,17,17,18,18,19,19,20,20,23,23,24,24,25,25,26,26,28,28,29,29,30,30,32,32,33,33,34,34,35,35,36,36,37,37,38,38,39,39,40,40,41,41,47,47,48,48,49,49,50,50],"right_children":[2,4,6,8,10,12,14,16,-1,18,20,22,24,26,28,30,32,34,36,38,40,-1,-1,42,44,46,48,-1,50,52,54,-1,56,58,60,62,64,66,68,70,72,74,-1,-1,-1,-1,-1,76,78,80,82,-1,-1,-1,-1,-1,-1,-1,-1,-1,-1,-1,-1,-1,-1,-1,-1,-1,-1,-1,-1,-1,-1,-1,-1,-1,-1,-1,-1,-1,-1,-1,-1],"split_conditions":[-4.3395483E-1,1.2833932E-1,1.0965204E0,-8.599801E-3,-8.599801E-3,-1.7060891E0,-8.599801E-3,-3.5575125E-1,-1.883144E-1,-6.1746264E-1,1.2199432E0,-3.062051E-1,2.5029695E0,-2.0193316E-1,-3.7833992E-1,9.5571256E-1,-1.0524484E0,8.890531E-1,-1.2780632E0,1.6226745E0,-2.0193316E-1,-1.0103672E-1,3.586925E-2,8.048312E-2,1.2219431E-1,-1.8368772E-1,5.949211E-1,2.640788E-2,1.5533022E0,1.5895829E0,-1.295986E0,-1.8954219E-1,-7.6764435E-1,-1.4767345E0,-6.8380904E-1,4.049625E-1,1.5083327E0,1.4587951E0,1.3039879E0,1.3731437E0,8.198973E-1,4.741183E-1,-1.8718071E-1,3.854447E-2,-1.2058905E-1,-7.8707766E-5,-1.8503171E-1,-4.3503854E-2,1.4733872E0,1.5671941E0,1.0536885E0,-1.9184451E-1,-6.1846998E-2,1.4652793E-1,-1.352611E-1,1.862346E-1,-1.0461038E-1,2.2759783E-1,-1.0632277E-1,5.1629256E-2,2.3486221E-1,-9.436094E-2,1.7945068E-1,2.642358E-1,7.711579E-2,-1.731665E-1,2.1033194E-2,-1.2751311E-1,2.6578966E-1,-1.7505899E-1,-1.6247656E-2,-3.2234684E-2,2.039686E-1,-1.8475592E-1,-1.1045295E-1,3.9475836E-2,2.5433326E-1,-1.5808803E-1,2.0005448E-1,-1.8553455E-1,-7.767777E-2,-1.4568743E-1,1.21589124E-1],"split_indices":[11,16,16,15,15,5,15,16,0,3,15,7,10,3,11,3,3,16,10,8,3,0,0,11,11,11,11,0,10,5,11,0,11,11,4,16,7,3,16,16,16,16,0,0,0,0,0,3,3,3,3,0,0,0,0,0,0,0,0,0,0,0,0,0,0,0,0,0,0,0,0,0,0,0,0,0,0,0,0,0,0,0,0],"split_type":[0,0,0,0,0,0,0,0,0,0,0,0,0,0,0,0,0,0,0,0,0,0,0,0,0,0,0,0,0,0,0,0,0,0,0,0,0,0,0,0,0,0,0,0,0,0,0,0,0,0,0,0,0,0,0,0,0,0,0,0,0,0,0,0,0,0,0,0,0,0,0,0,0,0,0,0,0,0,0,0,0,0,0],"sum_hessian":[1.3758413E3,5.666129E2,8.092284E2,2.7692953E2,2.8968335E2,6.5306274E2,1.5616562E2,1.0102195E2,1.7590758E2,1.193866E2,1.7029677E2,2.1672149E0,6.5089557E2,5.6975067E1,9.919055E1,7.180557E1,2.921638E1,3.656227E1,8.2824326E1,8.346642E1,8.683034E1,1.0696865E0,1.0975282E0,6.481238E2,2.7717988E0,1.9128849E1,3.784622E1,2.1632435E0,9.702731E1,5.5855476E1,1.5950091E1,6.8097963E0,2.2406584E1,1.6521238E1,2.0041033E1,1.0537392E1,7.2286934E1,7.959588E1,3.8705494E0,3.1896122E1,5.4934216E1,1.651539E2,4.8296985E2,1.0777535E0,1.6940454E0,1.2781191E0,1.7850729E1,2.0396463E1,1.7449757E1,9.226031E1,4.767001E0,5.3253834E1,2.6016443E0,5.6316648E0,1.0318426E1,1.8248579E1,4.158004E0,4.9352264E0,1.1586012E1,5.6385727E0,1.4402459E1,2.5746984E0,7.9626937E0,7.032588E1,1.961057E0,7.439732E1,5.19855E0,2.015989E0,1.8545604E0,2.387302E1,8.023102E0,1.4585875E1,4.034834E1,1.2812314E2,3.7030758E1,3.1344943E0,1.7261969E1,1.34932785E1,3.9564784E0,8.892669E1,3.333624E0,3.2951908E0,1.4718106E0],"tree_param":{"num_deleted":"0","num_feature":"19","num_nodes":"83","size_leaf_vector":"1"}},{"base_weights":[4.025924E-1,4.5121512E-1,7.574522E-2,2.5735834E-1,4.972972E-1,5.057334E-1,-1.5678528E-1,6.774614E-1,-1.3561267E-3,4.3738347E-1,6.1448044E-1,-3.7751794E-1,6.241089E-1,-4.1733178E-1,4.2272675E-1,7.8960866E-1,1.063361E-1,4.0118268E-1,-4.2862913E-1,3.2012662E-1,4.6234578E-1,6.5107363E-1,3.9014384E-1,-1.7256999E-1,8.7942876E-2,2.9768932E-1,7.112445E-1,-5.9774315E-1,-2.0263912E-1,8.093357E-2,6.969441E-1,2.575202E-1,5.5471385E-1,-5.194718E-1,6.1382437E-1,-1.6711755E-2,6.7693675E-1,-5.394503E-1,2.4351794E-3,-1.5365271E-1,7.3698986E-1,1.3275881E-1,4.7686675E-1,-2.5142708E-1,6.5762144E-1,-2.4662869E-2,7.4268717E-1,-1.2572768E-1,1.6902292E-1,-1.16322815E-1,2.2681667E-1,7.6790065E-1,4.1666552E-1,-6.258422E-1,-8.936497E-2,-5.757388E-1,1.1485072E-1,-5.113749E-1,5.6543803E-1,1.1115004E-1,2.3851039E-1,3.649863E-2,2.4143693E-1,-1.7750755E-1,-6.12327E-3,-1.7107708E-2,2.3535457E-1,-1.2604849E-1,1.68021E-1,3.5540365E-2,2.2609054E-1,-1.7355421E-1,-5.4142427E-2,-1.4308944E-1,1.3040525E-1,1.8707323E-1,-1.4302261E-1,2.5116178E-1,1.028497E-1,-1.1223642E-1,1.3643016E-1,1.6049556E-1,1.24895476E-1,-7.8438214E-5,-1.15235485E-1,2.0811777E-1,1.5539537E-1,1.0818195E-1,-1.826786E-1,2.3674364E-1,-2.6685605E-4,9.466287E-2,-1.5634042E-1,1.05949655E-1,2.4111882E-1,-6.59254E-2,2.0713545E-1,-1.9250333E-1,-9.072627E-2,1.0304681E-1,-1.2117217E-1,-1.8450168E-1,3.078799E-2,-8.567652E-2,2.0358849E-1,-1.7808482E-1,2.2234729E-2,2.1066453E-1,-1.2592772E-1,-1.3635853E-1,1.9057693E-1],"categories":[],"categories_nodes":[],"categories_segments":[],"categories_sizes":[],"default_left":[0,0,0,0,0,0,0,0,0,0,0,0,0,0,0,0,0,0,0,0,0,0,0,0,0,0,0,0,0,0,0,0,0,0,0,0,0,0,0,0,0,0,0,0,0,0,0,0,0,0,0,0,0,0,0,0,0,0,0,0,0,0,0,0,0,0,0,0,0,0,0,0,0,0,0,0,0,0,0,0,0,0,0,0,0,0,0,0,0,0,0,0,0,0,0,0,0,0,0,0,0,0,0,0,0,0,0,0,0,0,0],"id":8,"left_children":[1,3,5,7,9,11,13,15,17,19,21,23,25,27,29,31,33,35,37,39,41,43,45,-1,47,49,51,53,55,57,59,-1,61,63,65,67,69,71,73,75,77,79,81,83,85,87,89,-1,-1,91,-1,93,95,97,99,101,103,105,107,109,-1,-1,-1,-1,-1,-1,-1,-1,-1,-1,-1,-1,-1,-1,-1,-1,-1,-1,-1,-1,-1,-1,-1,-1,-1,-1,-1,-1,-1,-1,-1,-1,-1,-1,-1,-1,-1,-1,-1,-1,-1,-1,-1,-1,-1,-1,-1,-1,-1,-1,-1],"loss_changes":[2.8659576E1,1.3910858E1,2.3577295E1,3.303009E1,8.638062E0,8.884628E0,2.332203E1,7.3345413E0,3.269084E1,2.3191528E0,3.248993E0,1.0076346E0,1.873764E0,3.994318E0,4.4462576E0,1.0857086E0,6.723394E0,1.1289388E1,4.405836E0,2.9974834E1,3.2519379E0,2.3244934E0,9.13454E0,0E0,1.1926755E0,3.346055E0,6.3392067E-1,7.614918E-1,5.9923515E0,6.750936E0,1.4357262E0,0E0,2.5793428E0,3.329165E-1,1.3723512E0,9.516197E0,2.437315E0,9.2416E-1,4.3209558E0,1.8275822E1,2.8968353E0,5.1674657E0,2.1106567E0,1.1172047E-1,1.4708557E0,6.884344E0,1.1659336E0,0E0,0E0,1.8930185E0,0E0,4.1080093E-1,2.139042E0,8.280754E-2,7.056318E-1,6.802106E-1,6.4840293E0,5.57117E-1,2.0277338E0,1.7613105E0,0E0,0E0,0E0,0E0,0E0,0E0,0E0,0E0,0E0,0E0,0E0,0E0,0E0,0E0,0E0,0E0,0E0,0E0,0E0,0E0,0E0,0E0,0E0,0E0,0E0,0E0,0E0,0E0,0E0,0E0,0E0,0E0,0E0,0E0,0E0,0E0,0E0,0E0,0E0,0E0,0E0,0E0,0E0,0E0,0E0,0E0,0E0,0E0,0E0,0E0,0E0],"parents":[2147483647,0,0,1,1,2,2,3,3,4,4,5,5,6,6,7,7,8,8,9,9,10,10,11,11,12,12,13,13,14,14,15,15,16,16,17,17,18,18,19,19,20,20,21,21,22,22,24,24,25,25,26,26,27,27,28,28,29,29,30,30,32,32,33,33,34,34,35,35,36,36,37,37,38,38,39,39,40,40,41,41,42,42,43,43,44,44,45,45,46,46,49,49,51,51,52,52,53,53,54,54,55,55,56,56,57,57,58,58,59,59],"right_children":[2,4,6,8,10,12,14,16,18,20,22,24,26,28,30,32,34,36,38,40,42,44,46,-1,48,50,52,54,56,58,60,-1,62,64,66,68,70,72,74,76,78,80,82,84,86,88,90,-1,-1,92,-1,94,96,98,100,102,104,106,108,110,-1,-1,-1,-1,-1,-1,-1,-1,-1,-1,-1,-1,-1,-1,-1,-1,-1,-1,-1,-1,-1,-1,-1,-1,-1,-1,-1,-1,-1,-1,-1,-1,-1,-1,-1,-1,-1,-1,-1,-1,-1,-1,-1,-1,-1,-1,-1,-1,-1,-1,-1],"split_conditions":[1.2623E0,-9.781534E-1,-8.599801E-3,-8.599801E-3,1.2199432E0,-1.3930882E0,8.198973E-1,6.922472E-1,-4.061474E-1,-1.1986599E0,1.3731437E0,9.8253036E-1,-7.856201E-1,3.247748E-1,1.2199432E0,6.6579394E-2,-1.2341338E-1,1.2199432E0,9.9948907E-1,-8.599801E-3,-1.5413718E0,-1.7278576E0,-3.7833992E-1,-1.7256999E-1,4.4429165E-1,1.9749512E-1,1.2715898E0,1.4963409E0,1.2199432E0,1.3090736E-1,-1.4193373E0,2.575202E-1,-6.2719077E-1,-1.116465E0,-1.0488427E0,3.247748E-1,-1.3137177E0,1.3451238E0,1.2199432E0,-2.1743965E-1,1.234832E0,1.06629925E-2,-8.599801E-3,9.798039E-1,5.810174E-1,2.7127016E-1,1.5533022E0,-1.2572768E-1,1.6902292E-1,1.4569522E0,2.2681667E-1,-1.0473092E0,-2.9664746E-1,1.4913791E0,1.5559925E0,1.5388892E0,-1.4828385E-1,7.6519805E-1,1.6933156E0,-1.6990142E-1,2.3851039E-1,3.649863E-2,2.4143693E-1,-1.7750755E-1,-6.12327E-3,-1.7107708E-2,2.3535457E-1,-1.2604849E-1,1.68021E-1,3.5540365E-2,2.2609054E-1,-1.7355421E-1,-5.4142427E-2,-1.4308944E-1,1.3040525E-1,1.8707323E-1,-1.4302261E-1,2.5116178E-1,1.028497E-1,-1.1223642E-1,1.3643016E-1,1.6049556E-1,1.24895476E-1,-7.8438214E-5,-1.15235485E-1,2.0811777E-1,1.5539537E-1,1.0818195E-1,-1.826786E-1,2.3674364E-1,-2.6685605E-4,9.466287E-2,-1.5634042E-1,1.05949655E-1,2.4111882E-1,-6.59254E-2,2.0713545E-1,-1.9250333E-1,-9.072627E-2,1.0304681E-1,-1.2117217E-1,-1.8450168E-1,3.078799E-2,-8.567652E-2,2.0358849E-1,-1.7808482E-1,2.2234729E-2,2.1066453E-1,-1.2592772E-1,-1.3635853E-1,1.9057693E-1],"split_indices":[11,16,15,15,15,16,16,11,11,11,16,9,3,3,15,11,3,15,3,15,9,3,11,0,3,16,5,4,15,3,3,0,3,16,6,3,3,10,15,16,16,7,15,0,11,3,10,0,0,11,0,16,4,5,4,9,16,10,11,5,0,0,0,0,0,0,0,0,0,0,0,0,0,0,0,0,0,0,0,0,0,0,0,0,0,0,0,0,0,0,0,0,0,0,0,0,0,0,0,0,0,0,0,0,0,0,0,0,0,0,0],"split_type":[0,0,0,0,0,0,0,0,0,0,0,0,0,0,0,0,0,0,0,0,0,0,0,0,0,0,0,0,0,0,0,0,0,0,0,0,0,0,0,0,0,0,0,0,0,0,0,0,0,0,0,0,0,0,0,0,0,0,0,0,0,0,0,0,0,0,0,0,0,0,0,0,0,0,0,0,0,0,0,0,0,0,0,0,0,0,0,0,0,0,0,0,0,0,0,0,0,0,0,0,0,0,0,0,0,0,0,0,0,0,0],"sum_hessian":[1.8045262E3,1.5705118E3,2.3401442E2,3.028933E2,1.2676185E3,8.17219E1,1.5229251E2,1.1482341E2,1.880699E2,8.4190173E2,4.2571677E2,9.399437E0,7.2322464E1,1.05251625E2,4.704089E1,9.565739E1,1.9166018E1,9.686929E1,9.1200615E1,1.5019702E2,6.917047E2,3.643782E2,6.1338554E1,6.43162E0,2.9678164E0,1.6168797E1,5.615367E1,5.6222412E1,4.9029213E1,2.1516808E1,2.5524082E1,7.19357E1,2.372169E1,8.571939E0,1.0594079E1,3.8883015E1,5.798628E1,7.234913E1,1.8851479E1,7.05949E1,7.960211E1,2.9617188E1,6.620875E2,2.3552172E0,3.62023E2,2.8608038E1,3.273052E1,1.493608E0,1.4742085E0,8.887512E0,7.281284E0,4.5748188E1,1.0405481E1,5.3058697E1,3.1637158E0,2.216661E1,2.6862602E1,9.656384E0,1.1860424E1,3.9669108E0,2.1557173E1,9.2280855E0,1.4493603E1,7.326149E0,1.2457901E0,2.2838783E0,8.310201E0,2.3039078E1,1.5843936E1,7.3092866E0,5.0676994E1,6.469721E1,7.6519227E0,8.889185E0,9.962294E0,2.045585E1,5.013905E1,6.2569534E1,1.7032581E1,1.1442877E1,1.8174309E1,3.338249E2,3.2826263E2,1.1605089E0,1.1947085E0,2.844958E2,7.75272E1,1.7470596E1,1.1137443E1,3.0748108E1,1.9824094E0,4.406763E0,4.480749E0,4.501234E0,4.1246956E1,3.1892996E0,7.216182E0,4.964397E1,3.4147243E0,1.2927208E0,1.8709949E0,2.1042007E1,1.1246028E0,1.5995078E1,1.0867523E1,8.454886E0,1.2014978E0,1.0666767E1,1.1936568E0,1.971638E0,1.9952728E0],"tree_param":{"num_deleted":"0","num_feature":"19","num_nodes":"111","size_leaf_vector":"1"}},{"base_weights":[-1.0148742E-1,-3.511867E-1,1.5206099E-1,-8.435536E-2,-5.286722E-1,3.8431606E-1,-2.1260384E-1,-5.7071745E-1,9.144393E-2,-4.04211E-1,-5.7879084E-1,-1.1942024E-1,5.751556E-1,-1.770424E-1,-7.450418E-2,7.3840576E-3,-5.8185524E-1,3.6834925E-1,-2.6205543E-1,-1.789812E-1,-2.0355798E-1,-3.2578138E-1,-1.7624411E-1,3.2157373E-1,-3.7007174E-1,7.29177E-1,4.16004E-1,1.7925121E-1,-3.7784114E-1,-1.8011093E-1,-1.7839344E-1,-7.3558845E-2,5.869054E-1,2.6431587E-2,-5.217383E-1,7.4703676E-1,-2.86748E-1,-4.585134E-1,9.2567354E-2,4.791904E-1,-2.3089808E-1,-6.9725595E-2,-5.674611E-1,7.482195E-1,-2.2799779E-2,6.1139643E-1,9.724284E-2,4.477546E-1,-1.8866447E-1,-5.532097E-1,-5.3136066E-2,5.355184E-2,-1.16029516E-1,9.7244374E-2,-1.0355704E-1,2.2705618E-1,7.323482E-2,-1.719766E-1,9.316978E-2,-1.6561323E-1,-1.9287588E-3,5.70706E-3,3.0112365E-1,-1.9349273E-2,-1.6846794E-1,-1.6395828E-1,5.0647825E-2,1.6556317E-1,-4.5615204E-2,3.9370872E-2,-1.6669531E-1,-1.5547019E-1,1.1753599E-1,-6.821477E-2,-1.7564467E-1,2.264215E-1,1.1385921E-1,1.5046507E-1,-1.582637E-1,2.1815999E-1,9.758229E-2,2.1035632E-1,-4.804074E-2,1.9124502E-1,-7.71568E-2,-1.3110892E-1,1.0416765E-1,-8.768733E-3,-1.7378405E-1,1.1325137E-1,-1.1694604E-1],"categories":[],"categories_nodes":[],"categories_segments":[],"categories_sizes":[],"default_left":[0,0,0,0,0,0,0,0,0,0,0,0,0,0,0,0,0,0,0,0,0,0,0,0,0,0,0,0,0,0,0,0,0,0,0,0,0,0,0,0,0,0,0,0,0,0,0,0,0,0,0,0,0,0,0,0,0,0,0,0,0,0,0,0,0,0,0,0,0,0,0,0,0,0,0,0,0,0,0,0,0,0,0,0,0,0,0,0,0,0,0],"id":9,"left_children":[1,3,5,7,9,11,13,15,17,19,21,23,25,-1,27,-1,29,31,33,-1,35,37,-1,39,41,43,45,47,49,51,-1,53,55,57,59,61,63,65,-1,67,69,71,73,75,77,79,81,83,85,87,89,-1,-1,-1,-1,-1,-1,-1,-1,-1,-1,-1,-1,-1,-1,-1,-1,-1,-1,-1,-1,-1,-1,-1,-1,-1,-1,-1,-1,-1,-1,-1,-1,-1,-1,-1,-1,-1,-1,-1,-1],"loss_changes":[8.465634E1,3.1854675E1,5.6297543E1,2.3159239E1,2.2881088E0,3.908357E1,1.3454445E1,4.9098587E-1,1.9611376E1,4.487406E0,4.3722534E-1,1.2536202E1,6.91584E0,0E0,1.4746874E1,0E0,2.5569344E-1,1.0880478E1,6.6179075E0,0E0,4.9556065E0,1.1298594E0,0E0,3.7022643E0,4.2343445E0,2.141182E0,9.106794E0,1.04093275E1,4.9353266E0,3.3679485E-1,0E0,4.2191687E0,4.1954727E0,7.455974E0,7.2172356E-1,9.344404E-1,3.3752246E0,6.504829E-1,0E0,1.5712357E0,1.2289745E0,6.3568034E0,1.3261509E-1,6.1340332E-2,1.4910523E0,2.7803764E0,8.990797E0,8.284853E0,6.114317E0,7.549591E-1,4.7406735E0,0E0,0E0,0E0,0E0,0E0,0E0,0E0,0E0,0E0,0E0,0E0,0E0,0E0,0E0,0E0,0E0,0E0,0E0,0E0,0E0,0E0,0E0,0E0,0E0,0E0,0E0,0E0,0E0,0E0,0E0,0E0,0E0,0E0,0E0,0E0,0E0,0E0,0E0,0E0,0E0],"parents":[2147483647,0,0,1,1,2,2,3,3,4,4,5,5,6,6,7,7,8,8,9,9,10,10,11,11,12,12,14,14,16,16,17,17,18,18,20,20,21,21,23,23,24,24,25,25,26,26,27,27,28,28,29,29,31,31,32,32,33,33,34,34,35,35,36,36,37,37,39,39,40,40,41,41,42,42,43,43,44,44,45,45,46,46,47,47,48,48,49,49,50,50],"right_children":[2,4,6,8,10,12,14,16,18,20,22,24,26,-1,28,-1,30,32,34,-1,36,38,-1,40,42,44,46,48,50,52,-1,54,56,58,60,62,64,66,-1,68,70,72,74,76,78,80,82,84,86,88,90,-1,-1,-1,-1,-1,-1,-1,-1,-1,-1,-1,-1,-1,-1,-1,-1,-1,-1,-1,-1,-1,-1,-1,-1,-1,-1,-1,-1,-1,-1,-1,-1,-1,-1,-1,-1,-1,-1,-1,-1],"split_conditions":[1.7780922E-1,-5.6321865E-1,2.6665092E-1,-8.599801E-3,5.918353E-2,-8.599801E-3,-8.599801E-3,-1.7153499E0,1.2199432E0,-7.398369E-1,-1.6465583E0,-1.116465E0,1.2199432E0,-1.770424E-1,1.2199432E0,7.3840576E-3,-1.632755E0,-9.2058533E-1,-2.5404808E-1,-1.789812E-1,-1.5450295E0,-1.5588026E-1,-1.7624411E-1,7.4725294E-1,-3.1797567E-1,1.5922092E0,3.7133077E-1,7.7402726E-2,1.2623E0,8.151272E-3,-1.7839344E-1,-2.8740162E-1,4.1997135E-1,-1.0596226E0,1.2219431E-1,-1.2655994E0,1.3090736E-1,-1.658371E0,9.2567354E-2,1.4835237E0,-1.5150633E-1,1.0954553E0,-1.4141451E0,1.6167911E0,-8.3984184E-1,-3.5575125E-1,-1.116465E0,1.3731437E0,1.3596262E0,-1.6424752E0,8.198973E-1,5.355184E-2,-1.16029516E-1,9.7244374E-2,-1.0355704E-1,2.2705618E-1,7.323482E-2,-1.719766E-1,9.316978E-2,-1.6561323E-1,-1.9287588E-3,5.70706E-3,3.0112365E-1,-1.9349273E-2,-1.6846794E-1,-1.6395828E-1,5.0647825E-2,1.6556317E-1,-4.5615204E-2,3.9370872E-2,-1.6669531E-1,-1.5547019E-1,1.1753599E-1,-6.821477E-2,-1.7564467E-1,2.264215E-1,1.1385921E-1,1.5046507E-1,-1.582637E-1,2.1815999E-1,9.758229E-2,2.1035632E-1,-4.804074E-2,1.9124502E-1,-7.71568E-2,-1.3110892E-1,1.0416765E-1,-8.768733E-3,-1.7378405E-1,1.1325137E-1,-1.1694604E-1],"split_indices":[11,16,16,15,16,15,15,3,15,11,3,16,15,0,15,0,6,11,3,0,10,11,0,3,3,3,3,3,11,8,0,3,3,11,11,9,3,3,0,1,9,11,9,4,16,16,16,16,11,6,16,0,0,0,0,0,0,0,0,0,0,0,0,0,0,0,0,0,0,0,0,0,0,0,0,0,0,0,0,0,0,0,0,0,0,0,0,0,0,0,0],"split_type":[0,0,0,0,0,0,0,0,0,0,0,0,0,0,0,0,0,0,0,0,0,0,0,0,0,0,0,0,0,0,0,0,0,0,0,0,0,0,0,0,0,0,0,0,0,0,0,0,0,0,0,0,0,0,0,0,0,0,0,0,0,0,0,0,0,0,0,0,0,0,0,0,0,0,0,0,0,0,0,0,0,0,0,0,0,0,0,0,0,0,0],"sum_hessian":[1.33531E3,6.725676E2,6.627425E2,2.6925122E2,4.0331644E2,4.0484363E2,2.5789883E2,7.088793E1,1.9836328E2,1.183871E2,2.8492932E2,1.1133644E2,2.935072E2,6.819466E1,1.8970416E2,1.2796335E0,6.96083E1,1.1120863E2,8.715465E1,5.943014E1,5.895696E1,1.0738896E1,2.7419043E2,4.024565E1,7.109079E1,1.4733748E2,1.4616972E2,1.0351672E2,8.618745E1,2.6129549E0,6.6995346E1,3.701991E1,7.418872E1,4.1713017E1,4.544163E1,4.102192E0,5.4854767E1,9.109882E0,1.6290139E0,3.1415619E1,8.830031E0,2.8729477E1,4.2361313E1,1.4370343E2,3.6340423E0,9.005207E1,5.6117653E1,5.971786E1,4.379886E1,5.5505817E1,3.0681631E1,1.00505E0,1.6079049E0,1.4944988E1,2.207492E1,4.8791096E1,2.539763E1,1.308294E1,2.8630077E1,4.2850277E1,2.5913532E0,1.3494172E0,2.7527747E0,3.1010298E1,2.384447E1,8.102008E0,1.0078745E0,2.8284422E1,3.1311965E0,4.456474E0,4.373557E0,1.4507675E1,1.4221801E1,2.817096E0,3.9544216E1,1.4017783E2,3.525604E0,1.7855126E0,1.8485297E0,6.3008713E1,2.7043362E1,1.625368E1,3.9863976E1,4.7129196E1,1.2588666E1,3.0054285E1,1.37445755E1,2.7313073E0,5.277451E1,1.3409182E1,1.727245E1],"tree_param":{"num_deleted":"0","num_feature":"19","num_nodes":"91","size_leaf_vector":"1"}},{"base_weights":[-3.5543436E-1,-1.3160907E-1,-5.215722E-1,-4.7319916E-1,1.6965784E-1,-5.7186085E-1,-3.1722757E-1,-2.722416E-1,-1.782866E-1,5.8405906E-1,-1.3911097E-1,-5.104825E-1,-1.7771019E-1,3.5161227E-2,-5.364279E-1,-4.571365E-1,1.32698E-1,3.353368E-1,7.306027E-1,-4.470249E-1,1.4112882E-1,-3.017364E-1,-1.795339E-1,-5.3651446E-1,3.0830753E-1,2.089268E-2,-5.530289E-1,-1.8013498E-1,-9.7241275E-2,-3.1993777E-1,5.484937E-1,-1.3948807E-1,5.47422E-1,5.1546025E-1,7.9876477E-1,-5.0090694E-1,1.9146211E-1,-4.0082225E-1,4.2879072E-1,-5.225621E-1,4.2498496E-1,3.293178E-3,-1.7380802E-1,6.75854E-1,-1.8389688E-1,-5.740692E-1,-1.4698328E-1,-1.4823495E-1,1.1997846E-1,-1.8896617E-1,2.6361613E-2,1.9975686E-1,-1.330968E-1,1.1862254E-1,-1.7998414E-1,-1.0087262E-1,1.8844783E-1,-1.1899396E-3,2.078595E-1,4.7425743E-2,2.433458E-1,-1.6030952E-1,-1.9642995E-3,-1.288563E-1,1.9602807E-1,-1.0305248E-2,-1.6306183E-1,-1.1604122E-1,1.6315323E-1,-1.6438246E-1,4.7712617E-2,-1.123786E-1,3.9726722E-1,4.214351E-2,2.2811915E-1,-1.4384553E-1,1.7851865E-1,-1.7560168E-1,-8.015316E-2,-1.4140531E-1,1.7531084E-1],"categories":[],"categories_nodes":[],"categories_segments":[],"categories_sizes":[],"default_left":[0,0,0,0,0,0,0,0,0,0,0,0,0,0,0,0,0,0,0,0,0,0,0,0,0,0,0,0,0,0,0,0,0,0,0,0,0,0,0,0,0,0,0,0,0,0,0,0,0,0,0,0,0,0,0,0,0,0,0,0,0,0,0,0,0,0,0,0,0,0,0,0,0,0,0,0,0,0,0,0,0],"id":10,"left_children":[1,3,5,7,9,11,13,15,-1,17,19,21,-1,23,25,27,29,31,33,35,37,39,-1,41,43,-1,45,-1,47,49,51,53,55,57,59,61,63,65,67,69,71,-1,-1,73,75,77,79,-1,-1,-1,-1,-1,-1,-1,-1,-1,-1,-1,-1,-1,-1,-1,-1,-1,-1,-1,-1,-1,-1,-1,-1,-1,-1,-1,-1,-1,-1,-1,-1,-1,-1],"loss_changes":[4.3870743E1,5.2023678E1,6.7845154E0,5.600643E0,3.44932E1,3.807373E-1,1.0533379E1,6.8653183E0,0E0,3.947338E0,1.3431032E1,2.4480438E0,0E0,8.463284E0,8.8347816E-1,3.171422E0,5.683196E0,4.556834E0,6.3720703E-1,2.643611E0,1.2934415E1,7.3565083E0,0E0,4.1794872E-1,6.744426E0,0E0,6.149273E-1,0E0,3.9519906E0,1.9062514E0,2.1143885E0,3.816893E0,2.419898E0,1.8483934E0,2.884369E-1,1.1306458E0,2.1414914E0,1.4929905E0,5.27396E0,6.847305E-1,8.342085E0,0E0,0E0,8.511019E-1,4.0683823E0,1.11572266E-1,1.5509402E0,0E0,0E0,0E0,0E0,0E0,0E0,0E0,0E0,0E0,0E0,0E0,0E0,0E0,0E0,0E0,0E0,0E0,0E0,0E0,0E0,0E0,0E0,0E0,0E0,0E0,0E0,0E0,0E0,0E0,0E0,0E0,0E0,0E0,0E0],"parents":[2147483647,0,0,1,1,2,2,3,3,4,4,5,5,6,6,7,7,9,9,10,10,11,11,13,13,14,14,15,15,16,16,17,17,18,18,19,19,20,20,21,21,23,23,24,24,26,26,28,28,29,29,30,30,31,31,32,32,33,33,34,34,35,35,36,36,37,37,38,38,39,39,40,40,43,43,44,44,45,45,46,46],"right_children":[2,4,6,8,10,12,14,16,-1,18,20,22,-1,24,26,28,30,32,34,36,38,40,-1,42,44,-1,46,-1,48,50,52,54,56,58,60,62,64,66,68,70,72,-1,-1,74,76,78,80,-1,-1,-1,-1,-1,-1,-1,-1,-1,-1,-1,-1,-1,-1,-1,-1,-1,-1,-1,-1,-1,-1,-1,-1,-1,-1,-1,-1,-1,-1,-1,-1,-1,-1],"split_conditions":[-4.3395483E-1,1.2833932E-1,1.0965204E0,-8.599801E-3,-8.599801E-3,8.048312E-2,-8.599801E-3,-3.5575125E-1,-1.782866E-1,-3.6453167E-1,1.2199432E0,-8.599801E-3,-1.7771019E-1,-2.0193316E-1,-3.7833992E-1,7.187635E-1,-4.6181282E-1,6.8158567E-1,-1.1046748E0,1.6618178E0,-2.0193316E-1,4.049625E-1,-1.795339E-1,-1.8368772E-1,5.949211E-1,2.089268E-2,1.6193948E0,-1.8013498E-1,-8.3984184E-1,4.9589682E-1,1.5145395E0,-1.3516009E0,-1.5706196E0,4.049625E-1,-1.6424752E0,1.5074357E0,9.5820886E-1,-1.3655046E0,-1.1064024E0,1.9584548E0,5.672828E-1,3.293178E-3,-1.7380802E-1,-4.3503854E-2,1.4733872E0,1.5533022E0,5.554701E-1,-1.4823495E-1,1.1997846E-1,-1.8896617E-1,2.6361613E-2,1.9975686E-1,-1.330968E-1,1.1862254E-1,-1.7998414E-1,-1.0087262E-1,1.8844783E-1,-1.1899396E-3,2.078595E-1,4.7425743E-2,2.433458E-1,-1.6030952E-1,-1.9642995E-3,-1.288563E-1,1.9602807E-1,-1.0305248E-2,-1.6306183E-1,-1.1604122E-1,1.6315323E-1,-1.6438246E-1,4.7712617E-2,-1.123786E-1,3.9726722E-1,4.214351E-2,2.2811915E-1,-1.4384553E-1,1.7851865E-1,-1.7560168E-1,-8.015316E-2,-1.4140531E-1,1.7531084E-1],"split_indices":[11,16,16,15,15,11,15,16,0,3,15,15,0,3,11,3,3,16,9,10,3,16,0,11,11,0,5,0,16,5,6,11,10,16,6,3,16,11,10,10,3,0,0,3,3,10,3,0,0,0,0,0,0,0,0,0,0,0,0,0,0,0,0,0,0,0,0,0,0,0,0,0,0,0,0,0,0,0,0,0,0],"split_type":[0,0,0,0,0,0,0,0,0,0,0,0,0,0,0,0,0,0,0,0,0,0,0,0,0,0,0,0,0,0,0,0,0,0,0,0,0,0,0,0,0,0,0,0,0,0,0,0,0,0,0,0,0,0,0,0,0,0,0,0,0,0,0,0,0,0,0,0,0,0,0,0,0,0,0,0,0,0,0,0,0],"sum_hessian":[1.180616E3,5.037469E2,6.768691E2,2.3580725E2,2.6793964E2,5.417478E2,1.3512128E2,8.988475E1,1.459225E2,1.1402037E2,1.5391927E2,1.4215463E2,3.9959317E2,5.2140015E1,8.2981255E1,6.162016E1,2.8264587E1,4.3491833E1,7.052854E1,7.305491E1,8.086436E1,4.3457157E1,9.869748E1,1.6546072E1,3.5593945E1,2.1271687E0,8.085409E1,4.3592747E1,1.8027412E1,1.3643164E1,1.4621424E1,1.3533897E1,2.9957933E1,1.902898E1,5.1499557E1,6.756829E1,5.4866176E0,2.790269E1,5.296167E1,3.3544937E1,9.912221E0,1.2548668E0,1.5291204E1,2.0163801E1,1.5430142E1,7.64774E1,4.376688E0,1.0028281E1,7.9991302E0,7.442242E0,6.200921E0,1.3368879E1,1.2525444E0,6.3262377E0,7.2076597E0,2.2430708E0,2.7714863E1,5.09344E0,1.393554E1,1.2379192E0,5.026164E1,6.3209366E1,4.3589234E0,2.3704445E0,3.1161728E0,8.168409E0,1.9734282E1,6.255501E0,4.670617E1,3.2529793E1,1.015142E0,5.5556817E0,4.356539E0,3.1128783E0,1.7050924E1,1.1464291E1,3.9658513E0,7.28933E1,3.5840988E0,3.2782393E0,1.0984488E0],"tree_param":{"num_deleted":"0","num_feature":"19","num_nodes":"81","size_leaf_vector":"1"}},{"base_weights":[3.3017737E-1,3.8973066E-1,1.5705223E-1,3.4160638E-1,4.8729733E-1,-8.963399E-2,4.2972085E-1,3.689791E-1,2.3285484E-1,5.469205E-1,3.168961E-1,3.7553278E-1,-3.9330357E-1,6.7104524E-1,3.178321E-1,4.80229E-1,2.525586E-1,-2.3544542E-1,6.228695E-1,6.1439514E-1,2.4648114E-1,-1.5149114E-1,5.755528E-1,-1.6846186E-1,5.272142E-1,-1.8340763E-1,-2.1689308E-1,2.1855704E-1,1.7709532E-1,-3.5004462E-3,5.78009E-1,6.261386E-1,1.8207794E-1,5.7864505E-1,-1.29943695E-2,-5.4482645E-1,1.30864E-1,6.6225946E-1,-4.5393884E-2,4.9979293E-1,6.856576E-1,-2.3987119E-1,6.791803E-1,4.5038053E-1,-4.9375096E-1,7.22453E-1,2.013973E-1,-1.7235656E-1,2.1995272E-1,1.4999478E-1,6.957106E-1,-5.1642495E-1,1.5331016E-1,5.3492814E-1,-1.5658283E-1,-3.7125817E-1,4.3701386E-1,2.899107E-1,6.756999E-1,2.0365773E-1,1.2153114E-1,-2.514655E-2,2.1710043E-1,3.096029E-2,2.11435E-1,-1.0663175E-1,1.5041475E-1,1.1839531E-2,-1.8132408E-1,1.9759263E-1,-1.0784289E-1,1.7024428E-2,2.0563613E-1,-2.0873846E-1,1.6965218E-1,7.094753E-2,2.0543998E-1,2.0745982E-1,6.9370163E-3,-1.7940882E-1,7.419625E-2,1.410017E-3,2.27273E-1,1.8507937E-1,-1.8688202E-1,1.0986663E-1,-1.7652501E-1,2.1927151E-1,5.8474336E-2,-1.8754832E-1,1.6335952E-1,-1.331061E-1,1.2620194E-1,-9.490507E-2,1.3941282E-1,5.4453835E-2,2.11553E-1,-1.8171231E-1,-7.419231E-2,-1.2886597E-1,1.2406744E-1,1.8572347E-1,3.9875954E-2,-1.8251836E-1,1.1691585E-1,-8.748576E-2,1.679667E-1,-3.0710308E-2,1.8357748E-1,1.3350485E-2,2.1316734E-1],"categories":[],"categories_nodes":[],"categories_segments":[],"categories_sizes":[],"default_left":[0,0,0,0,0,0,0,0,0,0,0,0,0,0,0,0,0,0,0,0,0,0,0,0,0,0,0,0,0,0,0,0,0,0,0,0,0,0,0,0,0,0,0,0,0,0,0,0,0,0,0,0,0,0,0,0,0,0,0,0,0,0,0,0,0,0,0,0,0,0,0,0,0,0,0,0,0,0,0,0,0,0,0,0,0,0,0,0,0,0,0,0,0,0,0,0,0,0,0,0,0,0,0,0,0,0,0,0,0,0,0],"id":11,"left_children":[1,3,5,7,9,11,13,15,17,19,21,23,25,27,29,31,33,35,37,39,41,43,45,47,49,-1,51,-1,53,55,57,59,61,63,65,67,69,71,73,75,77,79,81,83,85,87,89,-1,91,93,95,97,99,101,-1,103,105,107,109,-1,-1,-1,-1,-1,-1,-1,-1,-1,-1,-1,-1,-1,-1,-1,-1,-1,-1,-1,-1,-1,-1,-1,-1,-1,-1,-1,-1,-1,-1,-1,-1,-1,-1,-1,-1,-1,-1,-1,-1,-1,-1,-1,-1,-1,-1,-1,-1,-1,-1,-1,-1],"loss_changes":[1.7288223E1,5.7091675E0,2.9121223E1,2.4187012E0,4.002472E0,3.2329906E1,5.336651E0,8.5625305E0,3.154294E1,5.992935E0,1.3282091E1,7.5560923E0,5.1885757E0,1.6940079E0,1.1901395E1,1.4752769E1,2.8560095E1,9.005695E0,2.506073E0,1.6732025E0,1.2212335E1,8.367239E0,3.7224789E0,3.3579423E0,4.4089108E0,0E0,8.730279E0,0E0,2.2838507E0,1.0639821E1,2.0178509E0,2.39402E0,1.6434345E1,8.804272E0,3.2362206E1,1.5186062E0,9.786971E0,1.2095299E0,2.8456693E0,4.6279297E0,5.65979E-1,4.9806705E0,1.6123991E0,3.040058E0,2.306305E0,8.1129074E-2,6.3607774E0,0E0,1.6779373E0,3.5518832E0,1.09573364E-1,8.918829E-1,5.5873733E0,1.1373782E-1,0E0,6.6954675E0,2.839007E0,2.799855E0,1.2442226E0,0E0,0E0,0E0,0E0,0E0,0E0,0E0,0E0,0E0,0E0,0E0,0E0,0E0,0E0,0E0,0E0,0E0,0E0,0E0,0E0,0E0,0E0,0E0,0E0,0E0,0E0,0E0,0E0,0E0,0E0,0E0,0E0,0E0,0E0,0E0,0E0,0E0,0E0,0E0,0E0,0E0,0E0,0E0,0E0,0E0,0E0,0E0,0E0,0E0,0E0,0E0,0E0],"parents":[2147483647,0,0,1,1,2,2,3,3,4,4,5,5,6,6,7,7,8,8,9,9,10,10,11,11,12,12,13,13,14,14,15,15,16,16,17,17,18,18,19,19,20,20,21,21,22,22,23,23,24,24,26,26,28,28,29,29,30,30,31,31,32,32,33,33,34,34,35,35,36,36,37,37,38,38,39,39,40,40,41,41,42,42,43,43,44,44,45,45,46,46,48,48,49,49,50,50,51,51,52,52,53,53,55,55,56,56,57,57,58,58],"right_children":[2,4,6,8,10,12,14,16,18,20,22,24,26,28,30,32,34,36,38,40,42,44,46,48,50,-1,52,-1,54,56,58,60,62,64,66,68,70,72,74,76,78,80,82,84,86,88,90,-1,92,94,96,98,100,102,-1,104,106,108,110,-1,-1,-1,-1,-1,-1,-1,-1,-1,-1,-1,-1,-1,-1,-1,-1,-1,-1,-1,-1,-1,-1,-1,-1,-1,-1,-1,-1,-1,-1,-1,-1,-1,-1,-1,-1,-1,-1,-1,-1,-1,-1,-1,-1,-1,-1,-1,-1,-1,-1,-1,-1],"split_conditions":[7.6176584E-1,1.2199432E0,2.6665092E-1,1.0273647E0,8.198973E-1,-8.599801E-3,-8.599801E-3,-8.599801E-3,-8.599801E-3,2.4732786E-1,-7.81548E-1,-1.1856208E0,1.2199432E0,1.4733872E0,1.2199432E0,1.2833932E-1,-6.564145E-1,-3.088213E-1,1.6618178E0,-7.7068603E-1,-3.5575125E-1,-3.019938E-1,6.07585E-1,2.2332445E-1,-3.1797567E-1,-1.8340763E-1,3.7133077E-1,2.1855704E-1,1.3731437E0,2.1290147E-1,-8.516323E-1,9.5571256E-1,-2.9392482E-3,-9.781534E-1,5.918353E-2,-1.4816487E0,-6.573955E-2,-1.6713867E0,-1.2542748E0,-2.5404808E-1,1.676288E0,3.247748E-1,-1.2338083E0,7.5212634E-1,-1.1895355E0,1.6908735E0,-3.7833992E-1,-1.7235656E-1,-7.278088E-1,-5.6321865E-1,-1.6066875E0,2.6169664E-1,-7.7068603E-1,2.3223683E-1,-1.5658283E-1,1.3731437E0,-1.0681975E0,1.4926086E-1,-1.6648878E0,2.0365773E-1,1.2153114E-1,-2.514655E-2,2.1710043E-1,3.096029E-2,2.11435E-1,-1.0663175E-1,1.5041475E-1,1.1839531E-2,-1.8132408E-1,1.9759263E-1,-1.0784289E-1,1.7024428E-2,2.0563613E-1,-2.0873846E-1,1.6965218E-1,7.094753E-2,2.0543998E-1,2.0745982E-1,6.9370163E-3,-1.7940882E-1,7.419625E-2,1.410017E-3,2.27273E-1,1.8507937E-1,-1.8688202E-1,1.0986663E-1,-1.7652501E-1,2.1927151E-1,5.8474336E-2,-1.8754832E-1,1.6335952E-1,-1.331061E-1,1.2620194E-1,-9.490507E-2,1.3941282E-1,5.4453835E-2,2.11553E-1,-1.8171231E-1,-7.419231E-2,-1.2886597E-1,1.2406744E-1,1.8572347E-1,3.9875954E-2,-1.8251836E-1,1.1691585E-1,-8.748576E-2,1.679667E-1,-3.0710308E-2,1.8357748E-1,1.3350485E-2,2.1316734E-1],"split_indices":[11,15,16,16,16,15,15,15,15,11,11,16,15,3,15,16,11,11,10,16,16,3,3,3,3,0,3,0,16,3,3,3,11,16,16,4,3,11,11,3,3,3,3,10,10,9,11,0,9,16,4,10,16,9,0,16,8,5,10,0,0,0,0,0,0,0,0,0,0,0,0,0,0,0,0,0,0,0,0,0,0,0,0,0,0,0,0,0,0,0,0,0,0,0,0,0,0,0,0,0,0,0,0,0,0,0,0,0,0,0,0],"split_type":[0,0,0,0,0,0,0,0,0,0,0,0,0,0,0,0,0,0,0,0,0,0,0,0,0,0,0,0,0,0,0,0,0,0,0,0,0,0,0,0,0,0,0,0,0,0,0,0,0,0,0,0,0,0,0,0,0,0,0,0,0,0,0,0,0,0,0,0,0,0,0,0,0,0,0,0,0,0,0,0,0,0,0,0,0,0,0,0,0,0,0,0,0,0,0,0,0,0,0,0,0,0,0,0,0,0,0,0,0,0,0],"sum_hessian":[1.6817489E3,1.2503796E3,4.3136923E2,8.403717E2,4.10008E2,2.2682735E2,2.0454187E2,6.6947284E2,1.7089885E2,3.0209558E2,1.07912415E2,8.94972E1,1.3733014E2,6.3210487E1,1.4133139E2,3.407406E2,3.2873224E2,7.783579E1,9.306306E1,2.458385E2,5.625706E1,3.8538845E1,6.937357E1,1.9489365E1,7.0007835E1,6.031331E1,7.701684E1,5.619634E1,7.0141473E0,6.3675385E1,7.7656006E1,2.2804132E2,1.1269929E2,1.4701982E2,1.817124E2,4.1932613E1,3.590318E1,8.789139E1,5.171666E0,9.732946E1,1.4850905E2,2.6696232E1,2.9560831E1,1.3856309E1,2.4682535E1,4.9146774E1,2.0226797E1,9.294E0,1.0195365E1,2.219939E1,4.780845E1,4.235355E1,3.4663284E1,4.7945933E0,2.219554E0,3.4789246E1,2.8886139E1,2.0669024E1,5.698698E1,1.8245218E2,4.558914E1,7.615524E1,3.6544044E1,3.1207981E1,1.15811844E2,1.0927313E2,7.243926E1,3.9118643E0,3.8020752E1,1.7126175E1,1.8777004E1,3.3696516E0,8.4521736E1,2.437547E0,2.7341194E0,4.1105946E1,5.622352E1,1.4716031E2,1.348731E0,1.5254452E1,1.144178E1,3.1885135E0,2.6372316E1,1.2363099E1,1.4932096E0,2.1631572E0,2.2519379E1,4.799236E1,1.1544132E0,5.6925063E0,1.4534291E1,2.086458E0,8.108907E0,8.94277E0,1.3256619E1,1.2289075E0,4.657954E1,3.0863508E1,1.1490041E1,1.0498902E1,2.4164383E1,3.5181878E0,1.2764056E0,2.6676735E1,8.112512E0,3.9701831E0,2.4915955E1,9.625419E0,1.1043606E1,3.101548E0,5.3885433E1],"tree_param":{"num_deleted":"0","num_feature":"19","num_nodes":"111","size_leaf_vector":"1"}},{"base_weights":[-8.7635286E-2,-3.1606725E-1,1.3668223E-1,-6.5731704E-2,-4.9446785E-1,3.266849E-1,-1.965832E-1,-5.373791E-1,8.63665E-2,-3.5953712E-1,-5.518529E-1,-1.0757632E-1,4.8759905E-1,-1.6869906E-1,-7.5608395E-2,-1.7065516E-1,-2.0293653E-1,3.081513E-1,-2.1340941E-1,-1.6995512E-1,-1.7096534E-1,-2.7562037E-1,-1.6867322E-1,1.9586003E-1,-4.1392046E-1,5.653687E-1,2.0481148E-1,1.4848751E-1,-3.7442306E-1,1.503883E-1,-1.396588E-1,1.9879319E-2,5.4687834E-1,2.1147211E-1,-3.699349E-1,6.351102E-1,-2.4923372E-1,-4.152906E-1,8.6094394E-2,4.573412E-1,-8.179041E-2,-5.4088724E-1,-2.5605554E-2,6.802351E-1,4.5157063E-1,4.1781908E-1,-1.3171947E-1,-3.0864298E-1,3.2313386E-1,-4.7777027E-1,8.262759E-2,2.0536077E-1,-4.6926435E-2,2.1201956E-1,7.6457284E-2,-1.5425804E-1,1.359638E-1,-1.492483E-1,-6.138496E-3,9.070454E-3,2.4763408E-1,-1.1586952E-2,-1.6057675E-1,4.3650147E-2,-1.5332283E-1,1.9102387E-1,4.679877E-3,-1.3549483E-1,6.8611905E-2,1.3591559E-2,-1.691281E-1,1.0352199E-1,-1.438933E-1,2.1021426E-1,1.4184727E-1,1.7862245E-1,4.9085356E-2,1.7400959E-1,1.4368143E-2,-1.324414E-1,9.921408E-2,7.040666E-2,-1.5060769E-1,1.4026493E-1,-7.0222214E-2,-3.430239E-2,-1.5676747E-1,1.3563725E-1,-1.0907187E-1],"categories":[],"categories_nodes":[],"categories_segments":[],"categories_sizes":[],"default_left":[0,0,0,0,0,0,0,0,0,0,0,0,0,0,0,0,0,0,0,0,0,0,0,0,0,0,0,0,0,0,0,0,0,0,0,0,0,0,0,0,0,0,0,0,0,0,0,0,0,0,0,0,0,0,0,0,0,0,0,0,0,0,0,0,0,0,0,0,0,0,0,0,0,0,0,0,0,0,0,0,0,0,0,0,0,0,0,0,0],"id":12,"left_children":[1,3,5,7,9,11,13,15,17,19,21,23,25,-1,27,-1,29,31,33,-1,35,37,-1,39,41,43,45,47,49,-1,-1,51,53,55,57,59,61,63,-1,65,67,69,71,73,75,77,79,81,83,85,87,-1,-1,-1,-1,-1,-1,-1,-1,-1,-1,-1,-1,-1,-1,-1,-1,-1,-1,-1,-1,-1,-1,-1,-1,-1,-1,-1,-1,-1,-1,-1,-1,-1,-1,-1,-1,-1,-1],"loss_changes":[5.9517E1,2.5663036E1,3.718969E1,1.7303745E1,2.4016495E0,2.6172264E1,9.404719E0,5.034447E-1,1.2217062E1,3.925909E0,5.159149E-1,9.551239E0,5.886116E0,0E0,1.0876936E1,0E0,1.4560603E0,7.246483E0,5.2861366E0,0E0,3.6512175E0,9.3915516E-1,0E0,3.8025131E0,2.501461E0,2.483307E0,4.387073E0,7.529476E0,3.3241482E0,0E0,0E0,5.826479E0,2.5109177E0,4.042947E0,2.557116E0,5.716214E-1,3.0625045E0,5.4535985E-1,0E0,2.118721E0,3.0892467E0,5.403681E-1,2.4578757E0,1.1155319E-1,4.4673843E0,2.207345E0,3.61021E0,2.8746006E0,5.5673003E0,8.658104E-1,2.419264E0,0E0,0E0,0E0,0E0,0E0,0E0,0E0,0E0,0E0,0E0,0E0,0E0,0E0,0E0,0E0,0E0,0E0,0E0,0E0,0E0,0E0,0E0,0E0,0E0,0E0,0E0,0E0,0E0,0E0,0E0,0E0,0E0,0E0,0E0,0E0,0E0,0E0,0E0],"parents":[2147483647,0,0,1,1,2,2,3,3,4,4,5,5,6,6,7,7,8,8,9,9,10,10,11,11,12,12,14,14,16,16,17,17,18,18,20,20,21,21,23,23,24,24,25,25,26,26,27,27,28,28,31,31,32,32,33,33,34,34,35,35,36,36,37,37,39,39,40,40,41,41,42,42,43,43,44,44,45,45,46,46,47,47,48,48,49,49,50,50],"right_children":[2,4,6,8,10,12,14,16,18,20,22,24,26,-1,28,-1,30,32,34,-1,36,38,-1,40,42,44,46,48,50,-1,-1,52,54,56,58,60,62,64,-1,66,68,70,72,74,76,78,80,82,84,86,88,-1,-1,-1,-1,-1,-1,-1,-1,-1,-1,-1,-1,-1,-1,-1,-1,-1,-1,-1,-1,-1,-1,-1,-1,-1,-1,-1,-1,-1,-1,-1,-1,-1,-1,-1,-1,-1,-1],"split_conditions":[1.7780922E-1,-5.6321865E-1,3.3580673E-1,-8.599801E-3,5.918353E-2,-8.599801E-3,-8.599801E-3,6.6579394E-2,1.2199432E0,-7.398369E-1,-1.6465583E0,-9.089976E-1,1.0126915E0,-1.6869906E-1,1.2199432E0,-1.7065516E-1,-1.4026605E0,-7.537406E-1,-1.0072821E0,-1.6995512E-1,-1.5450295E0,-1.5588026E-1,-1.6867322E-1,-3.019938E-1,1.4013374E0,1.2199432E0,5.2245116E-1,7.061509E-1,1.4986634E0,1.503883E-1,-1.396588E-1,-1.1277543E0,4.1997135E-1,-1.0874301E0,-2.8101382E-1,-1.2655994E0,1.3090736E-1,-1.5201261E0,8.6094394E-2,1.0044521E0,1.1510702E0,-1.5799876E0,-3.6453167E-1,1.5324152E0,-2.8659546E-1,-3.5575125E-1,1.2483963E0,7.507415E-1,1.3731437E0,-1.2423062E0,-4.7154093E-1,2.0536077E-1,-4.6926435E-2,2.1201956E-1,7.6457284E-2,-1.5425804E-1,1.359638E-1,-1.492483E-1,-6.138496E-3,9.070454E-3,2.4763408E-1,-1.1586952E-2,-1.6057675E-1,4.3650147E-2,-1.5332283E-1,1.9102387E-1,4.679877E-3,-1.3549483E-1,6.8611905E-2,1.3591559E-2,-1.691281E-1,1.0352199E-1,-1.438933E-1,2.1021426E-1,1.4184727E-1,1.7862245E-1,4.9085356E-2,1.7400959E-1,1.4368143E-2,-1.324414E-1,9.921408E-2,7.040666E-2,-1.5060769E-1,1.4026493E-1,-7.0222214E-2,-3.430239E-2,-1.5676747E-1,1.3563725E-1,-1.0907187E-1],"split_indices":[11,16,16,15,16,15,15,11,15,11,3,16,3,0,15,0,3,11,3,0,10,11,0,3,11,15,9,11,11,0,0,4,3,11,11,9,3,8,0,5,11,6,3,10,16,16,11,16,16,10,3,0,0,0,0,0,0,0,0,0,0,0,0,0,0,0,0,0,0,0,0,0,0,0,0,0,0,0,0,0,0,0,0,0,0,0,0,0,0],"split_type":[0,0,0,0,0,0,0,0,0,0,0,0,0,0,0,0,0,0,0,0,0,0,0,0,0,0,0,0,0,0,0,0,0,0,0,0,0,0,0,0,0,0,0,0,0,0,0,0,0,0,0,0,0,0,0,0,0,0,0,0,0,0,0,0,0,0,0,0,0,0,0,0,0,0,0,0,0,0,0,0,0,0,0,0,0,0,0,0,0],"sum_hessian":[1.1596617E3,5.7435895E2,5.8530286E2,2.3956487E2,3.3479407E2,3.7278748E2,2.1251538E2,5.779937E1,1.8176549E2,1.02067024E2,2.3272705E2,1.0087802E2,2.7190945E2,5.191395E1,1.6060143E2,5.2187572E1,5.611799E0,1.0445675E2,7.730874E1,4.7703033E1,5.4363987E1,9.435075E0,2.2329198E2,5.086072E1,5.00173E1,2.1247673E2,5.9432716E1,9.206237E1,6.853905E1,1.2772923E0,4.3345065E0,4.780892E1,5.664783E1,2.0718431E1,5.6590305E1,4.181788E0,5.0182198E1,7.7683587E0,1.666716E0,2.5859755E1,2.5000967E1,3.7396812E1,1.262049E1,1.03264885E2,1.09211845E2,3.6247974E1,2.3184738E1,2.5237328E1,6.682504E1,5.586227E1,1.2676778E1,9.418449E0,3.8390472E1,3.569052E1,2.0957308E1,4.8955984E0,1.5822833E1,4.114766E1,1.5442648E1,1.2782995E0,2.9034886E0,2.9554768E1,2.0627432E1,1.0575783E0,6.71078E0,1.8076769E1,7.782985E0,1.1202326E1,1.3798641E1,1.3675867E0,3.6029224E1,7.08019E0,5.5403E0,9.182045E1,1.1444435E1,7.211926E1,3.709258E1,2.480359E1,1.1444386E1,1.3911631E1,9.273108E0,6.568562E0,1.8668766E1,5.3198166E1,1.3626875E1,6.5188026E0,4.9343468E1,6.9271564E0,5.749622E0],"tree_param":{"num_deleted":"0","num_feature":"19","num_nodes":"89","size_leaf_vector":"1"}},{"base_weights":[-3.2467934E-1,-1.11705765E-1,-4.924146E-1,-4.6434614E-1,1.295193E-1,-5.4503125E-1,-2.8545788E-1,-5.4259413E-1,-2.0851327E-1,4.7479266E-1,-1.4210017E-1,-4.770345E-1,-1.7062153E-1,3.826043E-2,-5.0305426E-1,-2.9029386E-2,-5.5643576E-1,1.9205253E-1,-1.655233E-1,1.7425652E-1,6.151981E-1,-4.1040975E-1,8.949433E-2,-2.6026583E-1,-1.7223737E-1,-4.9293613E-1,2.696461E-1,1.8600473E-2,-5.212159E-1,-1.2444572E-1,1.08244576E-1,-5.655126E-1,-2.7688843E-1,-4.2051324E-1,5.259184E-1,-8.241796E-2,5.177615E-1,2.3518969E-1,6.643125E-1,-5.494366E-1,-1.1495353E-1,-3.624046E-1,3.1424844E-1,-4.8799703E-1,3.3413333E-1,1.1013941E-2,-1.6299085E-1,5.6399065E-1,-1.5607338E-1,-5.464935E-1,-8.5402705E-2,-1.7315468E-1,-1.1195503E-1,1.00960575E-1,-1.4763616E-1,-1.5967526E-1,5.1498763E-2,-1.17143765E-1,1.9274563E-1,1.854962E-1,-7.169973E-2,2.3482957E-1,1.8994471E-2,-7.3854655E-2,1.3800731E-1,1.1090638E-1,2.0991476E-1,-1.7055282E-1,3.5548642E-2,9.26886E-2,-1.58453E-1,-1.5278077E-1,1.41657675E-2,-1.518427E-1,1.2717195E-1,-1.5596871E-1,4.1032497E-2,-1.4450133E-1,2.570809E-1,5.317279E-2,1.9904636E-1,-1.3145208E-1,1.4810465E-1,-1.680705E-1,-6.5507054E-2,-1.2889157E-1,1.6684076E-1],"categories":[],"categories_nodes":[],"categories_segments":[],"categories_sizes":[],"default_left":[0,0,0,0,0,0,0,0,0,0,0,0,0,0,0,0,0,0,0,0,0,0,0,0,0,0,0,0,0,0,0,0,0,0,0,0,0,0,0,0,0,0,0,0,0,0,0,0,0,0,0,0,0,0,0,0,0,0,0,0,0,0,0,0,0,0,0,0,0,0,0,0,0,0,0,0,0,0,0,0,0,0,0,0,0,0,0],"id":13,"left_children":[1,3,5,7,9,11,13,15,17,19,21,23,-1,25,27,29,31,33,-1,35,37,39,41,43,-1,45,47,-1,49,-1,-1,51,53,55,57,59,61,63,65,67,69,71,73,75,77,-1,-1,79,81,83,85,-1,-1,-1,-1,-1,-1,-1,-1,-1,-1,-1,-1,-1,-1,-1,-1,-1,-1,-1,-1,-1,-1,-1,-1,-1,-1,-1,-1,-1,-1,-1,-1,-1,-1,-1,-1],"loss_changes":[3.5535072E1,3.7509335E1,5.910187E0,3.470974E0,2.4657154E1,4.4285583E-1,8.120767E0,9.540405E-1,6.0947165E0,4.7739964E0,9.203547E0,2.3914967E0,0E0,5.929665E0,7.388916E-1,8.470656E-1,1.8049622E-1,4.4837265E0,0E0,3.4133005E0,1.3078976E0,2.7514868E0,8.239057E0,5.4661417E0,0E0,4.1112447E-1,4.2856426E0,0E0,6.893654E-1,0E0,0E0,7.123566E-2,9.758914E-1,6.146326E-1,1.7393584E0,2.6431587E0,1.9359126E0,1.2525368E0,4.6021652E-1,6.5759945E-1,4.2255044E0,1.6505413E0,5.0691404E0,6.4370203E-1,5.294357E0,0E0,0E0,6.528468E-1,2.8698165E0,1.6158485E-1,1.3095742E0,0E0,0E0,0E0,0E0,0E0,0E0,0E0,0E0,0E0,0E0,0E0,0E0,0E0,0E0,0E0,0E0,0E0,0E0,0E0,0E0,0E0,0E0,0E0,0E0,0E0,0E0,0E0,0E0,0E0,0E0,0E0,0E0,0E0,0E0,0E0,0E0],"parents":[2147483647,0,0,1,1,2,2,3,3,4,4,5,5,6,6,7,7,8,8,9,9,10,10,11,11,13,13,14,14,15,15,16,16,17,17,19,19,20,20,21,21,22,22,23,23,25,25,26,26,28,28,31,31,32,32,33,33,34,34,35,35,36,36,37,37,38,38,39,39,40,40,41,41,42,42,43,43,44,44,47,47,48,48,49,49,50,50],"right_children":[2,4,6,8,10,12,14,16,18,20,22,24,-1,26,28,30,32,34,-1,36,38,40,42,44,-1,46,48,-1,50,-1,-1,52,54,56,58,60,62,64,66,68,70,72,74,76,78,-1,-1,80,82,84,86,-1,-1,-1,-1,-1,-1,-1,-1,-1,-1,-1,-1,-1,-1,-1,-1,-1,-1,-1,-1,-1,-1,-1,-1,-1,-1,-1,-1,-1,-1,-1,-1,-1,-1,-1,-1],"split_conditions":[-4.3395483E-1,-9.972266E-3,1.0965204E0,9.5571256E-1,-8.599801E-3,8.048312E-2,-8.599801E-3,-1.7130979E0,-8.599801E-3,-6.1746264E-1,1.2199432E0,-8.599801E-3,-1.7062153E-1,-2.0193316E-1,-3.7833992E-1,5.240292E-1,-7.9128064E-2,-8.3984184E-1,-1.655233E-1,3.721488E-1,-1.2780632E0,1.234832E0,-2.0193316E-1,4.049625E-1,-1.7223737E-1,-1.8368772E-1,5.949211E-1,1.8600473E-2,1.6193948E0,-1.2444572E-1,1.08244576E-1,1.5293747E0,-1.4786863E0,1.2319238E0,-1.2655994E0,-1.5879643E0,-1.143045E0,-2.2764318E-1,-1.3109884E0,1.6874058E0,-1.3237934E0,1.3731437E0,3.3580673E-1,1.3983418E0,-9.6313626E-2,1.1013941E-2,-1.6299085E-1,-1.0715442E0,1.4733872E0,1.5533022E0,5.554701E-1,-1.7315468E-1,-1.1195503E-1,1.00960575E-1,-1.4763616E-1,-1.5967526E-1,5.1498763E-2,-1.17143765E-1,1.9274563E-1,1.854962E-1,-7.169973E-2,2.3482957E-1,1.8994471E-2,-7.3854655E-2,1.3800731E-1,1.1090638E-1,2.0991476E-1,-1.7055282E-1,3.5548642E-2,9.26886E-2,-1.58453E-1,-1.5278077E-1,1.41657675E-2,-1.518427E-1,1.2717195E-1,-1.5596871E-1,4.1032497E-2,-1.4450133E-1,2.570809E-1,5.317279E-2,1.9904636E-1,-1.3145208E-1,1.4810465E-1,-1.680705E-1,-6.5507054E-2,-1.2889157E-1,1.6684076E-1],"split_indices":[11,16,16,3,15,11,15,11,15,3,15,15,0,3,11,10,16,16,0,10,10,16,3,16,0,11,11,0,5,0,0,5,7,4,9,11,11,3,9,3,11,16,16,3,3,0,0,4,3,10,3,0,0,0,0,0,0,0,0,0,0,0,0,0,0,0,0,0,0,0,0,0,0,0,0,0,0,0,0,0,0,0,0,0,0,0,0],"split_type":[0,0,0,0,0,0,0,0,0,0,0,0,0,0,0,0,0,0,0,0,0,0,0,0,0,0,0,0,0,0,0,0,0,0,0,0,0,0,0,0,0,0,0,0,0,0,0,0,0,0,0,0,0,0,0,0,0,0,0,0,0,0,0,0,0,0,0,0,0,0,0,0,0,0,0,0,0,0,0,0,0,0,0,0,0,0,0],"sum_hessian":[9.9527405E2,4.392385E2,5.560355E2,1.7804068E2,2.611978E2,4.4202237E2,1.1401318E2,1.3548187E2,4.2558804E1,1.14676704E2,1.465211E2,1.1973154E2,3.222908E2,4.6162045E1,6.785114E1,3.6369793E0,1.318449E2,1.9842356E1,2.2716448E1,3.7229187E1,7.744752E1,6.7522285E1,7.899882E1,3.81767E1,8.155484E1,1.3663687E1,3.249836E1,2.0377502E0,6.581339E1,1.7957978E0,1.8411815E0,1.2670777E2,5.1371274E0,6.908094E0,1.2934261E1,2.1742662E1,1.5486526E1,9.526626E0,6.792089E1,4.533179E1,2.2190493E1,2.6036472E1,5.2962345E1,2.7731127E1,1.0445575E1,1.2100494E0,1.2453638E1,1.90218E1,1.3476559E1,6.196538E1,3.8480077E0,1.1757298E2,9.134785E0,1.1879137E0,3.9492135E0,5.8966503E0,1.0114439E0,1.1944213E0,1.17398405E1,3.4325013E0,1.831016E1,9.325844E0,6.160682E0,3.0027595E0,6.5238667E0,8.513571E0,5.940732E1,4.4218002E1,1.1137881E0,1.1078077E1,1.1112416E1,1.8986042E1,7.0504284E0,5.8182564E0,4.714409E1,2.654376E1,1.1873666E0,4.1103234E0,6.335251E0,4.461444E0,1.4560355E1,9.623861E0,3.8526976E0,5.879585E1,3.1695335E0,2.719228E0,1.1287799E0],"tree_param":{"num_deleted":"0","num_feature":"19","num_nodes":"87","size_leaf_vector":"1"}},{"base_weights":[2.8230125E-1,3.160473E-1,3.9261222E-2,1.5867561E-1,3.4380925E-1,3.5365403E-1,-1.3508798E-1,3.154899E-1,-2.3134181E-1,2.971765E-1,4.388825E-1,-3.260852E-1,4.4445547E-1,-3.6073622E-1,3.1705406E-1,6.0655177E-1,1.4204518E-1,1.3810116E-1,-5.045306E-1,3.26573E-1,2.259785E-1,2.153908E-1,4.7181866E-1,-1.5224701E-1,7.26945E-2,1.90108E-1,5.316654E-1,-5.964896E-1,-2.1774195E-1,4.7286907E-1,-7.425181E-2,6.3722086E-1,2.9762265E-1,-1.9262102E-1,3.9011964E-1,-2.154911E-1,5.153426E-1,-4.4690357E-3,-5.431754E-1,-9.281088E-2,3.329271E-1,7.666975E-2,2.7997312E-1,1.9550055E-1,-2.3725136E-1,2.9829675E-1,5.165804E-1,-1.0564239E-1,1.3061082E-1,-2.889031E-1,4.41684E-1,5.7160217E-1,1.5462841E-1,-1.8538207E-1,-1.0976303E-2,-4.8524806E-1,4.461376E-3,-1.4581707E-1,5.7258034E-1,-4.5904526E-1,3.037877E-1,1.9694428E-1,5.370172E-2,-1.1078646E-1,1.60286E-1,8.471823E-2,-1.4043371E-1,-1.6958944E-2,1.5671207E-1,-1.4232153E-1,7.6405294E-2,-5.697143E-2,1.9390577E-1,-1.0230417E-1,1.03199326E-1,-1.7122132E-1,-8.892998E-2,-1.4288864E-1,9.837188E-2,1.0095735E-1,-6.694138E-2,-3.66998E-2,7.239865E-2,-5.9568282E-2,8.999837E-2,8.6465985E-2,-1.6352257E-1,1.8952085E-1,-2.3987745E-3,1.6062772E-1,5.365204E-2,-1.6232456E-1,1.01650335E-1,-4.8482757E-2,1.6066392E-1,5.962693E-2,1.8827035E-1,1.4786421E-1,-1.2664595E-1,-1.6234817E-1,1.0482791E-2,-1.3942304E-1,7.665314E-2,-1.3065553E-1,7.738528E-2,1.8095955E-1,-2.3189262E-2,-1.6549474E-1,-9.5943763E-4,-6.664084E-2,1.6672267E-1],"categories":[],"categories_nodes":[],"categories_segments":[],"categories_sizes":[],"default_left":[0,0,0,0,0,0,0,0,0,0,0,0,0,0,0,0,0,0,0,0,0,0,0,0,0,0,0,0,0,0,0,0,0,0,0,0,0,0,0,0,0,0,0,0,0,0,0,0,0,0,0,0,0,0,0,0,0,0,0,0,0,0,0,0,0,0,0,0,0,0,0,0,0,0,0,0,0,0,0,0,0,0,0,0,0,0,0,0,0,0,0,0,0,0,0,0,0,0,0,0,0,0,0,0,0,0,0,0,0,0,0],"id":14,"left_children":[1,3,5,7,9,11,13,15,17,19,21,23,25,27,29,31,33,35,37,39,41,43,45,-1,47,49,51,53,55,57,59,61,63,65,67,69,71,73,75,77,79,81,83,-1,85,87,89,-1,-1,91,93,95,97,-1,-1,99,101,103,105,107,109,-1,-1,-1,-1,-1,-1,-1,-1,-1,-1,-1,-1,-1,-1,-1,-1,-1,-1,-1,-1,-1,-1,-1,-1,-1,-1,-1,-1,-1,-1,-1,-1,-1,-1,-1,-1,-1,-1,-1,-1,-1,-1,-1,-1,-1,-1,-1,-1,-1,-1],"loss_changes":[1.2340401E1,5.7227936E0,1.0175878E1,1.2314468E1,4.84935E0,4.2302694E0,1.2314693E1,7.1419783E0,5.920946E0,1.5099258E0,2.6037521E0,6.428694E-1,1.2035017E0,2.5750713E0,2.4948792E0,3.1398582E-1,7.6320276E0,3.503253E0,6.458063E-1,1.4520607E0,1.7873735E0,9.8401785E0,2.327385E0,0E0,6.916324E-1,2.1248283E0,5.6270695E-1,3.3432007E-1,3.0645404E0,1.8718481E0,1.9364967E0,3.0150604E-1,1.2511582E0,5.290532E0,3.1369371E0,1.8046597E0,1.2868025E0,5.177573E-1,4.2518616E-2,1.5665368E0,1.1264343E0,2.0272517E0,1.6347027E0,0E0,4.16935E0,6.937711E0,1.5120163E0,0E0,0E0,1.1824731E0,7.242682E-1,6.833792E-1,1.2835004E0,0E0,0E0,6.9909334E-1,3.5505204E0,6.7622554E-1,5.4743576E-1,2.734809E-1,1.0289178E0,0E0,0E0,0E0,0E0,0E0,0E0,0E0,0E0,0E0,0E0,0E0,0E0,0E0,0E0,0E0,0E0,0E0,0E0,0E0,0E0,0E0,0E0,0E0,0E0,0E0,0E0,0E0,0E0,0E0,0E0,0E0,0E0,0E0,0E0,0E0,0E0,0E0,0E0,0E0,0E0,0E0,0E0,0E0,0E0,0E0,0E0,0E0,0E0,0E0,0E0],"parents":[2147483647,0,0,1,1,2,2,3,3,4,4,5,5,6,6,7,7,8,8,9,9,10,10,11,11,12,12,13,13,14,14,15,15,16,16,17,17,18,18,19,19,20,20,21,21,22,22,24,24,25,25,26,26,27,27,28,28,29,29,30,30,31,31,32,32,33,33,34,34,35,35,36,36,37,37,38,38,39,39,40,40,41,41,42,42,44,44,45,45,46,46,49,49,50,50,51,51,52,52,55,55,56,56,57,57,58,58,59,59,60,60],"right_children":[2,4,6,8,10,12,14,16,18,20,22,24,26,28,30,32,34,36,38,40,42,44,46,-1,48,50,52,54,56,58,60,62,64,66,68,70,72,74,76,78,80,82,84,-1,86,88,90,-1,-1,92,94,96,98,-1,-1,100,102,104,106,108,110,-1,-1,-1,-1,-1,-1,-1,-1,-1,-1,-1,-1,-1,-1,-1,-1,-1,-1,-1,-1,-1,-1,-1,-1,-1,-1,-1,-1,-1,-1,-1,-1,-1,-1,-1,-1,-1,-1,-1,-1,-1,-1,-1,-1,-1,-1,-1,-1,-1,-1],"split_conditions":[1.2623E0,-1.116465E0,-8.599801E-3,1.5000176E-1,1.2199432E0,-1.3930882E0,8.198973E-1,-8.599801E-3,-8.599801E-3,9.8090696E-1,-1.3237934E0,9.8253036E-1,-4.9406284E-1,-3.066098E-1,1.623797E0,3.877194E-2,1.2199432E0,-1.2341338E-1,-1.5304024E0,-1.6307744E0,-4.4027302E-1,3.3580673E-1,-5.6321865E-1,-1.5224701E-1,4.4429165E-1,-3.1797567E-1,1.4733872E0,1.629732E0,2.8586233E-1,-1.1657114E0,1.2199432E0,1.4698925E0,-1.4026605E0,-1.143045E0,-1.0072821E0,3.4275484E-1,-1.0488427E0,-3.1613332E-1,1.0287755E0,-2.6778752E-2,1.6971339E0,-1.6666019E-1,-1.6208483E0,1.9550055E-1,-3.6453167E-1,-1.9759145E-1,1.5849093E0,-1.0564239E-1,1.3061082E-1,1.3451238E0,-1.4516451E0,-1.3233672E0,8.890531E-1,-1.8538207E-1,-1.0976303E-2,1.4963409E0,1.2199432E0,1.2199432E0,1.6094575E0,3.2208633E-1,-1.4832649E0,1.9694428E-1,5.370172E-2,-1.1078646E-1,1.60286E-1,8.471823E-2,-1.4043371E-1,-1.6958944E-2,1.5671207E-1,-1.4232153E-1,7.6405294E-2,-5.697143E-2,1.9390577E-1,-1.0230417E-1,1.03199326E-1,-1.7122132E-1,-8.892998E-2,-1.4288864E-1,9.837188E-2,1.0095735E-1,-6.694138E-2,-3.66998E-2,7.239865E-2,-5.9568282E-2,8.999837E-2,8.6465985E-2,-1.6352257E-1,1.8952085E-1,-2.3987745E-3,1.6062772E-1,5.365204E-2,-1.6232456E-1,1.01650335E-1,-4.8482757E-2,1.6066392E-1,5.962693E-2,1.8827035E-1,1.4786421E-1,-1.2664595E-1,-1.6234817E-1,1.0482791E-2,-1.3942304E-1,7.665314E-2,-1.3065553E-1,7.738528E-2,1.8095955E-1,-2.3189262E-2,-1.6549474E-1,-9.5943763E-4,-6.664084E-2,1.6672267E-1],"split_indices":[11,16,15,11,15,16,16,15,15,1,11,9,16,10,11,11,15,3,4,9,2,16,16,0,3,3,3,3,3,3,15,10,3,11,3,10,6,8,10,7,3,14,3,0,3,11,10,0,0,10,7,9,16,0,0,4,15,15,5,8,3,0,0,0,0,0,0,0,0,0,0,0,0,0,0,0,0,0,0,0,0,0,0,0,0,0,0,0,0,0,0,0,0,0,0,0,0,0,0,0,0,0,0,0,0,0,0,0,0,0,0],"split_type":[0,0,0,0,0,0,0,0,0,0,0,0,0,0,0,0,0,0,0,0,0,0,0,0,0,0,0,0,0,0,0,0,0,0,0,0,0,0,0,0,0,0,0,0,0,0,0,0,0,0,0,0,0,0,0,0,0,0,0,0,0,0,0,0,0,0,0,0,0,0,0,0,0,0,0,0,0,0,0,0,0,0,0,0,0,0,0,0,0,0,0,0,0,0,0,0,0,0,0,0,0,0,0,0,0,0,0,0,0,0,0],"sum_hessian":[1.5051376E3,1.3213658E3,1.8377171E2,1.9915407E2,1.1222118E3,6.519011E1,1.185816E2,1.4217918E2,5.6974888E1,7.5568134E2,3.665305E2,7.376733E0,5.7813377E1,7.923856E1,3.9343033E1,5.215668E1,9.00225E1,2.4430769E1,3.254412E1,5.323115E2,2.2336978E2,4.80464E1,3.184841E2,4.8828964E0,2.4938364E0,1.5573418E1,4.223996E1,2.8718771E1,5.05198E1,2.798942E1,1.1353613E1,4.6479702E1,5.676979E0,3.8418007E1,5.160449E1,1.2831986E1,1.1598782E1,2.4146261E0,3.0129494E1,7.7415986E0,5.2456995E2,5.9966698E1,1.6340308E2,2.4241554E1,2.3804844E1,6.6880714E1,2.516034E2,1.1618705E0,1.331966E0,5.311579E0,1.0261839E1,3.77277E1,4.5122614E0,2.755928E1,1.159491E0,2.2385971E1,2.8133825E1,3.8206632E0,2.4168756E1,5.5203547E0,5.8332577E0,4.41896E1,2.2901018E0,1.3401349E0,4.3368444E0,1.409305E1,2.4324957E1,1.1920158E1,3.968433E1,8.269295E0,4.5626917E0,1.746665E0,9.852118E0,1.239205E0,1.1754211E0,2.5920906E1,4.208588E0,3.9808981E0,3.7607002E0,5.215904E2,2.9795494E0,2.7268179E1,3.269852E1,6.2039704E0,1.5719911E2,8.817167E0,1.4987677E1,3.1512613E1,3.53681E1,2.3775192E2,1.3851471E1,3.887794E0,1.4237851E0,1.284439E0,8.9774E0,5.517987E0,3.2209713E1,2.9359462E0,1.5763149E0,2.017695E1,2.2090223E0,9.50953E0,1.8624294E1,2.1787715E0,1.6418917E0,2.3149906E1,1.0188495E0,4.4135866E0,1.1067683E0,1.927723E0,3.9055347E0],"tree_param":{"num_deleted":"0","num_feature":"19","num_nodes":"111","size_leaf_vector":"1"}},{"base_weights":[-7.444129E-2,-3.3912316E-1,8.938291E-2,5.7740607E-3,-4.5896605E-1,2.4631613E-1,-2.3565683E-1,-1.5967411E-1,1.6207041E-1,-3.1243005E-1,-5.2579266E-1,-1.7084059E-1,3.9374593E-1,-4.8256305E-1,-9.195947E-2,-2.358281E-1,3.7091804E-1,-4.9236768E-1,-8.019488E-2,-3.5031307E-1,-1.6647273E-1,1.02089465E-1,-4.2846298E-1,5.558771E-1,1.9440433E-1,1.0715724E-1,-5.032686E-1,8.1517205E-2,-3.999496E-1,1.7032467E-2,-1.5757723E-1,5.3978795E-1,-2.5239557E-2,3.799315E-2,-5.1818985E-1,1.7177702E-1,-5.1352984E-1,2.9527595E-2,-1.6159843E-1,3.8178343E-1,-1.1047495E-1,-5.348918E-1,-1.43199535E-2,6.801499E-1,4.2235962E-1,3.5483396E-1,-1.1107926E-1,-1.6476628E-1,-2.52254E-1,-1.561224E-1,2.0909196E-1,-1.6658013E-1,-5.0594676E-1,1.7190722E-1,-1.2673736E-1,1.9135912E-1,7.443713E-2,7.268562E-2,-1.4443535E-1,-7.400179E-3,-1.6517712E-1,1.3390762E-1,-1.4252652E-1,7.29098E-4,-1.7999704E-1,1.5660225E-1,-1.4836018E-1,1.3759078E-1,-1.400214E-1,-1.3483463E-1,7.419901E-2,2.5020032E-3,-1.661553E-1,1.8012467E-1,-7.7667E-2,2.1071564E-1,8.837293E-2,1.6195817E-1,5.0401804E-3,1.7782772E-1,3.9422862E-2,-9.725971E-2,1.0999052E-1,1.1350108E-1,-1.2984832E-1,1.3406262E-1,-5.8726277E-2,6.836875E-2,-1.4532614E-1,-1.597209E-1,4.573083E-2],"categories":[],"categories_nodes":[],"categories_segments":[],"categories_sizes":[],"default_left":[0,0,0,0,0,0,0,0,0,0,0,0,0,0,0,0,0,0,0,0,0,0,0,0,0,0,0,0,0,0,0,0,0,0,0,0,0,0,0,0,0,0,0,0,0,0,0,0,0,0,0,0,0,0,0,0,0,0,0,0,0,0,0,0,0,0,0,0,0,0,0,0,0,0,0,0,0,0,0,0,0,0,0,0,0,0,0,0,0,0,0],"id":15,"left_children":[1,3,5,7,9,11,13,-1,15,17,19,21,23,25,27,29,31,33,35,37,-1,39,41,43,45,-1,47,49,51,53,-1,55,57,-1,59,61,63,65,-1,67,69,71,73,75,77,79,81,-1,83,-1,85,87,89,-1,-1,-1,-1,-1,-1,-1,-1,-1,-1,-1,-1,-1,-1,-1,-1,-1,-1,-1,-1,-1,-1,-1,-1,-1,-1,-1,-1,-1,-1,-1,-1,-1,-1,-1,-1,-1,-1],"loss_changes":[4.419834E1,1.6107674E1,3.219245E1,8.61839E0,2.6674538E0,2.622601E1,7.251418E0,0E0,6.6847734E0,3.848257E0,8.1285095E-1,7.9022555E0,1.0058712E1,1.491024E0,7.0435038E0,2.0535965E0,3.5225973E0,9.0040493E-1,4.6533628E0,2.2170658E0,0E0,3.3167107E0,2.5350046E0,2.5822334E0,7.0296254E0,0E0,7.151909E-1,6.6183543E0,1.0894303E0,4.1222997E0,0E0,8.949785E-1,2.146501E0,0E0,7.912235E-1,5.0408883E0,6.9841146E-1,3.1350842E0,0E0,1.779634E0,4.0008106E0,4.7700214E-1,2.0830903E0,5.469742E-1,4.089468E0,4.9060946E0,5.1966214E0,0E0,1.6784632E0,0E0,6.889515E0,2.1554577E0,6.409435E-1,0E0,0E0,0E0,0E0,0E0,0E0,0E0,0E0,0E0,0E0,0E0,0E0,0E0,0E0,0E0,0E0,0E0,0E0,0E0,0E0,0E0,0E0,0E0,0E0,0E0,0E0,0E0,0E0,0E0,0E0,0E0,0E0,0E0,0E0,0E0,0E0,0E0,0E0],"parents":[2147483647,0,0,1,1,2,2,3,3,4,4,5,5,6,6,8,8,9,9,10,10,11,11,12,12,13,13,14,14,15,15,16,16,17,17,18,18,19,19,21,21,22,22,23,23,24,24,26,26,27,27,28,28,29,29,31,31,32,32,34,34,35,35,36,36,37,37,39,39,40,40,41,41,42,42,43,43,44,44,45,45,46,46,48,48,50,50,51,51,52,52],"right_children":[2,4,6,8,10,12,14,-1,16,18,20,22,24,26,28,30,32,34,36,38,-1,40,42,44,46,-1,48,50,52,54,-1,56,58,-1,60,62,64,66,-1,68,70,72,74,76,78,80,82,-1,84,-1,86,88,90,-1,-1,-1,-1,-1,-1,-1,-1,-1,-1,-1,-1,-1,-1,-1,-1,-1,-1,-1,-1,-1,-1,-1,-1,-1,-1,-1,-1,-1,-1,-1,-1,-1,-1,-1,-1,-1,-1],"split_conditions":[-1.8368772E-1,-9.781534E-1,4.049625E-1,-8.599801E-3,-3.5575125E-1,-8.599801E-3,6.3663226E-1,-1.5967411E-1,-1.1291412E0,-7.398369E-1,-1.2768899E0,-9.089976E-1,1.8997091E-1,-1.6307744E0,3.247748E-1,1.2199432E0,5.20032E-1,-1.6978856E0,4.1997135E-1,1.2833932E-1,-1.6647273E-1,-5.0697905E-1,1.4152411E0,1.2199432E0,-3.5575125E-1,1.0715724E-1,1.2011718E0,-8.599801E-3,8.198973E-1,-1.567669E-1,-1.5757723E-1,5.6472725E-1,1.2199432E0,3.799315E-2,-1.5021722E0,1.2199432E0,-8.3984184E-1,-3.3510464E-1,-1.6159843E-1,1.3749326E0,1.1510702E0,-1.5799876E0,-1.0620345E0,1.5582551E0,6.0259753E-1,1.2199432E0,1.2901075E0,-1.6476628E-1,-1.2449261E0,-1.561224E-1,1.2199432E0,-2.5833452E-1,1.6933156E0,1.7190722E-1,-1.2673736E-1,1.9135912E-1,